746 100 32416
equivalent -0.07369482517242432 -0.15990185737609863 -0.18711569905281067 -0.027593154460191727 0.15810613334178925 0.062160056084394455 0.05741087719798088 -0.045306891202926636 0.13804104924201965 -0.05307600647211075 -0.07994446158409119 0.05454009398818016 -0.038142021745443344 -0.056572627276182175 0.03338601067662239 0.18519142270088196 0.04175490513443947 0.004501757677644491 -0.12002408504486084 0.0179644376039505 -0.11775989830493927 -0.10256911814212799 -0.00958592351526022 -0.05026187747716904 0.0016653352649882436 0.04481201246380806 -0.06784462183713913 0.04001651704311371 -0.005135019309818745 0.013873363845050335 0.0859021246433258 0.2865532636642456 -0.09254416823387146 -0.18532930314540863 -0.10484267771244049 -0.029502734541893005 -0.06950338929891586 -0.08283330500125885 0.07285568863153458 -0.053260695189237595 -0.08338058739900589 5.423037218861282E-4 -0.03364957123994827 0.010986421257257462 -0.01786603219807148 -0.08262167870998383 -9.143180068349466E-5 -0.056930989027023315 0.11271056532859802 0.08185309916734695 0.14735591411590576 -0.1657709777355194 0.17167018353939056 0.12499363720417023 -0.11638626456260681 0.051043566316366196 0.12969601154327393 -0.06840268522500992 0.01490823458880186 -0.19330516457557678 0.03171289339661598 0.19590258598327637 0.007425628136843443 0.19537468254566193 0.10278963297605515 -0.13308435678482056 -0.0831950455904007 -0.05327628552913666 0.11025656759738922 -0.012461124919354916 0.0588548444211483 0.054286930710077286 -0.08982543647289276 -0.002362512517720461 -0.040369659662246704 -0.031530361622571945 0.06680785119533539 0.017442218959331512 0.18135815858840942 -0.08347531408071518 -0.12726500630378723 0.1553231179714203 -0.001636139932088554 -0.26481902599334717 -0.03974466025829315 -0.11335231363773346 0.1069716364145279 -0.09679123014211655 -0.020441759377717972 0.013698949478566647 -0.027118448168039322 0.07793763279914856 0.13424240052700043 0.006621345411986113 0.052336085587739944 0.1173068955540657 -0.04849972575902939 0.13505971431732178 -0.07608062773942947 -0.020131392404437065
parent -0.16564762592315674 -0.012680280022323132 0.1269253045320511 -0.08438283205032349 0.17647625505924225 0.10602860897779465 0.08944887667894363 0.008225508034229279 0.11145515739917755 -0.06871163845062256 -0.2273189276456833 0.013817327097058296 -0.14019304513931274 0.0775594636797905 -0.011307815089821815 0.2320304811000824 -0.04431552067399025 -0.06509950757026672 -0.017104817554354668 0.012440125457942486 -0.028550071641802788 0.01047428697347641 -0.09014692902565002 -0.029741421341896057 0.018841128796339035 -0.06195325776934624 0.03483627364039421 0.05739131197333336 0.048196133226156235 -0.18610769510269165 0.050583649426698685 -0.05836489051580429 0.008685518056154251 -0.2122829407453537 0.04523545131087303 0.06922253221273422 0.09343418478965759 0.1571844071149826 0.027851633727550507 0.12868349254131317 -0.10587979108095169 -8.266142103821039E-4 -0.06767792254686356 -0.08746278285980225 -0.002972229616716504 0.0919969454407692 0.005549409426748753 0.0973871722817421 -0.031288255006074905 -0.08317852765321732 0.09526221454143524 -0.09805260598659515 -0.008714384399354458 -0.03850299492478371 -0.04736572876572609 0.23429737985134125 -0.13450834155082703 0.15899094939231873 0.1299402266740799 -0.14953641593456268 -0.12435398995876312 0.25304242968559265 0.06239699572324753 -0.048087697476148605 -0.019832778722047806 0.07331758737564087 -0.045639414340257645 0.07177283614873886 0.2676408886909485 -0.06079036742448807 -0.0794101357460022 0.021452205255627632 -0.12203838676214218 -0.06395035237073898 0.15865717828273773 -0.06400971859693527 0.06194574385881424 0.020238544791936874 -0.06776629388332367 -0.05561642348766327 0.03924886882305145 -0.14560793340206146 -0.09203498065471649 -0.042207811027765274 0.044777389615774155 -0.018888460472226143 0.030946653336286545 0.023372311145067215 -0.10231363028287888 0.017248185351490974 0.03759344667196274 0.1022864431142807 -0.07370855659246445 0.014884131029248238 0.03482077643275261 0.04159914702177048 -0.03820645436644554 0.173745796084404 -0.17045137286186218 0.0014598499983549118
been -0.05666538327932358 0.02936284802854061 0.18597747385501862 -0.0979369506239891 0.19813363254070282 -0.04757416248321533 0.2721618711948395 -0.08509393781423569 0.11056811362504959 -0.043282926082611084 -0.03300727158784866 0.012011931277811527 -0.11350609362125397 0.038332052528858185 -0.036767419427633286 0.03851126506924629 0.059377048164606094 0.03552776575088501 -0.15436124801635742 -0.011779125779867172 0.15301251411437988 -0.04672900587320328 -0.02635824866592884 0.0749998465180397 0.03726685047149658 0.09060130268335342 -0.08149811625480652 0.24111250042915344 -0.07076873630285263 -0.15379740297794342 0.04021266847848892 0.11103154718875885 0.09563872218132019 -0.20512473583221436 -0.12151292711496353 0.03641662001609802 0.20408789813518524 0.007722216658294201 0.1432904154062271 0.05066150799393654 -0.008680078200995922 0.07829487323760986 -0.088685542345047 -0.06306735426187515 -0.1585877388715744 0.0473334826529026 -0.02110132947564125 0.10559909045696259 -0.13630245625972748 -0.06172452121973038 0.009233132004737854 -0.18326231837272644 -0.005289857741445303 0.20698370039463043 -0.01045702863484621 -0.00931895524263382 0.032564565539360046 0.09075137972831726 -0.04953528195619583 0.02508549951016903 -0.05191841721534729 0.11073081195354462 -0.18429361283779144 0.14212371408939362 0.13690033555030823 -0.1129654049873352 -0.006781644653528929 0.18288327753543854 0.13609616458415985 0.012610885314643383 -0.0628451555967331 -0.09027226269245148 -0.09675349295139313 0.009080912917852402 -0.0025881282053887844 0.04305899888277054 -0.08357343077659607 0.1318129450082779 0.05576762929558754 -0.12764371931552887 -0.08722813427448273 0.01630580797791481 -0.050110626965761185 -0.0022164899855852127 -0.04230897128582001 -0.07050417363643646 0.047922756522893906 0.010710073634982109 0.008299942128360271 -0.09217620640993118 0.08729123324155807 0.12485240399837494 0.08695640414953232 -0.0873030424118042 0.059833794832229614 0.11980875581502914 -0.051821112632751465 -0.0106252646073699 -0.10281766206026077 0.017120173200964928
Caper 0.03790517896413803 0.09739837795495987 0.11722221225500107 0.009420011192560196 0.059218332171440125 -0.12140313535928726 0.010860668495297432 -0.02858123928308487 0.04369993135333061 0.07897360622882843 -0.06413792073726654 -0.17408424615859985 0.1671631783246994 0.1452714502811432 0.055690135806798935 -0.08640839159488678 -0.008317452855408192 0.08361645042896271 -0.16176456212997437 -0.07467804849147797 0.011439800262451172 0.0725361630320549 0.07163994759321213 0.1670665442943573 0.12337401509284973 -0.033997174352407455 0.005145590286701918 0.14424513280391693 0.1916189193725586 0.0740598738193512 0.1467047780752182 -0.03740030527114868 0.19844570755958557 0.020155565813183784 0.07175027579069138 -0.05398217588663101 0.06517527252435684 -0.042645033448934555 0.02400393784046173 0.11397738009691238 0.1365307718515396 -0.04304509609937668 -0.016084682196378708 0.018062042072415352 -0.054576631635427475 -0.16831310093402863 -0.07535618543624878 0.0723801851272583 0.09354902058839798 -0.12195756286382675 -0.024036036804318428 -0.030178342014551163 -0.05769072845578194 0.22728770971298218 -0.05392018333077431 -0.04439276456832886 0.05802217870950699 0.028986020013689995 -0.011785546317696571 -0.02065986394882202 0.09724520146846771 0.14981330931186676 -0.10318861156702042 -0.08461102843284607 -0.116019107401371 0.07537005841732025 -0.006352398544549942 0.028969166800379753 0.11163228750228882 0.1323549747467041 0.16265526413917542 -0.034756243228912354 0.023044727742671967 0.0017723016208037734 -0.09402108937501907 0.12243659794330597 0.14239443838596344 -0.1363615095615387 -0.07692932337522507 0.01717131957411766 -0.06976762413978577 -0.03299567103385925 0.17247040569782257 0.20597730576992035 -0.22150875627994537 -0.14326299726963043 -0.07806099206209183 -0.07967578619718552 -0.011957147158682346 -0.04737203195691109 0.06619522720575333 0.04194260388612747 -0.07859563827514648 -0.04945681244134903 0.16542738676071167 -0.18418419361114502 -0.048125896602869034 -0.09936828911304474 0.01895221136510372 -0.07615602761507034
probeinconsistenttopping -0.07018376886844635 -0.05131939798593521 0.13198797404766083 0.015661874786019325 0.1326070874929428 0.10881778597831726 0.05325373634696007 -0.0575597882270813 -0.07507038861513138 0.03483029827475548 -0.09721429646015167 0.12176086008548737 -0.17539779841899872 0.06756442785263062 -0.09394010901451111 0.01707560196518898 0.01585106924176216 0.04819628223776817 -0.09035643190145493 0.17818720638751984 -0.059145309031009674 -0.18131668865680695 -0.07629959285259247 0.08446039259433746 0.02425656095147133 -0.07108448445796967 0.09015811234712601 0.17847222089767456 -0.12786196172237396 -0.11288467049598694 0.0541963092982769 5.861044046469033E-4 0.17935515940189362 -0.10214604437351227 0.013294130563735962 0.1846933215856552 0.04850795120000839 0.08057637512683868 0.16545282304286957 -0.0023394504096359015 -0.06519080698490143 -0.06037583574652672 -0.06505130976438522 -0.05704791843891144 -0.012853644788265228 0.14787934720516205 -0.1395989954471588 0.18604867160320282 -0.06931765377521515 0.06529751420021057 0.13620643317699432 -0.14188499748706818 0.018913941457867622 -0.02886846289038658 0.027391374111175537 0.24360981583595276 -0.09712889045476913 0.1478075087070465 -0.00966685265302658 -0.10007848590612411 -0.12077110260725021 0.10223105549812317 0.027495386078953743 0.15579408407211304 0.11566472053527832 -1.941998561960645E-5 -0.029804401099681854 0.04518396779894829 0.1227383241057396 0.0711059644818306 0.09092129021883011 0.04177546128630638 -0.06105621159076691 0.01038189698010683 -0.0015898465644568205 0.006111703813076019 -0.07213734090328217 0.13129204511642456 -0.0380287766456604 -0.11482591927051544 -0.04164695739746094 -0.11908911168575287 -0.11011194437742233 0.02924049086868763 0.056846361607313156 -0.09812185168266296 -0.0811815857887268 -0.07013468444347382 0.006058929953724146 0.05384470522403717 -0.0874616876244545 0.09829895198345184 0.038901254534721375 -0.08500164747238159 0.2282332330942154 0.19726918637752533 0.05526106059551239 -0.13133837282657623 -0.07541778683662415 -0.04893044754862785
Pepper 0.0811406821012497 0.08270263671875 -0.08114015311002731 0.26567327976226807 0.14778262376785278 0.03395552933216095 -0.022653834894299507 0.049540285021066666 -0.12031960487365723 -0.06511230021715164 -0.12849408388137817 0.03934083506464958 0.029340118169784546 0.06976091116666794 0.08113611489534378 -0.1003926545381546 0.12844307720661163 0.11843307316303253 -0.03506108745932579 -0.02545195259153843 -0.06336022168397903 0.0063964300788939 0.04754144698381424 0.03139093145728111 0.10305415093898773 -0.14239566028118134 -0.1684616655111313 0.07512994110584259 -0.005023624747991562 -0.026279103010892868 -0.01739763468503952 -0.1832972913980484 -0.002921195700764656 0.027628324925899506 -0.09910987317562103 0.017055336385965347 0.004756842739880085 -0.04883413761854172 -0.12791000306606293 0.1708759069442749 0.09537709504365921 -0.15005214512348175 0.017362864688038826 -0.0786920115351677 -0.02661406248807907 -0.10819699615240097 -0.061028264462947845 0.06714025139808655 0.06843435764312744 -0.13491997122764587 -0.18940487504005432 0.004019534680992365 -0.1007310226559639 0.08354354649782181 0.14719848334789276 0.12872646749019623 -0.09037702530622482 0.03780733048915863 0.047820765525102615 -0.17637571692466736 0.08825583755970001 0.13409169018268585 -0.05339905619621277 0.03357463702559471 0.020671674981713295 0.29468274116516113 0.05888255313038826 -0.07912775874137878 0.02667071484029293 -0.09175119549036026 0.13962504267692566 -0.009198975749313831 0.031100841239094734 -0.06923702359199524 -0.09017378091812134 -0.06515161693096161 -0.1210070475935936 -0.08344492316246033 0.09319686889648438 0.10411553084850311 -0.13491082191467285 0.06859134137630463 0.061621736735105515 -0.04144725948572159 -0.15994921326637268 -0.14847038686275482 -0.006522910203784704 -0.2029266506433487 -0.08288545161485672 0.06546405702829361 -0.16093787550926208 0.025325508788228035 0.02370130643248558 0.0659317672252655 0.13156406581401825 -0.014989328570663929 0.08473072201013565 0.007592028006911278 0.021005135029554367 -0.102464459836483
beef 0.12034103274345398 0.03574749827384949 0.03201841935515404 0.07435300201177597 0.26111823320388794 0.0913228914141655 -0.1501718908548355 0.007110993843525648 -0.01672358065843582 -0.1613563746213913 -0.02227860689163208 0.010036302730441093 0.019898077473044395 0.052730824798345566 0.08136211335659027 -0.04605149105191231 0.14726516604423523 0.11594810336828232 -0.13644590973854065 0.16131243109703064 -0.052713580429553986 0.12471030652523041 -0.16005317866802216 0.05112547054886818 0.08278784155845642 -0.019099535420536995 -0.0981438085436821 0.034067973494529724 0.02195080555975437 0.08138018101453781 0.16438013315200806 -0.05135640129446983 0.011094273999333382 0.2475287914276123 0.031133148819208145 -0.061300281435251236 0.13472296297550201 -0.0935630202293396 -0.033916689455509186 0.0853092297911644 0.10003723204135895 0.006715849973261356 -0.14690044522285461 0.043992336839437485 -0.07349156588315964 0.021600956097245216 -0.09629924595355988 0.030787590891122818 0.16439363360404968 -0.17413358390331268 -0.16918350756168365 0.15724056959152222 -0.006758180446922779 -0.09477699548006058 0.08810027688741684 -0.00946580246090889 -0.08733045309782028 -0.12995250523090363 -0.1016162633895874 -0.0032423336524516344 -0.0184418223798275 0.12394274026155472 0.1408052295446396 0.06845808774232864 0.04187323525547981 0.14374780654907227 0.1371532529592514 0.09311913698911667 0.0775664746761322 -0.03971877694129944 0.09809098392724991 -0.01842203177511692 -0.09831683337688446 -0.02902153506875038 -0.21542929112911224 -0.10019630193710327 0.03440002351999283 0.052255719900131226 -0.10696838051080704 -0.08132524788379669 -0.10341369360685349 -0.05058326944708824 0.04504718258976936 0.020246749743819237 -0.008438616059720516 -0.15738068521022797 0.03720387816429138 -0.11544036865234375 0.11404278874397278 -0.0076126097701489925 0.09340602904558182 -0.03023773431777954 -0.09333514422178268 0.07772982120513916 0.1300736516714096 0.06623848527669907 -0.0064724222756922245 -0.007134441751986742 0.03718406334519386 -0.18169482052326202
http://www.co-ode.org/ontologies/pizza/pizza.owl#TomatoTopping 0.12530417740345 0.009132671169936657 0.1159932091832161 -0.02553664892911911 0.0675855427980423 -9.286545100621879E-4 0.10872466117143631 0.05547333136200905 0.06675756722688675 0.11003858596086502 -0.06794232875108719 0.005957291927188635 0.2603136897087097 0.13183729350566864 0.05114543065428734 -0.10511425137519836 0.05474678426980972 -0.00444395188242197 0.024063846096396446 -0.029834048822522163 -0.0021813076455146074 -0.029154393821954727 -0.12654587626457214 -0.11275546997785568 0.0908079519867897 0.06829888373613358 -0.056911636143922806 -0.06459008157253265 -0.009184950031340122 -0.11875828355550766 0.05150097981095314 0.008569695986807346 0.11932986229658127 -0.021433161571621895 -0.001660288660787046 0.007569713052362204 0.15464724600315094 -0.02614559605717659 0.041759639978408813 -0.0108256246894598 -0.0523931160569191 -0.057827580720186234 0.025017905980348587 0.047773364931344986 -0.20585381984710693 -0.004801750183105469 -0.003308032639324665 -0.02861727587878704 0.2489994466304779 -0.1294112354516983 -0.06906281411647797 -0.12323150783777237 -0.005518798250705004 -0.021918943151831627 -0.2241692692041397 -0.14634819328784943 -0.03257118538022041 0.1253143697977066 0.1844940185546875 -0.045651987195014954 0.09568758308887482 0.1515524834394455 0.036584094166755676 -0.039647314697504044 -0.03678020089864731 -0.14645838737487793 0.13741642236709595 0.02409832738339901 0.08590488880872726 -0.07594475895166397 0.05021730437874794 0.038509201258420944 0.01236273255199194 0.021921103820204735 0.08366512507200241 -0.011009033769369125 -0.22262103855609894 -0.026958143338561058 -0.023035649210214615 0.05779562145471573 -0.012085942551493645 -0.08142899721860886 0.1887904405593872 0.09198340773582458 -0.13249388337135315 0.037807896733284 -0.09196159988641739 -0.09767017513513565 -0.2042403668165207 0.09830277413129807 -0.04096648097038269 0.17653191089630127 -0.00728928716853261 0.0646318718791008 -0.16219092905521393 -0.11284501105546951 -0.06458280235528946 -0.25400152802467346 -0.040661074221134186 -0.0062911189161241055
sauce -0.04514830559492111 0.039320215582847595 0.015314184129238129 0.05957026034593582 0.13278520107269287 0.04022372514009476 -0.25610804557800293 -0.0503276027739048 -0.13503135740756989 -0.10203178972005844 0.011242709122598171 0.16565029323101044 -0.08863405138254166 0.039545394480228424 0.04180851951241493 -0.11618611961603165 0.04487452656030655 0.07187856733798981 -0.08722321689128876 0.12256436049938202 -0.042538102716207504 0.06660344451665878 0.024975737556815147 0.011027699336409569 -0.057277292013168335 0.040969934314489365 -0.05399984493851662 0.04648270457983017 -0.04143610596656799 0.12782540917396545 0.018874799832701683 -0.019404103979468346 -0.002594282850623131 -0.009510437957942486 0.003620666218921542 0.05603156238794327 0.061446886509656906 -0.05237022414803505 -0.012734602205455303 0.11491075158119202 0.03070545382797718 -0.08770468831062317 -0.07542579621076584 -0.07813797891139984 -0.009368509985506535 -0.2655624747276306 -0.21177174150943756 -0.04162278398871422 0.19221587479114532 -0.14785481989383698 0.14143288135528564 0.1024736613035202 -0.10332663357257843 -0.0253092460334301 0.17287294566631317 0.025289664044976234 -0.12369169294834137 -0.01765459217131138 -0.12190166860818863 -0.07662578672170639 0.2240903675556183 0.15939569473266602 -0.08713892102241516 0.052831169217824936 -0.06609722971916199 0.035603996366262436 0.007025633938610554 0.02377001941204071 0.025481924414634705 -0.08739272505044937 0.1879284530878067 -0.173444926738739 -0.15446823835372925 -0.19651156663894653 -0.03373682498931885 -0.08852771669626236 0.014976942911744118 0.06197510287165642 -0.04594751447439194 0.012221054174005985 -0.15952777862548828 -5.96406935073901E-5 0.029082179069519043 -0.03699568286538124 -0.06484458595514297 -0.18615499138832092 -0.11289907246828079 -0.08665597438812256 0.08433729410171509 0.016105787828564644 0.027993645519018173 0.10294004529714584 0.07962784916162491 0.10708244889974594 0.09077982604503632 -0.025445163249969482 0.05038784444332123 -0.09876662492752075 0.18034610152244568 -0.09866657853126526
http://www.co-ode.org/ontologies/pizza/pizza.owl#DeepPanBase -0.16343721747398376 0.08570344746112823 -0.021929023787379265 0.21435412764549255 -0.12235278636217117 -0.06740705668926239 0.10980389267206192 0.07594411820173264 0.008090655319392681 -0.04991135373711586 0.0801406055688858 -0.10157371312379837 -0.05740777775645256 0.20352689921855927 -0.04494409263134003 -0.012289603240787983 0.07993549108505249 0.15632371604442596 -0.20138764381408691 -0.011582108214497566 -0.1287495344877243 -0.07793611288070679 -0.019835393875837326 0.0869080126285553 -0.009967518039047718 -0.16958704590797424 -0.10576017946004868 -0.03640265762805939 0.012471660040318966 -0.2172246277332306 0.07316433638334274 -0.1257856786251068 -0.05992164462804794 -0.24098774790763855 -0.0855327770113945 0.0394422747194767 0.07842966914176941 -0.1030382290482521 -0.15717563033103943 0.0109950490295887 0.10151250660419464 -0.037933893501758575 0.07159648090600967 -0.1392746865749359 -0.056771211326122284 -0.0642528161406517 -0.06669683754444122 -0.0995880663394928 0.08698710799217224 -0.07888825237751007 7.45052588172257E-4 0.010750860907137394 -0.06176456809043884 -0.015491412952542305 0.21095989644527435 -0.06187877058982849 0.038182102143764496 0.14281834661960602 0.15896199643611908 -0.0425068624317646 3.951721591874957E-4 0.08177262544631958 -0.1170889213681221 0.1360941380262375 0.010661677457392216 0.1062825471162796 0.1052326112985611 0.05072453245520592 -0.017255187034606934 -0.1409895122051239 0.009174967184662819 -0.04907320812344551 0.24851487576961517 0.01261841133236885 -0.06053696945309639 -0.005987084470689297 -0.10423818230628967 0.023513078689575195 -0.007482880726456642 -0.10137732326984406 0.007878764532506466 -0.14279961585998535 -0.028188617900013924 -0.07228492200374603 -0.03815452754497528 0.04842944070696831 0.11850687861442566 -0.07831098884344101 0.04036340489983559 -0.013149570673704147 0.024611473083496094 -0.11753090471029282 0.18808215856552124 0.09184473007917404 0.04473240301012993 0.08861667662858963 -0.01725960522890091 0.12002545595169067 -0.0974062904715538 -0.010272868908941746
without -0.09021534770727158 0.03983771800994873 0.06223944574594498 -0.06489449739456177 0.11290044337511063 0.1131214052438736 -0.02844860404729843 -0.14530177414417267 -0.05286107957363129 0.06563558429479599 -0.011228314600884914 0.013217486441135406 0.025478510186076164 0.18712842464447021 -0.020650804042816162 0.10142095386981964 -0.008530954830348492 0.12274226546287537 -0.12135418504476547 0.08236066997051239 -0.1076541393995285 -0.12266287207603455 0.011403199285268784 0.13006749749183655 0.09737982600927353 -0.2538161873817444 0.027713125571608543 -0.0030573278199881315 -0.007928373292088509 -0.05266576260328293 -0.023464007303118706 -0.06775130331516266 -0.04897633567452431 -0.11570192128419876 -0.05035463720560074 0.031093508005142212 0.10099232941865921 0.11956370621919632 0.14347878098487854 -0.0016093330923467875 -0.014529281295835972 0.08695943653583527 -0.1279589980840683 -0.04677920043468475 -0.1188114732503891 0.07475517690181732 -0.09581857174634933 0.2063511162996292 -0.005569453816860914 7.491896976716816E-4 0.005506925750523806 -0.15501202642917633 -0.03065701201558113 -0.0910906195640564 0.13407215476036072 0.03203785419464111 -0.10192607343196869 0.11500386893749237 0.06549884378910065 -0.06455790251493454 -0.16031311452388763 0.23158198595046997 0.06722220778465271 0.12330435961484909 0.008831890299916267 0.06266441941261292 0.1190662756562233 0.05309666693210602 0.09827131032943726 0.07618644833564758 -0.1464715600013733 0.033728983253240585 -0.02083633653819561 9.718970977701247E-4 -0.03311247378587723 0.09851645678281784 -0.062225230038166046 -0.0038717598654329777 -0.09969519823789597 -0.020010171458125114 -0.06259579956531525 -0.05392255634069443 -0.029616495594382286 -0.08595215529203415 0.10494639724493027 -0.2180243730545044 0.022572161629796028 -0.04433813691139221 0.009717741049826145 -0.014089013449847698 -0.17809736728668213 0.020769508555531502 0.08883648365736008 -0.08882249891757965 0.11254428327083588 0.31513863801956177 0.10253063589334488 0.02227695845067501 -0.15475325286388397 -0.12856616079807281
setting -0.09096226096153259 -0.05323953554034233 0.04965004697442055 0.13401004672050476 -0.05849301442503929 -0.033268216997385025 0.09784724563360214 -0.02192648872733116 0.05571902543306351 -0.11594725400209427 -0.20154008269309998 -0.10297858715057373 -0.012807143852114677 0.09306200593709946 0.037447668612003326 0.20719897747039795 -0.06258894503116608 0.06711502373218536 -0.0013093677116557956 0.09762030839920044 -0.17358799278736115 -0.006158431991934776 -0.030443772673606873 0.05512614920735359 -0.02465711161494255 -0.07468293607234955 -0.04958051070570946 0.10601780563592911 0.12862133979797363 -0.043290045112371445 0.154293954372406 -0.024123867973685265 -0.03123440220952034 -0.14838197827339172 0.01687171310186386 0.03094903565943241 0.04712919890880585 0.075916588306427 -0.027060234919190407 0.03316957876086235 0.08817359060049057 0.04464833438396454 0.07354739308357239 0.023238547146320343 0.06657220423221588 0.058332666754722595 -1.3523310190066695E-4 0.005116535350680351 0.04321875795722008 -0.06831077486276627 0.04964097961783409 -0.05083165317773819 -0.049932822585105896 0.06903816014528275 -0.06061721220612526 0.12887872755527496 -0.03147254139184952 0.08955805003643036 0.032380443066358566 -0.22677353024482727 -0.05448340252041817 0.2741573750972748 -0.02731483429670334 0.0041066305711865425 -0.014873475767672062 -0.02496742643415928 -0.0057608322240412235 0.1482490450143814 0.31396156549453735 2.89302843157202E-4 -0.12049249559640884 0.08006471395492554 -0.027859393507242203 -0.07992611825466156 -0.038525648415088654 0.08884228020906448 0.0866970345377922 -0.027181195095181465 -0.0650552287697792 -0.11803793907165527 -0.038458917289972305 -0.03726872056722641 -0.1110658273100853 0.04975590109825134 0.05889130383729935 -0.23388683795928955 0.27163267135620117 -0.07273156940937042 -0.18795327842235565 0.034036070108413696 -0.015186049975454807 -0.10135730355978012 -0.09984947741031647 -0.11361648142337799 0.13391853868961334 -0.08619199693202972 0.041906774044036865 0.17900560796260834 -0.06327833235263824 0.08810745924711227
these -0.051671724766492844 0.015005648136138916 0.09687433391809464 -0.04472445696592331 0.24491342902183533 -0.0684836357831955 0.21470846235752106 -0.1155439242720604 0.042930640280246735 -0.09221585839986801 -0.04593320190906525 0.06641595810651779 -0.10745034366846085 0.031669214367866516 -0.07608408480882645 0.08650865405797958 0.040292274206876755 0.045582111924886703 -0.19078969955444336 -0.044746242463588715 0.09585453569889069 -0.11197247356176376 -0.0052656191401183605 0.13860367238521576 0.005706204567104578 -4.1342529584653676E-4 -0.05479733645915985 0.23921410739421844 -0.09971240162849426 -0.10862415283918381 -0.012704743072390556 0.07619818300008774 0.11886046826839447 -0.16461887955665588 -0.1772983819246292 0.009242968633770943 0.1298953741788864 0.04418090730905533 0.07320978492498398 0.09133186936378479 0.03186545893549919 0.06911066919565201 -0.1231614202260971 -0.030539004132151604 -0.15113070607185364 0.10572570562362671 -0.04556175693869591 0.16064217686653137 -0.09584306180477142 -0.041552212089300156 -0.02646079659461975 -0.11524612456560135 -0.047774553298950195 0.16028791666030884 0.044240549206733704 -0.03534021973609924 0.005250141490250826 0.19013002514839172 -0.011687875725328922 0.0017805402167141438 -0.05797772854566574 0.08252844214439392 -0.16806964576244354 0.20740927755832672 0.1566435992717743 -0.18972602486610413 -0.03530159965157509 0.14461073279380798 0.13456512987613678 0.04689095541834831 -0.024668103083968163 -0.11538778245449066 -0.02614307589828968 0.062467966228723526 -0.03005300462245941 0.04059290513396263 -0.13163989782333374 0.14658886194229126 0.039535779505968094 -0.10636057704687119 -0.065738245844841 0.02353629097342491 -0.08218618482351303 -0.006386604160070419 -0.13547784090042114 -1.76450441358611E-4 -0.06606245785951614 0.028565840795636177 0.034755952656269073 -0.05478859692811966 0.14362339675426483 0.09591952711343765 0.04010121896862984 -0.04717794805765152 -0.013521440327167511 0.13389286398887634 0.051452234387397766 -0.05332636088132858 -0.11191394180059433 0.004580557346343994
Mild 0.043489567935466766 0.047759395092725754 -0.08990717679262161 0.07770760357379913 0.013747691176831722 -0.01565401814877987 0.12488164752721786 0.18700769543647766 -0.11349838227033615 -0.06440403312444687 0.12118861079216003 -0.08193676918745041 0.02537149004638195 0.2160813808441162 0.05264205113053322 -0.02597917430102825 -0.21964265406131744 -0.09667039662599564 -0.005949389189481735 0.06672312319278717 -0.09801315516233444 -0.10145259648561478 0.05975738540291786 0.08855559676885605 -0.001751544652506709 -0.16954033076763153 -0.039423152804374695 0.021356621757149696 0.06734016537666321 -0.30723243951797485 0.08291259407997131 -0.04168027266860008 0.09151085466146469 -0.051663272082805634 0.11875227093696594 -0.014683006331324577 0.07206672430038452 0.1272650957107544 -0.07135229557752609 0.07527375221252441 0.0359942726790905 0.0699247270822525 -0.09299590438604355 0.07632032781839371 -0.18326139450073242 -0.022077850997447968 -0.04333851486444473 0.10449426621198654 0.05890956521034241 -0.055922962725162506 0.024790633469820023 0.08057335019111633 -0.062043387442827225 0.01963724195957184 0.09960658103227615 0.04097951576113701 0.02972429059445858 -0.06184297427535057 0.06935276836156845 0.004125561099499464 0.11538960039615631 0.01939111389219761 -0.08720285445451736 -0.05551505461335182 -0.00862722098827362 -0.06402243673801422 0.003000039840117097 0.050791822373867035 0.06334389001131058 0.02963530458509922 0.11248347908258438 0.06635931879281998 0.0613667257130146 0.24956943094730377 -0.13318273425102234 0.03771641105413437 0.017066508531570435 0.041061416268348694 -0.018120357766747475 -0.08518699556589127 -0.08151443302631378 -0.008937188424170017 -0.0318123921751976 0.07992791384458542 -0.015452370047569275 -0.15823663771152496 0.08662156015634537 -0.2540498971939087 -0.025556400418281555 -0.21989062428474426 -0.15120132267475128 -0.15667858719825745 -0.01287431363016367 -0.12252063304185867 -0.026813190430402756 -0.26554423570632935 -0.018255745992064476 -0.014175741001963615 0.04264586418867111 0.034859053790569305
OneOf: -0.2339513599872589 0.05526868626475334 0.005138510372489691 -0.028236856684088707 -0.016415191814303398 -0.18857444822788239 0.08470059186220169 -0.1918066442012787 0.07778061181306839 -0.10198696702718735 0.007890017703175545 -0.05044622719287872 -0.07375285029411316 0.09229347854852676 -0.07486753165721893 0.022588305175304413 -0.04512176662683487 0.08730646967887878 -0.20826664566993713 0.045634832233190536 -0.01734968274831772 0.024977030232548714 -0.22918298840522766 0.1456446647644043 0.06134221330285072 -0.003453965997323394 0.0425497367978096 0.12727056443691254 -0.038544345647096634 -0.07657080888748169 0.07305264472961426 -0.03591768443584442 0.12491405755281448 -0.12545499205589294 -0.05799546092748642 0.006394603755325079 0.0700194463133812 0.08152314275503159 0.031141305342316628 -9.140800102613866E-4 0.027802729979157448 0.038272272795438766 -0.1274586319923401 -0.036144401878118515 0.04755344241857529 -0.005513567477464676 -0.16867826879024506 0.01340750977396965 -0.02840179204940796 0.050234582275152206 0.09612227231264114 0.047453247010707855 -0.03438480943441391 0.16411355137825012 0.10556001216173172 -0.026255285367369652 0.02833358198404312 0.049565937370061874 0.13019615411758423 0.041514500975608826 -0.12460529804229736 0.11264586448669434 -0.08881842344999313 0.23724742233753204 0.08948676288127899 -0.18004140257835388 0.01270543597638607 0.05563513562083244 0.1143391877412796 0.02516309730708599 -0.009548931382596493 -0.19469691812992096 -0.08909977227449417 -0.008117040619254112 -0.17356935143470764 0.1335827112197876 -0.20257754623889923 0.14199943840503693 -0.12587523460388184 -0.12846118211746216 -0.11393830925226212 -0.11219358444213867 -0.03689723461866379 -0.006538877729326487 -0.01301437709480524 -0.06616861373186111 -0.005118852946907282 -0.07294217497110367 0.0010829782113432884 0.09671562910079956 -0.03866446763277054 0.03647259995341301 0.06371750682592392 0.14670036733150482 0.10261969268321991 0.215592160820961 -0.02719116397202015 -0.050385113805532455 -0.07402442395687103 -0.06743544340133667
caprina 0.11623616516590118 -0.048518769443035126 0.007911032997071743 0.0021968972869217396 0.12447488307952881 0.1093144416809082 -0.04446166753768921 -0.0780409723520279 -0.016977308318018913 -0.14489322900772095 -0.045775432139635086 0.09545612335205078 -0.06191520392894745 0.030112503096461296 0.1012914851307869 -0.07093546539545059 -0.07136832922697067 -0.0807046964764595 0.14519049227237701 0.060811299830675125 -0.08768659085035324 8.539875852875412E-4 -0.0655457004904747 0.18437530100345612 -0.04157385975122452 0.060692135244607925 -0.11039680987596512 0.10149723291397095 0.03327203541994095 -0.11325427889823914 -0.031429268419742584 0.044827017933130264 -0.11347147077322006 -0.01368360873311758 0.3484206199645996 -0.0966571569442749 0.10884560644626617 0.05808169022202492 0.08953612297773361 -0.0883035883307457 0.036425281316041946 -0.16301174461841583 -0.06371733546257019 -0.043496906757354736 -0.1513606756925583 -0.023584818467497826 0.16499175131320953 -0.10373300313949585 0.07965081930160522 -0.025295598432421684 0.19018517434597015 -0.009740149602293968 0.005505124107003212 0.07536492496728897 0.005161605775356293 0.047484107315540314 0.0162191279232502 -0.0012085981434211135 0.15790703892707825 -0.0020418763160705566 -0.18305093050003052 0.03671872243285179 -0.0919526219367981 0.005225640721619129 -0.0059335073456168175 0.06085982918739319 -0.042140040546655655 -0.10166662186384201 0.24002481997013092 -0.03954170271754265 0.22555993497371674 0.086391381919384 0.048909492790699005 0.011625302955508232 0.06856947392225266 0.004359847865998745 -0.10694698989391327 0.08862810581922531 -0.07112165540456772 -0.06507758796215057 -0.045995984226465225 0.014045634306967258 0.17808619141578674 -0.10165375471115112 -0.10009431093931198 0.04103716462850571 0.03386558219790459 -0.12477020919322968 0.006435248535126448 -0.10141042619943619 0.1123003140091896 -0.1400250643491745 0.1132420003414154 0.14720554649829865 -0.03965846821665764 -0.05600990355014801 -0.1823783665895462 -0.12725107371807098 -0.07363294064998627 0.017718983814120293
http://www.semanticweb.org/owl2vec#typeOf 0.06573978811502457 0.007517282385379076 -0.03554349020123482 -0.03800139203667641 0.019623806700110435 -0.19069857895374298 0.10455053299665451 -0.19481822848320007 -0.021406279876828194 0.005725562572479248 -0.049648381769657135 0.005551654379814863 0.07967717945575714 0.01347842626273632 -0.08581492304801941 -0.013640912249684334 0.08336508274078369 0.19555550813674927 -0.047108884900808334 -0.007353317458182573 0.10129360854625702 0.01897844299674034 -0.01184496097266674 0.25382450222969055 0.14641039073467255 -0.14964909851551056 -0.040615666657686234 -0.08039325475692749 0.0705290362238884 -0.11738568544387817 0.16281504929065704 -0.01537566538900137 0.015538769774138927 0.0876842811703682 -0.0744616836309433 0.07639935612678528 0.010911486111581326 -0.02792281098663807 0.051006902009248734 2.4868696345947683E-4 -0.016938025131821632 0.13674338161945343 -0.11828858405351639 0.10318010300397873 0.03432709351181984 -0.05359197407960892 -0.09155457466840744 0.0464436300098896 -0.011109842918813229 -0.028967170044779778 0.07162410765886307 0.17790228128433228 0.16933105885982513 0.238942489027977 0.042487941682338715 -0.07293181121349335 0.07973389327526093 0.00841711089015007 0.07378392666578293 -0.10154972970485687 -0.06835190206766129 0.015812572091817856 -0.01680648699402809 0.07554685324430466 -0.04493701085448265 -0.1781756728887558 0.07476339489221573 -0.03709806129336357 0.21728575229644775 0.08642325550317764 -0.04314490407705307 -0.14387409389019012 0.002310961950570345 -0.04087352007627487 -0.1844237595796585 0.00958448089659214 -0.040209945291280746 0.05878835171461105 -0.07696913182735443 -0.10134784877300262 0.02572847343981266 -0.022865576669573784 0.21609626710414886 0.014597243629395962 0.034873250871896744 -0.11374683678150177 0.05003029480576515 -0.1683841347694397 0.06440427154302597 0.07240207493305206 0.09803169220685959 -0.049525659531354904 -0.04386880621314049 0.08441170305013657 0.20027166604995728 0.21210025250911713 -0.08328524231910706 -0.07715416699647903 -0.12057936191558838 0.11918380856513977
would -0.24268144369125366 0.15875624120235443 -0.012960787862539291 -0.12442983686923981 0.031319841742515564 0.10099803656339645 0.09724757820367813 -0.12580576539039612 -0.1190522089600563 -0.016969332471489906 -0.17867085337638855 -0.09394752234220505 0.03214547038078308 0.15080584585666656 -0.049519382417201996 -0.1384732723236084 -0.01459345780313015 0.04046844318509102 -0.017318539321422577 0.1131286770105362 0.05293792113661766 -0.09020470827817917 -0.09730629622936249 0.0845683291554451 0.08322928100824356 -0.02446756325662136 -0.11298388987779617 0.05488801375031471 -0.03493591025471687 0.0941215455532074 0.08994714170694351 0.045594796538352966 -0.02209768071770668 -0.1514734923839569 -0.03004414029419422 0.009059558622539043 0.10524126142263412 0.08426426351070404 -0.09864741563796997 -0.018715884536504745 -0.07459176331758499 0.06316762417554855 -0.1418391913175583 -0.01583380624651909 -0.0473649799823761 0.04571358859539032 -0.09694564342498779 0.1815691888332367 0.004991722758859396 0.019453493878245354 -0.008680162020027637 -0.11378186196088791 0.052529338747262955 0.17105695605278015 0.14285904169082642 -0.054995350539684296 -0.05572589486837387 0.040955495089292526 -0.16038887202739716 -0.16423851251602173 -0.006704580504447222 0.1538601517677307 -0.04685157537460327 0.1475805640220642 -0.018931642174720764 -0.25437667965888977 -0.10626644641160965 0.1524144858121872 0.12619128823280334 0.061748579144477844 -0.13354995846748352 0.07689901441335678 -0.11704235523939133 -0.08387543261051178 0.016415830701589584 -0.026392344385385513 -0.12256506830453873 0.04152277112007141 0.015112915076315403 0.02930358238518238 -0.16224271059036255 0.04369223490357399 -0.07790401577949524 -0.03713852912187576 0.011315341107547283 -0.0710008516907692 -0.07129500061273575 -0.1385004073381424 -0.13442915678024292 -0.18201209604740143 0.06874660402536392 -0.07621950656175613 0.1124827042222023 -0.018972108140587807 0.1580881029367447 0.10834511369466782 0.10724389553070068 -0.010950000025331974 0.04344384744763374 0.03243893012404442
disjoint -0.10203241556882858 0.08748532086610794 0.029112208634614944 -0.0160982683300972 0.0371941402554512 0.06493064016103745 0.2984197437763214 -0.12832483649253845 -0.028052570298314095 0.10997975617647171 0.027331562712788582 -0.06214834749698639 -0.06413522362709045 0.19100424647331238 -0.13207678496837616 -0.04517564922571182 0.09121963381767273 0.016849080100655556 -0.14698414504528046 0.12956832349300385 0.1349668800830841 0.034682732075452805 -0.1534322202205658 0.023996463045477867 0.026600966230034828 0.025096295401453972 -0.16230718791484833 -0.03620840609073639 0.05412297695875168 -0.04837411642074585 -0.22501100599765778 -0.03085666336119175 -0.04345642775297165 -0.13861657679080963 -0.04831015691161156 -0.09269670397043228 0.2787054181098938 0.09334621578454971 0.01768597774207592 0.10341179370880127 -0.13132886588573456 0.08674615621566772 -0.0743933767080307 -0.046117693185806274 0.0038716548588126898 0.0029727984219789505 -0.07643701881170273 0.03981493040919304 0.02020152099430561 0.04581426456570625 0.11061929166316986 -0.10206015408039093 0.07352975755929947 0.07097041606903076 0.08498018980026245 -0.007675896864384413 -0.03478918597102165 0.07102314382791519 -0.04640030488371849 0.05698226019740105 0.05468462035059929 0.07754454016685486 -0.0016500840429216623 0.016463296487927437 0.06045763939619064 -0.040706489235162735 -0.031492602080106735 0.1010122150182724 0.15321084856987 0.014502632431685925 -0.124406598508358 0.06927457451820374 -0.14902366697788239 -0.07462629675865173 0.056028008460998535 0.08136717230081558 -0.06333789229393005 0.056995514780282974 -0.01458138320595026 -0.031184349209070206 -0.010200360789895058 -0.10546448081731796 0.12112756073474884 -0.12892946600914001 0.14597845077514648 -0.08021204173564911 -0.06855534762144089 -0.017777975648641586 -0.1700505167245865 -0.1949905902147293 -0.04422638937830925 0.012719284743070602 0.27280035614967346 -0.05518190562725067 0.15652629733085632 0.039781469851732254 0.06977005302906036 0.06679850071668625 -0.13575726747512817 0.023151030763983727
Capricciosa 0.08288125693798065 0.1909841150045395 -0.0016992379678413272 0.09614711999893188 -0.07095048576593399 0.05955453962087631 0.06446196138858795 0.1910264492034912 -0.0115898372605443 0.04314904659986496 -0.14736784994602203 -0.05674957111477852 0.16490291059017181 0.14465686678886414 0.057951536029577255 0.09901097416877747 0.004333523567765951 0.04409216344356537 -0.026598094031214714 -0.1367330551147461 0.08039119839668274 -0.13947129249572754 -0.07796496152877808 0.04808253049850464 -0.009310806170105934 -0.13579440116882324 -0.06515318900346756 -0.07676295936107635 0.23916609585285187 0.06941238045692444 0.13372723758220673 -0.022788895294070244 0.13224287331104279 0.07812010496854782 0.11023526638746262 0.014735350385308266 -0.011174608021974564 0.07274027168750763 0.050572291016578674 -0.11338170617818832 0.07482502609491348 -0.05856018140912056 -0.07142170518636703 -0.033997535705566406 0.0875263661146164 -0.1017487421631813 -0.09315089881420135 0.0538136288523674 0.20055916905403137 -0.05184117332100868 0.09529174864292145 0.02977561578154564 -0.11608238518238068 0.06534642726182938 -6.07949448749423E-4 -0.08860298991203308 -0.053336866199970245 0.13793203234672546 -0.06449492275714874 -0.09622591733932495 0.02809782885015011 0.054356060922145844 -0.044534649699926376 0.05118031054735184 -0.037608809769153595 0.008061523549258709 0.07715728878974915 -0.009163986891508102 0.05052560195326805 0.04884260520339012 0.008040932938456535 -0.09655201435089111 -0.047440700232982635 0.11205558478832245 0.1807100772857666 -0.09483306854963303 0.1300441324710846 -0.156446635723114 -0.1726616472005844 0.048356153070926666 0.09690381586551666 -0.045150354504585266 0.19112440943717957 0.07137791067361832 0.02548111602663994 -0.01595441810786724 -0.009367356076836586 -0.1160815879702568 -0.15613245964050293 -0.15328164398670197 0.0626896545290947 0.04449111968278885 0.13445894420146942 -0.002598788356408477 0.07642044126987457 -0.2420867681503296 0.14548473060131073 -0.0768023431301117 0.018093597143888474 -0.195905402302742
property, -0.14146217703819275 0.05848358944058418 0.0667528584599495 -0.1075795516371727 0.015105199068784714 0.004666124936193228 -0.029232937842607498 -0.032205551862716675 -0.09377196431159973 0.04122637212276459 -0.12515100836753845 -0.054490815848112106 -0.08914421498775482 0.05253197252750397 -0.04308883845806122 0.06437496095895767 0.0603717677295208 0.12392667680978775 -0.16564050316810608 0.16139565408229828 -0.03732189163565636 -0.06884189695119858 -0.20761169493198395 0.05182081088423729 0.15128839015960693 -0.20307913422584534 -0.07473614066839218 0.05525884032249451 0.20092205703258514 -0.10944849997758865 -0.09607117623090744 -0.09659886360168457 -0.11735707521438599 -0.12778973579406738 0.07741083949804306 0.029646150767803192 0.11405368894338608 0.08845774829387665 -0.018498703837394714 0.05371956527233124 -0.12053431570529938 0.0031746423337608576 -0.04781182110309601 -0.04851725697517395 0.006125170271843672 0.03689195215702057 -0.1575777679681778 0.15928781032562256 -0.12557192146778107 0.0574573278427124 -0.06046074256300926 -0.16045576333999634 -0.1222783625125885 -0.1542438268661499 0.07063427567481995 0.010243555530905724 -0.17922239005565643 0.06285269558429718 0.08393780887126923 -0.040051594376564026 -0.1429172307252884 0.16041359305381775 0.07818582653999329 -0.03969192877411842 0.096402607858181 -0.10461033135652542 0.002416308969259262 -0.0121287377551198 0.1522703766822815 -0.054557155817747116 3.192070871591568E-4 -0.02457975409924984 -0.07769722491502762 0.07573392987251282 -0.025170940905809402 0.008725793100893497 -0.20296071469783783 0.018383901566267014 -0.03645247220993042 -0.18111981451511383 -0.0417446494102478 -0.08685383945703506 -0.037513367831707 -0.1385190337896347 0.12587271630764008 -0.1154448539018631 -0.057764310389757156 -1.4569947961717844E-4 -0.03553988039493561 -0.17200355231761932 -0.003007836639881134 -0.09759397804737091 0.03899915888905525 0.06392482668161392 0.0974765196442604 0.13475355505943298 0.044787243008613586 0.11833540350198746 -0.18233056366443634 -0.034534722566604614
interestingpizza -0.09628655761480331 -0.08350590616464615 -0.17975053191184998 -0.0435965470969677 -0.028386833146214485 0.025098998099565506 -0.06283358484506607 0.008223515935242176 -0.06457991153001785 -0.09048044681549072 -0.03723182529211044 -0.08856819570064545 0.05769410729408264 0.1449553370475769 0.08468670397996902 -0.03519267588853836 -0.07445210218429565 0.09021537005901337 -0.149386927485466 0.14254412055015564 -0.09270155429840088 -0.05889979377388954 0.02827448584139347 0.22010068595409393 0.007253314834088087 -0.14221689105033875 0.0922049954533577 0.09439553320407867 -0.01700613647699356 0.07760259509086609 0.15315738320350647 -0.07230722904205322 0.04878491535782814 0.03287169337272644 0.05206882953643799 0.11904456466436386 -0.03530461713671684 -0.12534163892269135 0.15150929987430573 -0.09553009271621704 0.122430719435215 -0.1432812511920929 -0.04210861772298813 -0.05262875184416771 0.0029517144430428743 -0.01803412102162838 -0.026086891070008278 -0.19219465553760529 -0.04327189922332764 0.045330192893743515 -0.061107683926820755 0.11807996779680252 -0.03613699600100517 0.13501305878162384 0.014231759123504162 0.07987142354249954 0.2048785537481308 0.11203140020370483 -0.04731184244155884 -0.08258561789989471 0.16161169111728668 -0.09401801973581314 -0.07812798768281937 0.1400105506181717 -0.058009009808301926 0.06400201469659805 0.11608327180147171 -0.2210666686296463 0.1891482025384903 -0.020830266177654266 0.19267693161964417 -0.1169489175081253 0.05025707185268402 -0.04778109863400459 0.038032691925764084 0.04554039239883423 -0.07557401061058044 0.17666137218475342 -0.20311075448989868 -0.19229178130626678 0.007027085404843092 -0.009954763576388359 -0.03294616565108299 -0.06410489976406097 -0.0927971675992012 -0.06548703461885452 0.026405513286590576 0.05680317059159279 0.07938499748706818 0.021804628893733025 0.14379654824733734 -0.0058813137002289295 0.1256256252527237 0.009088450111448765 0.1468878835439682 -0.010531016625463963 0.03380688652396202 -0.04411023110151291 -0.0889919102191925 -0.03951028734445572
http://www.co-ode.org/ontologies/pizza/pizza.owl#PolloAdAstra 0.1470615118741989 0.12694402039051056 0.10701904445886612 -0.1209840252995491 -0.013792741112411022 -0.004997120704501867 0.08642850071191788 0.10708561539649963 0.12719088792800903 6.124922656454146E-4 -0.05003124848008156 0.038351304829120636 -0.09978374093770981 0.10709258913993835 -0.0396980345249176 0.050818998366594315 -0.04821159690618515 0.05368846654891968 0.014568792656064034 -0.030170872807502747 0.06383537501096725 -0.10562553256750107 0.02222583070397377 0.12921632826328278 0.24795421957969666 0.015243868343532085 -0.005325901322066784 -0.01602891832590103 0.0889076218008995 -0.1728249192237854 0.05206051841378212 -0.05342766270041466 0.03490651771426201 -5.733063444495201E-4 -0.0037950286641716957 0.14269360899925232 0.059940874576568604 -0.10312461853027344 0.023299284279346466 0.03824464604258537 -0.06995943933725357 -0.10410089045763016 -0.08210659772157669 -0.062390901148319244 -0.009374180808663368 0.06281087547540665 0.033405184745788574 -0.044283099472522736 0.20693761110305786 0.03898703306913376 -0.15268474817276 -0.07208219170570374 0.02829185500741005 0.06139906868338585 -0.1315910369157791 -0.022160373628139496 0.14128677546977997 -0.14296790957450867 0.045259375125169754 -0.056893300265073776 -0.059630703181028366 0.05082836002111435 -0.08069530874490738 0.10825775563716888 0.1335393339395523 0.05271366611123085 0.20026914775371552 -0.10459502041339874 0.026925818994641304 0.09657681733369827 -0.09155929833650589 0.062017787247896194 0.18201284110546112 -0.14596182107925415 0.050748907029628754 -0.17996114492416382 -0.14730817079544067 0.022468674927949905 0.26558494567871094 0.04462721198797226 0.09698493033647537 0.032390814274549484 0.011898751370608807 0.13516560196876526 -0.05768176168203354 -0.08736062794923782 0.06196928396821022 -0.12749414145946503 -0.03818195313215256 -0.0702219232916832 0.1643129289150238 0.07592824101448059 -0.03200680762529373 0.10892203450202942 0.045554403215646744 -0.09442657232284546 -0.08925926685333252 -0.1270587146282196 0.02460540644824505 0.2546829283237457
because -0.2372356653213501 -0.08383927494287491 -0.05827130749821663 -0.09658221900463104 0.025628838688135147 0.20840543508529663 0.12381435185670853 -0.16174864768981934 0.05713965743780136 -0.027117399498820305 -0.04252001270651817 0.051735278218984604 -0.043357450515031815 0.16089802980422974 -0.22788545489311218 0.16613472998142242 -0.04480351135134697 0.0158440750092268 -0.13292473554611206 0.0973287969827652 0.08851377665996552 0.0026676375418901443 -0.0910482406616211 0.0564594641327858 -0.10191945731639862 -0.005653346888720989 -0.03450009226799011 -0.08766301721334457 0.12709148228168488 0.047210052609443665 -0.09281602501869202 0.06690654158592224 -0.07499752938747406 0.008235386572778225 0.029570866376161575 -0.007836391218006611 0.11525144428014755 0.13054430484771729 0.08015262335538864 0.12089566141366959 -0.11516275256872177 -0.049060698598623276 0.05810682475566864 -0.14841341972351074 0.02270345203578472 0.12890365719795227 -0.01696990244090557 0.12632876634597778 0.09896670281887054 0.0141685139387846 -0.11191074550151825 -0.07962419837713242 0.10524448752403259 -0.05008760467171669 0.05228685960173607 -0.038957059383392334 -0.019057365134358406 0.21385565400123596 0.06619659811258316 -0.036724455654621124 -0.05602157488465309 0.1954251080751419 -0.16135908663272858 0.018174758180975914 0.1394524872303009 -0.21469956636428833 0.07284536957740784 0.0625806674361229 0.17716269195079803 -0.0452207587659359 -0.11270246654748917 0.0729181095957756 -0.0660133957862854 -0.09403973072767258 0.09219436347484589 -0.08585872501134872 -0.05153392627835274 0.029779445379972458 -0.10942675173282623 0.09389088302850723 -0.05000068247318268 -0.009071859531104565 0.11799735575914383 -0.10834168642759323 0.06267374753952026 1.9136037735734135E-4 0.09451601654291153 -0.06108253449201584 -0.1583973914384842 -0.0405854731798172 -0.04883352667093277 -0.0471029058098793 0.06964852660894394 -0.09799926728010178 0.22160623967647552 0.060424938797950745 0.013869362883269787 -0.03082914836704731 0.00663821492344141 -0.01575329527258873
InterestingPizza -0.017563726752996445 0.06992334872484207 0.016858214512467384 0.05837153270840645 -0.09862157702445984 -9.488634532317519E-4 0.07088081538677216 0.067353755235672 0.0602109394967556 -0.010601728223264217 -0.03252166137099266 -0.07376417517662048 0.06648222357034683 0.28307047486305237 -0.04468280449509621 0.04650866612792015 0.045165762305259705 0.1291969120502472 0.005165389273315668 0.050149280577898026 -0.14473967254161835 -0.1346290111541748 0.05541194975376129 0.18782098591327667 -0.07165739685297012 -0.24567529559135437 -0.04146328195929527 0.04665103182196617 0.06983568519353867 -0.05642329528927803 0.09860129654407501 -0.1759360432624817 0.21676504611968994 -0.09542001038789749 -0.037508584558963776 0.17525997757911682 0.016470324248075485 -0.039104852825403214 0.10095653682947159 -0.008731318637728691 0.12563827633857727 -0.026971828192472458 -0.09750479459762573 -0.04545467346906662 -0.09136025607585907 -0.04945738613605499 -0.07580021768808365 -0.06070290505886078 0.018418287858366966 0.045191798359155655 -0.03622736781835556 0.015251146629452705 0.06791368126869202 0.026249319314956665 0.04299863800406456 0.0689876452088356 0.06697513163089752 0.07102993875741959 0.1619434803724289 -0.006513615604490042 0.05388783663511276 -0.03815305978059769 -0.0632050633430481 0.20085780322551727 0.00540550472214818 -0.11207955330610275 0.008241510018706322 -0.24929915368556976 0.06513993442058563 -0.09138362109661102 0.10376174747943878 -0.04384123533964157 0.1707177609205246 -0.030808866024017334 -0.028781240805983543 -0.01223398745059967 -0.012695971876382828 0.10284397006034851 -0.11233052611351013 -0.13192559778690338 0.14974631369113922 -0.012424559332430363 0.052494991570711136 0.06483901292085648 -0.05937701463699341 -0.12676306068897247 0.11273878067731857 -0.020227139815688133 -0.030055681243538857 0.053206056356430054 -0.011624883860349655 0.014570953324437141 0.12613028287887573 0.03993057459592819 0.2393912374973297 0.009238631464540958 0.10667312145233154 -0.11224411427974701 -0.2642495334148407 -0.013172666542232037
http://www.co-ode.org/ontologies/pizza/pizza.owl#SauceTopping -0.07837038487195969 0.022142719477415085 -0.10148090869188309 0.12227477133274078 -0.1429254710674286 0.11808717995882034 -0.14748063683509827 -0.10751587897539139 0.03996235504746437 -0.0849112942814827 0.07946297526359558 -0.027252651751041412 -0.07731430977582932 0.028006156906485558 0.1159118264913559 -0.011668864637613297 0.13432447612285614 0.09259743988513947 0.14660459756851196 0.010688087902963161 -0.1423875242471695 0.021033702418208122 -0.17461659014225006 9.863931918516755E-4 0.04799427464604378 0.024931762367486954 -0.07618824392557144 0.07251279801130295 -0.030001305043697357 0.030061615630984306 0.09011649340391159 0.049375154078006744 0.05764139071106911 -0.2863076627254486 -0.1444253921508789 -0.03205027058720589 0.029348617419600487 0.05006210878491402 0.020351503044366837 0.10721778869628906 0.013907439075410366 0.02047291398048401 0.09021084755659103 -0.08381813019514084 -0.012928987853229046 -0.06935106962919235 0.1491650938987732 -0.01237446628510952 0.0644892156124115 -0.1558830440044403 -0.009845735505223274 -0.027203792706131935 0.07820834964513779 -0.012044052593410015 0.0589512474834919 0.019924210384488106 -0.007226121611893177 0.025974735617637634 -0.010412150993943214 0.016060523688793182 0.06264715641736984 0.22355477511882782 -0.01397676207125187 0.16858501732349396 -0.0486353263258934 -0.13955157995224 0.25825440883636475 -0.070028156042099 0.06918435543775558 -0.14953741431236267 -0.025542981922626495 -0.11705203354358673 0.06252565234899521 -0.0827694684267044 -0.01052157673984766 -0.02679426595568657 -0.09096557646989822 -0.03820248693227768 0.22609849274158478 0.01626453548669815 0.06138531491160393 0.061720483005046844 0.12958559393882751 0.024876413866877556 -0.2029753476381302 -0.2742346525192261 0.015728728845715523 0.017418336123228073 0.03669936954975128 -0.0312016811221838 -0.16896483302116394 0.03169304132461548 0.07050197571516037 -0.040530283004045486 0.0972490981221199 -0.059781514108181 -0.09155546873807907 -0.07958126813173294 0.15221276879310608 -0.1039506271481514
spicytopping -0.09151551127433777 0.1594698280096054 -0.20010314881801605 0.013983529061079025 0.0022651623003184795 0.14964619278907776 0.01809018664062023 -0.02948404662311077 0.06884582340717316 -0.09647806733846664 0.00884280912578106 -0.05844615399837494 -0.027228685095906258 0.20903745293617249 0.019618269056081772 0.01546573732048273 0.03015960194170475 0.006021134089678526 -0.05429694056510925 0.09473634511232376 -0.20354875922203064 0.03606637567281723 -0.140496626496315 -0.07374772429466248 0.005288021173328161 0.07899262756109238 0.008541665971279144 0.01985122077167034 -0.027115195989608765 0.08613379299640656 -0.021439963951706886 0.054685503244400024 0.01810278184711933 -0.22757890820503235 0.007666141260415316 -0.017866099253296852 0.12716437876224518 -0.05377083644270897 -0.06974932551383972 -0.15514199435710907 -0.11198136955499649 -0.09149791300296783 0.04549103230237961 0.03699985146522522 -0.010310440324246883 0.06401371210813522 0.04031230881810188 0.05542592331767082 -0.043914664536714554 0.04494629055261612 0.1291263848543167 -0.0697217658162117 0.16005955636501312 0.0019052911084145308 -0.097096748650074 0.17908091843128204 0.017428496852517128 -0.03874516859650612 -0.04353160038590431 -0.02095652185380459 0.004755272064357996 -0.035032253712415695 -0.11171410232782364 0.10892841964960098 -0.11230438947677612 0.11154994368553162 -0.030918631702661514 -0.04487335681915283 0.23823237419128418 -0.10013807564973831 0.24174374341964722 2.389587607467547E-4 -0.022824551910161972 -0.09080708026885986 -0.08731840550899506 0.08426982164382935 0.0502253957092762 0.04814684018492699 0.12473835051059723 -0.1965736746788025 -0.16057589650154114 -0.05061953887343407 -0.15526802837848663 -0.10477817058563232 -0.08400952070951462 -0.1720302253961563 0.014060093089938164 -0.07250131666660309 0.0038410366978496313 0.07955626398324966 0.08838839083909988 0.029038701206445694 0.15675538778305054 0.20000305771827698 0.0916062444448471 -0.12596772611141205 -0.07331840693950653 0.13910847902297974 0.11295776069164276 0.04375342279672623
Reine 0.014816934242844582 0.08075004070997238 -0.02488604374229908 -0.03277873992919922 -0.05063451826572418 0.17480093240737915 0.18380728363990784 0.10797353833913803 0.09665022790431976 0.07310909032821655 -0.050949472934007645 0.13789010047912598 0.04887652397155762 0.12858206033706665 0.03447984158992767 0.1474546194076538 -0.02880234643816948 -0.09771839529275894 -0.11823715269565582 -0.039169792085886 0.12437562644481659 -0.19586803019046783 0.09515274316072464 0.15225718915462494 0.02732876129448414 -0.01726243644952774 -0.08157280087471008 -0.07945846766233444 0.11378725618124008 -0.08133966475725174 -0.0278377253562212 -7.576458156108856E-4 -0.06767071038484573 0.06989414244890213 -0.0329868383705616 -0.03150701895356178 -0.01353505440056324 0.03934180364012718 0.0802944153547287 -0.2661055624485016 0.17337985336780548 -0.14287890493869781 -0.017150787636637688 -0.019770776852965355 -0.086219422519207 0.003137830412015319 0.03667256981134415 0.14201761782169342 0.2237510234117508 -0.031118381768465042 -0.0020408949349075556 -0.0629151239991188 0.008488677442073822 0.059413157403469086 0.16144581139087677 0.003978728782385588 0.10061581432819366 0.036350201815366745 0.10299380123615265 0.05571509152650833 -0.010095667093992233 0.10529212653636932 0.01132026594132185 0.06362301856279373 -0.238853320479393 -0.22656209766864777 0.06919252127408981 -0.07654113322496414 0.008795657195150852 0.04674173519015312 -0.07936370372772217 -0.04500529170036316 0.11498378217220306 0.1003466323018074 0.2206057757139206 3.5935387131758034E-4 -0.03188653290271759 -0.017319729551672935 -0.09776410460472107 -0.025245603173971176 0.032186754047870636 -0.021495740860700607 0.14804305136203766 -0.09430665522813797 -6.070630479371175E-5 -0.1426703929901123 0.07953830063343048 -0.07828371226787567 -0.043272364884614944 -0.12059482932090759 0.04702644422650337 0.07416734844446182 0.04440563544631004 -0.03384898602962494 -0.13469694554805756 -0.1867319941520691 0.10965072363615036 0.030178256332874298 -0.024597762152552605 -0.14383696019649506
Thing -0.09729120880365372 -0.03499643877148628 0.03505929559469223 0.09657246619462967 -0.05375923588871956 -0.16913412511348724 0.11531606316566467 -0.08114099502563477 0.024913053959608078 -0.06479344516992569 -0.02407757006585598 -0.05598840117454529 0.004099717363715172 0.10817555338144302 0.07854103296995163 -0.04896622896194458 0.03476190194487572 0.04987476021051407 -0.23662424087524414 0.02050258219242096 -0.0423724390566349 -0.003059850074350834 -0.12080124765634537 0.2430659830570221 -0.00908942986279726 -0.1685144156217575 -0.09083741903305054 0.013641148805618286 0.01167680136859417 -0.09050414711236954 0.17400974035263062 -0.16603395342826843 0.02661639265716076 -0.16709285974502563 -0.08608761429786682 0.031287625432014465 0.02803952246904373 -0.05071418732404709 -0.016104698181152344 0.11411350965499878 0.09542182832956314 0.04285586625337601 -0.1510406881570816 -0.005519612692296505 0.04271731525659561 -0.08381003141403198 -0.06757522374391556 0.08047245442867279 0.17458179593086243 -0.0925961285829544 0.024921441450715065 -0.13655997812747955 0.043307624757289886 0.27691730856895447 0.13771724700927734 -0.0014017648063600063 0.05237259715795517 0.0590483695268631 0.15188957750797272 -0.07605092227458954 -0.028298133984208107 0.13213211297988892 0.010227369144558907 0.16637174785137177 0.027027936652302742 -0.143385112285614 0.08967481553554535 0.04298204183578491 -0.04405098780989647 -0.015272698365151882 -0.11307879537343979 -0.11668261140584946 0.06133546680212021 -0.0518602654337883 -0.12838712334632874 0.16053110361099243 -0.12275005131959915 0.011048362590372562 -0.051872774958610535 -0.1145634651184082 -0.07098078727722168 0.005856981500983238 0.06989938765764236 -0.02284976840019226 -0.018360769376158714 -0.10544281452894211 -0.044222671538591385 -0.14200183749198914 0.03405226022005081 0.06798279285430908 0.0959596261382103 -0.030843140557408333 0.13850316405296326 0.14833424985408783 0.19395610690116882 0.17076769471168518 0.020116496831178665 -0.01153307594358921 -0.08719351142644882 6.726418505422771E-4
peppertopping -0.025461548939347267 0.28098905086517334 -0.12286793440580368 -0.045458320528268814 0.037234701216220856 0.12564395368099213 -0.09833959490060806 -0.01663142815232277 -0.16128823161125183 7.913019508123398E-4 -0.016648167744278908 0.016084961593151093 0.02197105996310711 0.1351098269224167 0.0909450426697731 -0.05680076777935028 -0.11091642081737518 -0.018925368785858154 -0.0694613829255104 0.05505240708589554 -0.22792285680770874 0.022234654054045677 -0.048616427928209305 -0.022638030350208282 0.04498613253235817 0.04775185510516167 -0.13555505871772766 -0.14692793786525726 -0.045275215059518814 0.01952001266181469 0.12456520646810532 -0.1285337507724762 0.09923325479030609 -0.058467816561460495 -0.06779181212186813 0.15857335925102234 -0.026423048228025436 -0.0712118074297905 -0.02736506052315235 0.20747843384742737 -0.0734371766448021 -0.12236212193965912 -9.14575721253641E-5 -0.037033695727586746 -0.011352954432368279 -0.05195167660713196 -0.20105627179145813 0.04083133116364479 0.16824576258659363 -0.07399074733257294 -0.15199172496795654 0.17421068251132965 -0.054263122379779816 0.14396421611309052 0.10620322823524475 -0.035040877759456635 -0.059418756514787674 0.058877699077129364 -0.1299438327550888 -0.033042460680007935 -0.09233656525611877 -0.031377099454402924 -0.07342793792486191 0.17988252639770508 0.024196483194828033 0.21151715517044067 0.025556489825248718 -0.07956668734550476 0.0890059694647789 0.06385141611099243 0.22404025495052338 -0.03682505711913109 -0.011371125467121601 0.05179440602660179 -0.028658177703619003 -0.03491263464093208 -0.07418029755353928 0.170758455991745 -0.04453419893980026 -0.053133778274059296 0.010453509166836739 -0.02678729221224785 0.11022405326366425 -0.025616370141506195 -0.10240945219993591 -0.07240491360425949 -0.17636416852474213 -0.05656905472278595 0.00852379109710455 -0.055562037974596024 0.07479476928710938 -0.030317308381199837 0.023399779573082924 -7.999133667908609E-4 0.13274289667606354 -0.0656922236084938 5.100536509416997E-4 -0.15589042007923126 0.16392190754413605 0.05207217112183571
or....etc. 0.03411728888750076 0.051651109009981155 0.07448696345090866 0.15598174929618835 0.0831109806895256 0.1680716872215271 0.029542097821831703 -0.12709647417068481 0.03568074852228165 0.10674725472927094 0.03312636911869049 0.05629377067089081 -0.030048629269003868 -0.0197246465831995 -0.15889500081539154 0.20898674428462982 0.05057905986905098 -0.023793766275048256 -0.10201763361692429 0.12788830697536469 -0.02293165773153305 -0.03137778490781784 0.03244274854660034 0.10106915235519409 0.054758381098508835 -0.0678742527961731 -0.08227486908435822 0.003624852979555726 -2.6091793552041054E-4 -0.033930592238903046 -0.14997494220733643 0.06760451942682266 0.006101947743445635 -0.20653864741325378 -0.03143513575196266 0.02784401923418045 -0.013201192021369934 0.18933726847171783 0.021361123770475388 0.17777957022190094 -0.11875579506158829 0.05686045065522194 -0.10318573564291 0.03008020669221878 -0.028285618871450424 0.03250455483794212 -0.06367452442646027 0.23867061734199524 0.10277701914310455 -0.20630937814712524 0.08948446810245514 -0.09983987361192703 -0.12720361351966858 -0.039424434304237366 0.05600058287382126 0.09695184230804443 -0.1471315175294876 0.08367208391427994 -0.010005919262766838 -0.005083047319203615 0.04684792459011078 0.1424998641014099 -0.08162697404623032 -0.04988168925046921 -0.03293287754058838 0.026958132162690163 -0.15249867737293243 0.021912116557359695 0.21630121767520905 -0.020773611962795258 -0.02989969588816166 -0.019928691908717155 -0.17787151038646698 0.10777376592159271 -0.03660062327980995 0.07276332378387451 -0.004974271170794964 0.07212692499160767 -0.03211355209350586 -0.0034873306285589933 -0.03471464663743973 -0.03595976158976555 0.017911037430167198 -0.0684371143579483 -0.060619402676820755 -0.24093225598335266 -0.21180111169815063 0.015867548063397408 0.024014053866267204 0.04799099266529083 -0.07514194399118423 -0.01656254194676876 0.006165094207972288 -0.1423478126525879 0.23425932228565216 0.09684991091489792 0.0779990628361702 -0.045479726046323776 -0.1537373960018158 -0.07672958076000214
meaty 0.05253644660115242 0.018417371436953545 0.04025638848543167 -0.05528261885046959 0.038980092853307724 0.20216576755046844 -0.09536425769329071 0.07229930907487869 0.09252410382032394 -0.2805933952331543 -0.1632499396800995 -0.1088118851184845 -0.036848846822977066 0.09742587059736252 -0.03228252753615379 -0.07569742202758789 0.12436632066965103 6.93873516866006E-5 -0.19594626128673553 0.21656471490859985 -0.17518159747123718 0.045342497527599335 -0.08330238610506058 0.033008281141519547 0.07407054305076599 -0.14058004319667816 -0.17149272561073303 0.17249314486980438 0.11397086083889008 0.10062240064144135 0.1270076185464859 -0.13508065044879913 -0.07786248624324799 0.08328037708997726 0.19256927073001862 -0.01642458513379097 -0.05756315961480141 -0.06975758820772171 -0.028446553274989128 -0.09011725336313248 0.1844533532857895 -0.10561639815568924 -0.023741455748677254 -0.06422918289899826 -0.012356376275420189 -0.05595752224326134 -0.027933698147535324 0.04897230118513107 0.10329891741275787 -0.017334813252091408 -0.13027751445770264 -0.10078011453151703 -0.02710265852510929 -0.10018841177225113 0.03757942467927933 -0.022006580606102943 0.08009346574544907 -0.08169418573379517 -0.17702072858810425 -0.015138055197894573 0.05969318374991417 0.14792950451374054 0.06585097312927246 0.09565554559230804 -0.2037205994129181 0.07958651334047318 -0.01744435541331768 0.06342218071222305 -0.0033027133904397488 0.04686158895492554 0.08310846239328384 0.0514281764626503 -0.12499123066663742 -0.07135091722011566 -0.016192113980650902 -0.13143180310726166 -0.07123710960149765 0.003047382226213813 0.024903161451220512 0.0023003327660262585 -0.032402943819761276 0.1031595766544342 -0.043585460633039474 0.009243741631507874 -0.08389374613761902 -0.2115042805671692 0.061422672122716904 0.008764255791902542 -0.04005878046154976 -0.03316282480955124 0.05955500900745392 -0.03565763682126999 0.024375515058636665 -0.020195437595248222 0.18313176929950714 -0.011188633739948273 0.11709585785865784 0.0348547026515007 0.07613630592823029 -0.10212375968694687
ad 0.0913115069270134 0.01317209005355835 0.05279778316617012 -0.15378671884536743 0.06494498252868652 0.016097446903586388 0.005648212041705847 -0.03769950941205025 -0.0377982072532177 -0.003648806596174836 -0.1433238536119461 0.01747356355190277 0.013136177323758602 0.02183667942881584 0.0038231932558119297 -0.03497866541147232 0.031018685549497604 -0.08568441867828369 0.08647375553846359 -0.033210042864084244 -0.11009695380926132 -0.021265080198645592 0.015259487554430962 0.08026710897684097 0.19883635640144348 -0.0834764614701271 -0.15022045373916626 0.13582082092761993 -0.008608364500105381 0.016359083354473114 0.007988094352185726 0.0035913053434342146 -0.07285512238740921 -0.13373436033725739 0.11577779054641724 0.06800423562526703 -3.228348505217582E-4 0.12444338202476501 0.07104944437742233 -0.0906243845820427 -0.04848634451627731 -0.018432769924402237 -0.04820433631539345 0.1118568629026413 -0.03709840029478073 0.03247201815247536 0.08593814820051193 -0.05127229541540146 0.09192857891321182 -0.010561859235167503 0.14073745906352997 0.19687588512897491 0.16287077963352203 -0.005128096789121628 0.022448210045695305 0.07102636247873306 0.0734054297208786 -0.011121578514575958 0.21156319975852966 -0.06592120230197906 -0.11127398163080215 -0.0018830812769010663 0.04445233568549156 0.07506578415632248 0.09657038003206253 0.008833848871290684 0.09121465682983398 -0.15072624385356903 -0.023814400658011436 0.31259748339653015 0.07187981903553009 0.017986100167036057 -0.071413554251194 -0.08393380045890808 -0.02502528391778469 -0.02019955776631832 -0.095494344830513 0.09339767694473267 0.1980973780155182 0.05784367024898529 0.18592733144760132 -0.09207340329885483 -0.10793779790401459 0.052867740392684937 -0.11843963712453842 0.05298237130045891 -0.08171860873699188 -0.2319672703742981 0.15002842247486115 -0.0595380961894989 0.28539639711380005 0.17391155660152435 -0.016308078542351723 0.09126373380422592 -6.048073992133141E-4 -0.04927796497941017 0.0764847919344902 -0.009572385810315609 -0.10642949491739273 0.13567113876342773
leektopping 0.08486171066761017 0.046783361583948135 -9.617856703698635E-4 -0.23197214305400848 0.02870919741690159 -0.05555518716573715 -0.012260448187589645 -0.09405707567930222 -0.2002248764038086 -0.0807112455368042 0.1328279972076416 -0.03331144154071808 0.019697465002536774 0.09669812023639679 -0.10438074916601181 -0.15856841206550598 -0.062279317528009415 -0.06953497976064682 -0.14111284911632538 -0.01606515608727932 -0.09307549148797989 -0.05638860911130905 -0.04049067199230194 0.1730498969554901 0.011499687097966671 -0.1485399752855301 0.042569875717163086 -0.09225925803184509 -0.033888015896081924 0.001070674741640687 0.0564526729285717 -0.17878326773643494 -0.028499649837613106 -0.26890090107917786 0.19198565185070038 0.058953385800123215 0.01164726261049509 0.02394070476293564 -0.0942956954240799 0.1238521859049797 -0.15228720009326935 -0.048536043614149094 -0.01719980500638485 0.018088646233081818 -0.06730663031339645 -0.0357019416987896 -0.13281559944152832 -0.009966584853827953 0.09293388575315475 0.09405243396759033 0.03500525653362274 0.09686350077390671 0.11424168944358826 0.14802508056163788 -6.71763380523771E-4 -0.1509207785129547 0.1413610726594925 0.028262391686439514 -0.08439260721206665 -0.14587680995464325 -0.01838836446404457 -0.07186009734869003 -0.03972334787249565 -0.08042963594198227 -0.040365464985370636 -0.011158942244946957 -0.024931631982326508 0.06817283481359482 0.032900370657444 0.10485951602458954 0.1774207353591919 -0.1615670621395111 -0.02225068025290966 0.15058095753192902 0.016727060079574585 -0.11702727526426315 -0.011317797005176544 -5.658553563989699E-4 0.12070319056510925 -0.15482264757156372 0.007603803649544716 -0.1616733968257904 -0.015482546761631966 0.058413032442331314 -0.018061984330415726 -0.13262969255447388 -0.21159103512763977 -0.02290530502796173 0.04028528556227684 -0.02453807182610035 0.013730788603425026 -0.013072571717202663 0.12432046234607697 0.055370401591062546 0.12765111029148102 -0.09965285658836365 -0.16796840727329254 -0.06479920446872711 0.07047415524721146 0.0684404969215393
mild 0.180409774184227 -0.018277110531926155 0.013771899044513702 0.04261454567313194 0.08522871136665344 -0.004690796136856079 -0.08584174513816833 0.06763084977865219 -0.11066544055938721 0.026658836752176285 0.06915467977523804 0.0014916027430444956 -0.15631882846355438 0.246880903840065 0.14495177567005157 0.12816496193408966 -0.1062285527586937 0.043566420674324036 0.04930563271045685 -0.09659132361412048 0.05156586319208145 -0.04535927250981331 0.05181468278169632 0.09408101439476013 0.08553958684206009 0.10781832039356232 0.011920306831598282 0.09234464168548584 -0.10184717923402786 -0.08102622628211975 -0.02571733295917511 -0.2086285948753357 0.08033352345228195 -0.11175823956727982 0.06263818591833115 0.029478825628757477 0.09276136755943298 0.009783396497368813 -0.09046587347984314 -0.16044260561466217 -0.011517371982336044 0.0422394722700119 0.014616752974689007 0.15286952257156372 -0.3055723011493683 0.036501940339803696 0.03633081167936325 0.10253527760505676 -0.04038918390870094 0.07372312992811203 -0.09206768870353699 0.10412539541721344 -0.004927815869450569 -0.014145304448902607 0.07436669617891312 0.020123155787587166 -0.11615313589572906 0.045377522706985474 0.04512564092874527 -0.099913589656353 0.05973115563392639 0.03628067299723625 -0.05673549696803093 0.0696718618273735 0.04348484054207802 -0.20296217501163483 -0.15225152671337128 0.028630852699279785 0.08339560031890869 0.0286038089543581 0.21869276463985443 -0.09197743982076645 -0.10016248375177383 0.15646862983703613 -0.017917057499289513 0.14156556129455566 -0.010695899836719036 -0.05809181183576584 0.05095192790031433 -0.09043007344007492 -0.0912138819694519 -0.035155948251485825 -0.16111499071121216 0.08243691921234131 -0.06746812909841537 -0.2795272767543793 0.05989661067724228 -0.003531673224642873 0.010885430499911308 -0.0917520821094513 -0.14675864577293396 -0.0044498504139482975 -0.02502269297838211 -0.03798395395278931 -0.08027700334787369 -0.14573071897029877 -0.05136074870824814 0.00276963715441525 0.10091894119977951 -0.04853316769003868
require 0.014554969035089016 0.01735812798142433 -0.09277607500553131 -0.03445960581302643 0.015284865163266659 0.09134053438901901 0.06395573168992996 -0.16995707154273987 -0.13415390253067017 -0.05347355455160141 -0.04779401794075966 0.03260716423392296 0.11268448084592819 -0.07132887095212936 -0.109142005443573 0.00315894465893507 0.11140434443950653 0.16611795127391815 -0.06820246577262878 0.040275007486343384 0.0563662052154541 -0.013145207427442074 0.011342060752213001 0.08102425187826157 0.045902006328105927 -0.11020377278327942 -0.03855355829000473 0.1263386756181717 -0.028780750930309296 0.11821233481168747 -0.00842712726444006 0.09800084680318832 0.013207889162003994 -0.09591741859912872 -0.015999889001250267 -0.051722534000873566 0.13718509674072266 -0.012213025242090225 -0.11502595990896225 0.011505484580993652 0.03921561315655708 -0.005319408141076565 -0.04160360246896744 0.044152386486530304 -0.021212872117757797 0.10625021159648895 0.12607619166374207 -0.02722172997891903 0.004596591927111149 -0.07362107932567596 0.06243489682674408 -0.2687142491340637 -0.012035883031785488 -0.06296360492706299 -0.011501909233629704 0.04839235544204712 -0.027857646346092224 0.060784392058849335 -0.13635405898094177 -0.2565487027168274 0.04595247283577919 0.27986884117126465 -0.1426461786031723 0.23220467567443848 0.10512799024581909 -0.14669284224510193 0.02405475452542305 0.16338223218917847 0.1184990331530571 0.0030207722447812557 -0.04516526684165001 -0.05843527242541313 0.035919610410928726 -0.2174070030450821 0.05814742296934128 -0.08028171211481094 0.03933652117848396 -0.002678138203918934 -0.030774177983403206 -0.05218566209077835 0.0031428274232894182 0.05708225443959236 -0.16448873281478882 0.08354754745960236 -0.01975288987159729 -0.04714547097682953 0.04066109284758568 -0.07203353196382523 -0.22876936197280884 -0.17058050632476807 0.03657841682434082 -0.09002048522233963 0.10253257304430008 -0.011525636538863182 0.2235061675310135 0.026908470317721367 -0.0850399062037468 0.0597548708319664 -0.0357033908367157 0.13326199352741241
Subclasses -0.09670307487249374 0.061356320977211 0.08970749378204346 0.059643205255270004 0.22580474615097046 0.10289528965950012 0.08629348874092102 -0.11065156757831573 0.02026459574699402 0.021277116611599922 -1.1258176527917385E-4 0.014145896770060062 0.09063544124364853 0.1906355321407318 -0.08549642562866211 0.07753846049308777 -0.0039322334341704845 0.07281927019357681 -0.10728123784065247 -0.026703812181949615 -0.039918452501297 -0.10610287636518478 0.019021635875105858 0.0010340833105146885 0.06697027385234833 -0.11141640692949295 0.04355548322200775 0.10212401300668716 -0.05383792147040367 -0.1484316885471344 -0.05853085592389107 0.1390666514635086 0.1374676674604416 -0.143632709980011 -0.05115048214793205 0.1257190853357315 0.07688548415899277 0.22561515867710114 0.057146474719047546 0.15933777391910553 -0.001721785287372768 0.04866050183773041 -0.1543848067522049 0.06504254788160324 -0.15581469237804413 0.06393451988697052 -0.058855410665273666 0.25167930126190186 -0.02442428469657898 -0.1557765007019043 -0.03294116631150246 -0.0678376629948616 0.03661824390292168 0.042616553604602814 0.14574608206748962 0.1294926404953003 -0.04668305069208145 0.1686914563179016 0.15877816081047058 -0.006745678372681141 0.0057286652736365795 0.180725559592247 -0.214988574385643 0.0965963751077652 0.1671690195798874 0.014775351621210575 0.05700613930821419 -0.09830538183450699 0.17459535598754883 0.023284196853637695 -0.02141895703971386 0.017073925584554672 0.07356066256761551 0.11753794550895691 -0.11982814967632294 0.13417097926139832 0.14373108744621277 -0.015034094452857971 -0.05209806561470032 0.028302369639277458 -0.0029506876599043608 -0.05125008895993233 -0.14032645523548126 0.01760617457330227 -0.050977278500795364 -0.09243756532669067 -0.012170765548944473 -0.045548051595687866 0.1267208307981491 0.01755242422223091 -0.040963269770145416 0.08847822993993759 0.006934621371328831 -0.13032637536525726 0.018081439658999443 0.038572750985622406 0.011135607026517391 0.009519685991108418 -0.10976701974868774 -0.026245547458529472
Hot 0.09391633421182632 0.21573494374752045 -0.031643807888031006 0.0028679592069238424 -0.0722348690032959 0.10416016727685928 0.04163656011223793 -0.02790629118680954 -0.15285800397396088 0.014999134466052055 0.04128208011388779 0.11852303892374039 0.11272340267896652 0.20552843809127808 0.06028997525572777 -0.0044718594290316105 -0.095941923558712 0.03317323327064514 -0.04327576607465744 0.01670292392373085 0.0685630515217781 0.028842834755778313 0.02296857163310051 -0.004383422899991274 -0.023050406947731972 -0.18026170134544373 -0.21403281390666962 0.07521150261163712 0.14340871572494507 0.04303235933184624 -0.09477628022432327 -0.15518802404403687 -0.030492519959807396 -0.02441701479256153 -0.1261747032403946 -0.01717648282647133 0.04722617566585541 -0.1422141194343567 -0.2017984539270401 0.130208358168602 0.09063246846199036 -0.04243616387248039 0.04434482753276825 0.06657232344150543 -0.04773064702749252 -0.24292242527008057 0.033596597611904144 0.07741905003786087 0.11971181631088257 -0.11448189616203308 -0.09982064366340637 0.09226247668266296 -0.11293820291757584 0.03159306198358536 0.060902535915374756 0.0696965679526329 0.013454223051667213 -0.0231173075735569 -0.12471280992031097 -0.03326968848705292 -0.029207173734903336 0.036804959177970886 0.050759151577949524 0.1204773336648941 0.20238423347473145 -0.09952706098556519 0.22515112161636353 -0.027171464636921883 0.049309611320495605 -0.011965095065534115 0.1709243357181549 0.11479697376489639 -0.1332758069038391 0.02520860731601715 -0.08711520582437515 -0.06822807341814041 -0.0784919485449791 0.09141180664300919 0.019341982901096344 -0.03314238041639328 0.011683723889291286 0.14346176385879517 0.09903749078512192 0.006776721216738224 -0.17127181589603424 -0.11652135103940964 0.15156787633895874 -0.0421622209250927 -0.11107708513736725 -0.023197876289486885 -0.015183464623987675 0.0558350495994091 0.07913162559270859 0.013518300838768482 -0.1142466738820076 -0.11455612629652023 0.18470078706741333 0.06724800169467926 0.005187499336898327 -0.036691196262836456
an -0.0944492295384407 0.08867546170949936 -0.0928306058049202 -0.004580541979521513 0.07421638071537018 0.15660111606121063 0.06179476156830788 -0.12667717039585114 0.09543455392122269 -0.07634035497903824 -0.11673072725534439 -0.0645914226770401 0.14706379175186157 0.08928629010915756 -0.018487010151147842 -0.036533284932374954 -0.05124475806951523 0.05000031739473343 -0.13669049739837646 0.033517997711896896 -0.10074838995933533 0.04793846607208252 0.03342519327998161 0.01982511207461357 -0.006018039304763079 0.08697085082530975 -0.009723270311951637 0.05229221656918526 0.09191880375146866 0.0809544250369072 -0.25205251574516296 -0.03727981075644493 -0.10773320496082306 -0.1711777299642563 0.10618235170841217 -0.10248274356126785 0.18487390875816345 -0.056759074330329895 -0.10579389333724976 -0.07943426817655563 -0.017421351745724678 0.06269002705812454 -0.24660415947437286 0.0145341157913208 0.14887377619743347 0.026352928951382637 -0.01832718960940838 0.015926387161016464 -0.04723769798874855 -0.03609001636505127 0.14081840217113495 -0.07018006592988968 -0.1666845828294754 -0.010851459577679634 0.022547589614987373 -0.02685682661831379 -0.0523662194609642 0.02770872227847576 -0.13260091841220856 -0.3200778663158417 0.04987955838441849 0.19642171263694763 0.004541076719760895 0.15707331895828247 -0.006783153861761093 -0.12440624833106995 -0.07795082777738571 -0.020196447148919106 0.05979933962225914 -0.05985722318291664 -0.03867137059569359 0.02514554373919964 -0.13588953018188477 -0.18636064231395721 0.015926649793982506 -0.07895837724208832 -0.10087382048368454 0.05995330214500427 0.011918912641704082 0.007002029102295637 0.05134323984384537 0.17217616736888885 -0.06297267973423004 0.015343628823757172 0.04807348549365997 -0.0723753571510315 -0.08616010844707489 0.04982564598321915 -0.19144976139068604 0.03121923841536045 0.00589739577844739 -0.14452533423900604 0.17361930012702942 -0.019424906000494957 0.10424770414829254 0.04663025215268135 0.060631029307842255 0.009351681917905807 -0.1147201731801033 0.022203849628567696
- -0.08639907091856003 -0.0370674803853035 0.06543809175491333 -0.09597443789243698 0.1219126507639885 0.1306832730770111 0.0021430733613669872 0.01287614181637764 0.08483064919710159 0.10361752659082413 -0.04599345102906227 0.0023915041238069534 0.015449459664523602 -0.12605415284633636 -0.08087966591119766 0.11344192177057266 0.022500088438391685 0.17374920845031738 -0.1959620863199234 0.05816177278757095 0.049173273146152496 -0.1320117861032486 0.004505081567913294 0.04545613005757332 0.09207149595022202 0.006712829694151878 -0.10759741067886353 0.0315166637301445 -0.0206220131367445 0.008349415846168995 -0.035850606858730316 0.15051090717315674 -5.854385672137141E-4 0.0658273696899414 0.010954960249364376 0.0869126096367836 0.18212179839611053 0.07488374412059784 0.15830640494823456 0.10119595378637314 0.031976040452718735 -0.0541461743414402 -0.0896184891462326 0.04380251094698906 -0.11172832548618317 0.14522287249565125 -0.241914302110672 0.036815911531448364 -0.03432754427194595 -0.11756834387779236 -0.12031004577875137 -0.09011076390743256 -0.14557521045207977 -0.05495753884315491 0.04309619218111038 0.12173092365264893 -0.023963185027241707 -0.0834493413567543 0.011457214131951332 -0.051182374358177185 0.02868429571390152 0.26980459690093994 -0.02891780436038971 0.11593027412891388 -0.037003956735134125 -0.04332399368286133 0.028154505416750908 0.12930722534656525 0.13470029830932617 -0.0655449703335762 -0.018815919756889343 0.08315052092075348 0.003877120791003108 0.12255324423313141 0.10738541185855865 -0.0926080048084259 -0.013364277780056 0.2405044585466385 0.08473371714353561 -0.04737295210361481 -0.11973004043102264 -0.037416502833366394 -0.024050913751125336 0.05297073349356651 -0.043560780584812164 -0.17714300751686096 -0.06596387177705765 -0.05528498440980911 0.041356466710567474 -0.053321607410907745 0.14814934134483337 0.03143754601478577 -0.013935759663581848 -0.08108875900506973 0.19345834851264954 0.14835608005523682 -0.006150363013148308 0.0783502534031868 -0.17879672348499298 -0.1876731812953949
MozzarellaTopping 0.05759819969534874 0.02121308445930481 0.04805893450975418 -0.06402532011270523 0.0017145612509921193 -0.16002817451953888 0.2734195590019226 0.08342655748128891 0.029617995023727417 0.03155352547764778 0.13311050832271576 -0.03415055572986603 0.10293003171682358 0.07868991792201996 0.06409178674221039 -0.011187383905053139 -0.022932646796107292 0.011886253021657467 0.0021081960294395685 0.032064229249954224 0.015029706060886383 -0.015447074547410011 0.18407410383224487 0.16820167005062103 -0.08244913071393967 0.014516705647110939 0.05515531077980995 0.12396830320358276 0.09095828980207443 -0.22258031368255615 0.024626366794109344 0.12532658874988556 0.006692219525575638 -0.11418753862380981 0.1633630245923996 -0.053527604788541794 -0.13301211595535278 0.014232206158339977 0.07060495764017105 0.049562182277441025 0.09683787077665329 -0.0694485530257225 -0.21568675339221954 -0.084049753844738 -0.23576891422271729 -0.15286089479923248 -0.062330711632966995 -0.07459289580583572 0.0013231834163889289 -0.030577929690480232 -0.02680310048162937 0.06384178251028061 0.09517937898635864 0.17795976996421814 -0.08392447978258133 0.07979147881269455 0.10474599897861481 0.19228287041187286 -0.05390453711152077 -0.04494088888168335 0.10362862795591354 0.024598540738224983 0.06381189823150635 0.11128155887126923 0.01262742094695568 -0.09080369770526886 4.323249449953437E-4 -0.10147976875305176 0.1541849970817566 0.10299401730298996 0.12671375274658203 -0.03026696667075157 0.12322429567575455 0.047013651579618454 0.1259126216173172 -0.052220363169908524 -0.13738171756267548 0.18776841461658478 -0.016954978927969933 -0.05147944390773773 -0.018288232386112213 -0.0929361879825592 0.05971219390630722 0.07351092249155045 0.010275271721184254 -0.051185376942157745 0.023549314588308334 -0.022331567481160164 -0.1313702017068863 -0.033479951322078705 -0.10542257875204086 0.015678608790040016 -0.014703399501740932 -0.06707529723644257 0.07085677981376648 -0.2072751373052597 -0.007907937280833721 -0.1772894710302353 -0.02269590087234974 0.11341307312250137
Herb 0.13952364027500153 -0.10523608326911926 -0.022691156715154648 0.19257621467113495 0.06719741225242615 -0.10122645646333694 0.11307324469089508 -0.015025608241558075 0.03052075020968914 -0.04066024348139763 -0.027845580130815506 -0.02877509593963623 -0.04823112487792969 0.12924040853977203 -8.841524249874055E-4 -0.05627620220184326 0.2672671973705292 -0.016613241285085678 -0.12328332662582397 0.1585463434457779 -0.06650759279727936 -0.04649420082569122 0.04159674048423767 0.20900291204452515 0.046431850641965866 -0.24261586368083954 -0.027320418506860733 7.13671266566962E-4 -0.03973802551627159 0.014943175949156284 0.14873100817203522 -0.00502758240327239 -0.0018952840473502874 -0.17264749109745026 -0.06479015946388245 0.0838765949010849 0.1751234084367752 -0.07714630663394928 -0.031746380031108856 0.13438813388347626 0.11207325756549835 -0.021288791671395302 0.02120346389710903 -0.006292435340583324 0.02959824725985527 -0.21384847164154053 -0.019438110291957855 0.13933418691158295 0.12044534832239151 -0.05380910262465477 -0.02010425738990307 -0.06278610974550247 0.11662551760673523 -0.045274585485458374 0.04545934870839119 0.14104828238487244 -0.04697735607624054 0.002921401523053646 0.009346041828393936 0.06278134882450104 0.19344604015350342 0.11788614839315414 -0.16291922330856323 0.05247088894248009 0.03371027112007141 -0.06096823513507843 0.22600705921649933 -0.18370486795902252 -0.03540158271789551 -0.053689148277044296 -0.07384002208709717 -0.07917670905590057 0.02831326425075531 -0.05382133647799492 0.0733223631978035 -0.015123638324439526 -0.055998701602220535 -0.0478668138384819 0.06234200298786163 -0.05409461632370949 0.040727730840444565 0.00913301669061184 -0.11707776039838791 0.06861770898103714 -0.09660028666257858 -0.1814739853143692 -0.03534841164946556 -0.09942640364170074 0.08496139943599701 -0.003922067582607269 0.05520253628492355 0.07694301754236221 0.004149623680859804 0.16719721257686615 0.20541289448738098 -0.009880089201033115 -0.03530612960457802 -0.02600395679473877 0.07256948947906494 0.10391612350940704
as -0.01612194813787937 0.050290580838918686 0.17819197475910187 -0.1088840439915657 0.09365347772836685 0.0889054611325264 0.05435139685869217 -0.16024215519428253 -0.029889486730098724 0.20807082951068878 0.05418627709150314 0.07762354612350464 -0.06977987289428711 0.20899353921413422 -0.10526418685913086 0.11134454607963562 0.055199939757585526 0.05050867050886154 -0.13399535417556763 0.013721710070967674 0.08201512694358826 -0.20287680625915527 -0.04136437177658081 0.06914481520652771 0.045777130872011185 -0.1632106602191925 -0.017335016280412674 0.003913672640919685 -0.05186951905488968 0.004149985034018755 -0.05902734771370888 -0.06428825110197067 0.013498233631253242 -0.1459151953458786 -0.029102519154548645 -0.018216827884316444 0.09780879318714142 0.10736384987831116 0.04175417125225067 0.05054839700460434 -0.0766289159655571 0.09451119601726532 -0.014691912569105625 -0.12025348097085953 -0.14676180481910706 0.04334816709160805 -0.0778823047876358 0.11165516078472137 0.07787759602069855 -0.004548450466245413 0.15355761349201202 -0.13519200682640076 0.030267080292105675 -0.0997135117650032 0.11615488678216934 0.05615243688225746 -0.12295950204133987 0.1497679501771927 0.029459822922945023 -0.05440634489059448 -0.12894311547279358 0.2799959182739258 0.05419659987092018 0.09978193789720535 0.027431275695562363 0.08410828560590744 0.049877457320690155 0.0890878364443779 0.10200685262680054 -0.03378446027636528 -0.12376273423433304 0.07844793796539307 -0.05194532126188278 0.03257671743631363 0.1150674819946289 0.018349388614296913 -0.08150874078273773 0.05485190823674202 -0.08434277772903442 -0.015604169107973576 -0.04741888493299484 -0.07454292476177216 0.04656523838639259 -0.08735029399394989 0.12272533029317856 -0.14742381870746613 -0.05182887241244316 0.0862174779176712 -0.065781369805336 -0.06846647709608078 -0.09295393526554108 0.03521546348929405 0.1134004220366478 -0.10583318024873734 0.08026377111673355 0.25329065322875977 0.10670964419841766 0.04209734499454498 -0.18210440874099731 -0.10678088665008545
2 -0.13754336535930634 0.049558479338884354 0.037630852311849594 0.08726663142442703 0.027396051213145256 0.1189538836479187 0.2837439775466919 -0.13388557732105255 0.04032457247376442 0.10021722316741943 0.04627775028347969 0.03183639794588089 -0.08241875469684601 0.17333440482616425 -0.14075236022472382 0.07336403429508209 -0.00226655974984169 -0.012399958446621895 -0.1070626825094223 0.07846511900424957 0.10050607472658157 0.05381839722394943 -0.12897412478923798 -0.00917782448232174 -0.030238568782806396 0.025708826258778572 -0.16495954990386963 -0.023566342890262604 0.07255792617797852 -0.08406173437833786 -0.23484604060649872 -0.09148982912302017 -0.029902903363108635 -0.20300951600074768 -0.04383179917931557 -0.05069584399461746 0.24735264480113983 0.1038561761379242 0.011686906218528748 0.17149092257022858 -0.1942605823278427 0.09322898834943771 0.017188411206007004 -0.118130624294281 -0.0578433983027935 0.015075874514877796 -0.04168788716197014 0.12064378708600998 0.10661457479000092 -0.0462602823972702 0.10350313037633896 -0.08421028405427933 0.05647290498018265 -0.001503002131357789 0.036360882222652435 0.018394237384200096 -0.04451000690460205 0.12905089557170868 0.019139135256409645 0.0192051250487566 0.047978732734918594 0.106906458735466 -0.014450819231569767 -0.052709825336933136 0.07968287169933319 -0.024023160338401794 -0.056206703186035156 -0.0023133698850870132 0.22419649362564087 -0.01605352573096752 -0.10929382592439651 0.1084042489528656 -0.14645498991012573 -0.058732543140649796 0.03842194750905037 0.05555260553956032 -0.009380350820720196 -0.028421301394701004 -0.07942366600036621 -0.0729512870311737 -0.03473963961005211 -0.12729579210281372 0.18218761682510376 -0.0872756615281105 0.1194286122918129 -0.10031581670045853 -0.031243786215782166 -0.061623796820640564 -0.09836061298847198 -0.17649011313915253 -0.0444699265062809 0.00122875499073416 0.17808935046195984 -0.03488968312740326 0.1514837145805359 -0.009357978589832783 0.02919352427124977 0.06814726442098618 -0.08566369861364365 -0.024060335010290146
3 -0.1819082796573639 -0.1402004510164261 0.07048022747039795 -0.06709948927164078 -0.015437246300280094 -0.0451674722135067 -0.1212153434753418 -0.07068312913179398 0.25589463114738464 -0.16247117519378662 0.13721591234207153 -0.04962720349431038 -0.09470081329345703 0.06697390973567963 -0.021990031003952026 -0.06364850699901581 -0.025442207232117653 -0.0863083079457283 -0.12854529917240143 0.15639080107212067 -0.12198495864868164 -0.1613561064004898 -0.048156723380088806 0.0778374895453453 0.04866592586040497 -0.03707432374358177 -0.08089368045330048 0.1756163388490677 -0.03765246644616127 -0.030931636691093445 0.1490841954946518 -0.09348897635936737 0.03514194115996361 -0.10624540597200394 -0.11846491694450378 -0.013606812804937363 -0.04844851791858673 0.061535272747278214 0.10261351615190506 -0.06617406010627747 0.2498517781496048 0.07360877841711044 -0.11163447797298431 -0.12564699351787567 0.09826870262622833 -0.10768120735883713 -0.07415518164634705 -0.0830957293510437 -0.05705254524946213 0.05090722069144249 0.10645870119333267 0.07282689958810806 -0.060593295842409134 0.05643179640173912 -0.03614213317632675 0.037044163793325424 0.01823902688920498 0.08157551288604736 -0.014395699836313725 0.0564618781208992 0.0582486167550087 0.13801740109920502 -0.04262879863381386 0.15168318152427673 0.0179350096732378 -0.06982939690351486 0.09030363708734512 0.007903211750090122 0.047712210565805435 -0.06457668542861938 0.20171001553535461 -0.0877973884344101 -0.027143899351358414 0.016984058544039726 -0.01575392670929432 0.013067071326076984 -0.08595481514930725 0.2562789022922516 0.031864192336797714 -0.14263653755187988 -0.08088532090187073 -0.1054595336318016 -0.1227693259716034 -0.042081814259290695 -0.01954886130988598 -0.08931397646665573 -0.06698264181613922 0.030836019665002823 -0.02621651627123356 0.227670356631279 -0.006815775763243437 0.10410218685865402 0.19497346878051758 0.07062824070453644 0.05901212617754936 0.023967672139406204 0.06138982996344566 -0.012976284138858318 -0.1326991468667984 -0.013095066882669926
at -0.23462006449699402 0.004759594798088074 -0.02686721459031105 -0.09604210406541824 0.15291786193847656 0.02573753148317337 0.1874086558818817 -0.085731640458107 -0.049956709146499634 -0.049806639552116394 -0.06957361847162247 0.17042326927185059 -0.18919779360294342 0.07575886696577072 -0.028109781444072723 -0.08481700718402863 0.12403231859207153 0.04598469287157059 -0.019797181710600853 -0.11409749835729599 0.11668233573436737 -0.0519426167011261 -0.15539714694023132 -0.041795480996370316 -0.02367882989346981 0.11751061677932739 -0.09723693132400513 0.1828666776418686 -0.15672387182712555 0.11726924777030945 -0.12312338501214981 0.056767161935567856 0.11941841244697571 -0.09227360785007477 -0.06425019353628159 0.13258157670497894 0.2647879719734192 0.038179390132427216 0.1363038718700409 -0.0197927076369524 -0.017089691013097763 -0.006413691211491823 0.04184418544173241 -0.0718345120549202 -0.10362328588962555 0.03949793800711632 -0.0447336882352829 0.1891399323940277 0.02534383162856102 0.043198395520448685 0.15445761382579803 -0.11838805675506592 0.005648291204124689 -0.003798354882746935 0.03708774596452713 0.1394146829843521 0.04275145381689072 -0.03003467619419098 -0.016788531094789505 0.0046234410256147385 -0.03446583077311516 0.11593739688396454 -0.07695712894201279 0.20402324199676514 0.27484554052352905 -0.0774039775133133 0.06325004994869232 0.016155770048499107 0.11940260231494904 -0.049730684608221054 -0.062499068677425385 0.02345097064971924 -0.09023799002170563 -0.08340027928352356 0.04813017323613167 0.08916144073009491 -0.11226397752761841 0.10167894512414932 -0.018124880269169807 -0.1336701512336731 0.026775695383548737 -0.06854697316884995 0.06315144896507263 -0.0027221685741096735 0.07555930316448212 -0.002290759002789855 0.0590205043554306 -0.0524599514901638 -0.1474563330411911 -0.106694296002388 -0.002940163481980562 0.03767867013812065 0.08666598051786423 0.1016916036605835 0.03064678981900215 7.475825259461999E-4 -0.0099925072863698 -0.0559132881462574 -0.10968554764986038 0.10378895699977875
Not(pizza.hasTopping.some(pizza.MeatTopping)) -0.10127720236778259 -0.04037538170814514 0.06336664408445358 0.008373579941689968 -0.03157499060034752 -0.07504909485578537 0.05438072606921196 -0.009670063853263855 0.06410618126392365 -0.10817895084619522 0.03997347503900528 0.018473021686077118 -0.014427685178816319 0.1634010225534439 -0.05909179896116257 0.07802876085042953 -0.041779592633247375 0.05006573349237442 -0.19268979132175446 0.12006937712430954 -0.14397786557674408 -0.16125039756298065 -0.03812847286462784 0.19427450001239777 0.0889137014746666 0.015499609522521496 -0.06700283288955688 0.2845250070095062 -0.03941705450415611 -0.03109237179160118 -0.049261800944805145 -0.0561111643910408 0.0901234820485115 -0.2192966192960739 -0.17239299416542053 0.10682845860719681 0.08008059859275818 -0.025885555893182755 0.20884746313095093 0.05066521465778351 0.0789792612195015 -0.04104908928275108 -0.026800386607646942 -0.05032837763428688 0.002737326081842184 -4.4748259824700654E-4 -0.09162145107984543 -0.01889474131166935 -0.04219698905944824 0.012768574059009552 0.005181025248020887 -0.1129414513707161 -0.0702085867524147 0.04045889154076576 0.11946045607328415 0.16224201023578644 -0.09377352148294449 0.059634290635585785 0.10344088822603226 0.053965602070093155 -0.06800014525651932 0.16721618175506592 -0.03475554659962654 0.2714763581752777 0.07778580486774445 -0.10376709699630737 -0.006482698488980532 -0.02748563326895237 0.0807301253080368 -0.05518684536218643 0.035781290382146835 -0.05312353000044823 0.08980592340230942 -0.10264420509338379 0.016728201881051064 0.08615117520093918 -0.13850310444831848 0.114596888422966 -0.05277057737112045 -0.1814349740743637 -0.04450218379497528 -0.004012433346360922 -0.22801358997821808 -0.0639384463429451 -0.04180247709155083 0.07033227384090424 -0.02585846185684204 -0.019189314916729927 0.019557030871510506 0.13433139026165009 0.1263514906167984 0.03204331547021866 0.0895056426525116 0.004965346306562424 0.07020489871501923 0.0860544815659523 0.059010230004787445 -0.004101389553397894 -0.21303865313529968 0.12136214971542358
americanhot 0.02160593681037426 0.17629912495613098 -0.05642715469002724 -0.2394597977399826 0.09334695339202881 0.15314723551273346 -0.055216312408447266 -0.07652591913938522 -0.1447712779045105 0.04288429766893387 -0.010169653221964836 0.15755414962768555 0.06547294557094574 0.12895430624485016 0.05575229972600937 0.054822973906993866 -0.02778765931725502 -0.018087273463606834 0.019984513521194458 0.012681879103183746 -0.14493033289909363 0.01059353444725275 -0.10866148769855499 0.025402197614312172 -0.10343842953443527 0.05749063566327095 -0.10912875831127167 -0.1540515422821045 -0.05934388190507889 -0.03179638460278511 0.028236353769898415 -0.011854034848511219 -0.009094031527638435 0.09637058526277542 -0.05380776897072792 0.015796823427081108 0.017741713672876358 -0.03354223817586899 -0.098061203956604 0.03198976069688797 0.11460589617490768 -0.19083169102668762 -0.10966096818447113 0.053285468369722366 -0.2000008523464203 -0.055197615176439285 -0.15132184326648712 -0.04381831735372543 0.01081867702305317 -0.12391397356987 -0.21801027655601501 0.20962505042552948 -0.04999164119362831 0.009295355528593063 0.0030802213586866856 0.06920108944177628 0.03696761280298233 0.036088280379772186 -0.15460635721683502 -0.09656749665737152 0.04361112415790558 -0.027801522985100746 -0.04929134622216225 0.0741175040602684 0.035493530333042145 0.13679246604442596 0.15216363966464996 -0.11239714920520782 0.25322598218917847 0.11390119791030884 0.14692100882530212 0.062389012426137924 0.058981478214263916 0.04242245480418205 -0.00801948830485344 -0.12542302906513214 -0.031575266271829605 0.1442011445760727 -0.04029437527060509 -0.1736515611410141 -0.010967053472995758 -0.12373841553926468 0.07239367812871933 -0.05128484219312668 -0.07927028089761734 -0.12259689718484879 -0.051757942885160446 -0.04827446490526199 0.17036664485931396 -0.1983673870563507 0.07526618987321854 -0.10250024497509003 -0.08661668747663498 0.016549130901694298 -0.04682141914963722 -0.01564587838947773 0.006519123911857605 -0.04590184986591339 -0.06443962454795837 -0.019826693460345268
