751 100
of -0.24466361 0.02671298 -0.26954067 -0.5135899 -0.09623491 -0.49385628 0.058374323 -0.15541798 -0.12598413 0.01677745 -0.6197119 -0.25976506 0.35251117 0.16905412 0.23178402 0.43564713 -0.30592003 0.0920317 0.4328724 0.21582489 -0.4280409 -0.007143474 0.2814041 0.30657116 0.14854395 -0.11640531 0.38427103 0.16399142 -0.13806492 0.52123195 0.43167642 0.10516607 -0.21302046 0.035062607 0.13836522 -0.053842198 0.40858296 -0.15333393 0.06559181 0.27120316 -0.075170085 0.24008983 -0.3055476 0.027933247 -0.36986887 0.28786355 -0.28180352 0.39043674 0.116057284 0.49257618 -0.029732293 0.07456931 -0.46646735 -0.06661963 -0.1753669 -0.97757345 -0.26063004 0.26078126 -0.061598916 -0.16689964 0.021016099 0.31229666 0.29356086 0.4746767 -0.117115065 0.4134466 -0.02785619 0.22251734 0.34551445 -0.23699261 0.21275547 0.04245176 -0.04605296 -0.069005206 -0.015693504 0.026520045 -0.022970116 0.18852872 0.26961845 0.32850578 0.11854747 -0.5756908 0.0013202184 -0.14334156 -0.03695749 -0.20476073 -0.12880124 -0.29516667 -0.073847145 0.122007996 0.29410887 -0.019753678 0.028725509 0.036693644 0.4544074 0.20645419 0.14355052 -0.40521467 -0.45292196 -0.096797675
topping 0.00084161706 0.3861458 -0.38703176 -0.5205171 -0.1566324 -0.21391888 0.030331694 0.18454131 0.31973144 0.15996225 -0.24172749 0.21331179 0.006503901 0.45362234 0.1942013 0.5717621 -0.10669633 -0.282819 -0.026368342 0.2810872 -0.33151865 -0.26363966 0.14103858 0.06881033 0.4978355 0.12087204 0.45659962 0.14220387 0.021559183 0.09180127 0.6097185 -0.024581019 0.026179591 -0.038000114 0.37957042 0.23480742 0.261012 -0.08225984 0.235105 0.10795922 0.1877353 0.21958776 -0.13566856 -0.2564249 -0.47241053 0.022378867 -0.0054254066 0.63722086 -0.03808144 0.057132967 -0.19393715 0.2271139 -0.18243076 -0.13184299 0.01457996 -0.6250123 -0.32851124 0.09096251 -0.26938283 -0.08806356 -0.47279644 -0.014409298 0.6709375 0.44938087 0.15185188 0.20665015 0.20699762 0.38817307 0.24581692 0.045232616 0.530016 -0.39713088 -0.15751693 -0.253054 -0.1254995 0.33701453 -0.06725109 0.20508404 0.6419899 0.16888699 -0.13664918 -0.2620966 0.05011198 -0.104607135 -0.0208057 -0.2874816 0.17406107 -0.16346812 0.03317396 0.5193531 0.3296603 0.48350233 0.17690796 0.26999265 -0.02870468 0.1803475 0.15631844 -0.20209892 -0.16595858 -0.4279993
subclassof 0.00051793305 -0.051532064 -0.37912977 -0.27207366 -0.09206159 -0.39373183 0.012011585 0.06464692 -0.35892034 0.18468855 -0.28629977 -0.24220346 0.4104958 0.11695247 0.49384195 0.04184425 -0.082693644 -0.5659595 0.32597008 0.3634005 -0.6004702 -0.03093658 0.112694055 0.38173476 0.30004123 0.063651495 0.24497227 0.2337404 -0.23325856 0.018956028 0.3736489 -0.11637859 0.26373258 0.3292608 0.4956756 0.29175496 -0.08482876 -0.001924698 0.23612799 0.5018214 0.02259748 0.08331643 -0.14429857 -0.3061072 -0.34841177 0.5059219 -0.20096792 -0.08652648 -0.104931965 0.030992676 -0.41711485 0.01597932 -0.13033578 -0.058227856 -0.19826727 -1.0504597 -0.24220979 -0.13760297 -0.33947706 -0.4723907 0.05027403 0.06770067 0.8290579 0.8574165 -0.028212188 0.1298725 -0.08516313 0.4557743 -0.0348829 0.22597687 0.0011248976 -0.5015562 -0.09953251 0.050055236 -0.40794107 -0.11835623 -0.10385 0.43772334 0.22520256 0.27911228 -0.14089347 -0.4241584 0.23553938 -0.14430892 -0.13597122 -0.45709598 -0.062384922 -0.6536515 -0.25256866 -0.07477907 0.14310864 0.002576551 -0.11660264 0.11971738 0.45561388 0.44328362 -0.014519242 -0.09177482 -0.45395932 -0.17454104
class -0.09937174 0.29944402 -0.13256876 -0.40300393 -0.15078296 -0.21208045 -0.20173301 0.12825587 -0.32343787 0.18911268 -0.036980964 -0.1026929 -0.16922824 -0.2511808 0.47202346 0.3444566 0.09043619 0.06568517 0.38485742 0.34853745 -0.3333484 0.23282124 0.010536549 0.24576944 -0.09985157 0.02196218 0.49475667 0.23890485 -0.37925345 0.17537309 0.48238534 -0.244976 0.38473207 0.2323389 0.38031226 0.15025811 0.15723749 -0.07278134 0.23469798 0.6985116 -0.03433904 -0.01500319 -0.5139951 -0.4653464 -0.60563517 0.28781798 -0.3629002 0.022604996 0.12757501 0.56747985 -0.37626863 -0.121381894 -0.32746318 -0.09884064 -0.19517033 -1.0064666 -0.4042907 -0.18811893 -0.20157164 0.024230206 -0.31141335 0.44537154 0.5362648 0.3782437 0.045765303 0.18527831 0.12530099 0.48961392 -0.15970688 0.3434612 0.086234845 -0.12512696 0.08090003 0.090730935 0.0582839 0.07572302 -0.011949715 0.1959168 0.37116307 0.32194328 0.28410918 -0.28779843 0.3066926 0.29307982 0.15866308 -0.32447007 -0.06463179 -0.44640297 -0.3552137 -0.011956033 0.5556141 -0.012470844 0.07005608 0.21124232 0.19923332 0.11019727 -0.20648262 -0.30939424 -0.5145881 -0.42842674
super -0.23726495 -0.29749915 -0.36350483 -0.40774053 0.06433298 -0.12625432 -0.19408669 -0.1542192 -0.25092545 0.6181537 -0.13726196 -0.12727088 0.09957255 0.02434941 0.16799279 0.4991785 -0.21619333 -0.32192245 0.29107234 0.17545703 -0.26627448 -0.11788714 0.12610841 -0.11261521 0.27768055 0.16310309 0.598674 0.15111575 -0.08295549 0.2625787 0.14618073 0.006912454 0.22758669 0.3770727 0.0074001215 -0.009868789 0.16432914 0.012604382 0.50386477 0.4637562 -0.039431322 0.016226573 -0.614581 -0.40515453 -0.16774878 0.11027771 -0.24196036 0.05338181 0.13713992 0.5547912 -0.50081235 -0.13922924 -0.64842993 0.10721728 -0.32488516 -0.7081865 0.10059888 0.18352902 -0.38401493 -0.054073524 -0.037370436 0.1345357 0.42769676 0.67486113 -0.07981579 0.12969536 0.23126818 0.6206457 0.2655953 0.403002 0.22481625 -0.24060242 -0.39953557 0.21814114 -0.15345258 -0.1068965 -0.079154715 0.44138485 0.36893344 0.34277663 -0.4192911 -0.15621468 0.36339098 0.017861359 0.064102426 -0.14406657 -0.10324347 -0.6498185 -0.1745827 0.09802659 0.35515457 -0.1303513 -0.14019568 0.28048468 0.47611615 -0.3413914 0.05850322 -0.41486165 -0.40593153 -0.29971358
http://www.semanticweb.org/owl2vec#superClassOf -0.10446056 -0.057966825 -0.5333845 -0.49498555 -0.07915384 0.11908913 0.1864922 -0.082503885 -0.119456604 0.57119834 -0.25787812 0.1239363 -0.09781132 -0.06088793 0.45562702 0.5746543 0.6497659 0.031820264 0.7020069 0.063811734 -0.11197372 0.4249613 0.02435654 0.45268452 -0.124442235 0.093760245 0.5983113 0.01015585 -0.4728985 0.950676 -0.024074458 -0.3145803 0.0081917625 -0.15981491 0.052229017 -0.081303224 0.19938622 -0.07890497 0.11824442 0.47844464 -0.25713253 0.06199499 -0.56736773 -0.42923778 -0.24608168 0.14421248 -0.20844008 0.039255783 0.31580323 0.56395674 -0.33892956 -0.3396812 -0.55591923 0.28040406 -0.06060506 -0.6760593 0.045225892 -0.005780592 -0.28445512 0.0075046048 -0.06610111 0.21329132 0.121968485 0.40376762 0.16034454 0.02805361 0.09791145 0.40973172 -0.10540473 0.48785916 0.16681242 0.01315861 -0.33411163 -0.04363494 0.13491087 -0.078551434 -0.036200833 0.4296534 0.08883137 0.3979797 0.068106666 -0.23141602 0.24191119 -0.3429477 0.11040597 -0.091611266 -0.123521 -0.41696462 -0.1446519 -0.2382943 0.4361289 0.06126318 0.2807765 -0.03432168 0.2919724 0.120477356 -0.06643142 -0.34754175 -0.3193096 -0.12338982
http://www.w3.org/2000/01/rdf-schema#subClassOf 0.049766514 -0.014359247 -0.6152754 -0.083577015 0.1972221 0.11976245 0.21944311 0.018834893 -0.29814804 0.18230002 -0.3992566 -0.030407818 0.38389868 -0.104970664 0.7037446 0.45017555 0.57164615 -0.022595275 0.5153782 0.0018540206 -0.4487275 0.4673405 -0.038123835 0.55346173 0.30822378 0.102559276 0.4367612 -0.0960905 -0.3059362 0.52440536 0.27537975 -0.32432422 0.1581834 0.2649375 0.3340014 0.26070762 0.06649063 -0.031010507 -0.06808819 0.5940721 -0.27262688 0.09123336 -0.268854 -0.4689256 -0.30770326 0.4232507 0.14686036 -0.14172256 0.026477927 0.0140667595 -0.57565683 -0.23447187 -0.06314598 0.16092941 -0.256011 -0.6450047 0.30004776 -0.30038935 -0.41115126 -0.56761974 0.022040555 0.019042443 0.44444305 0.9060526 0.30724797 0.15438758 0.190395 0.2243122 0.06726278 0.3197985 -0.083985455 -0.3988227 -0.24681774 -0.11216474 -0.3176915 -0.33824378 -0.08034972 0.4167518 0.21795532 0.16017944 0.07340336 -0.18933666 0.008733425 -0.43901125 -0.1821357 -0.25191694 -0.0013672841 -0.5776994 -0.3788099 -0.38575685 0.048958894 -0.025943646 0.1960865 -0.079717025 0.4874594 0.66747624 0.10968372 0.08024638 -0.23165618 0.17717764
pizza -0.23638684 0.16068599 -0.17069358 -0.80091864 -0.37870932 -0.590775 -0.4984832 0.08400924 0.16724113 0.08846991 -0.27859527 -0.20270456 0.018886717 0.41047406 0.24516706 0.5437901 -0.2896262 -0.037522186 0.11763528 -0.06308217 -0.12697369 -0.2813421 0.21048844 0.22208153 0.21249168 0.09693854 0.47247875 0.4780089 -0.09380282 0.052914727 0.68397486 -0.02014175 0.3327531 0.633783 0.37457645 -0.33432832 0.26538378 0.1525933 0.2723592 0.087445766 -0.48245114 -0.0024648188 -0.21017163 -0.3954174 -0.40009403 -0.09705285 -0.22210492 0.08264656 -0.25165772 0.43601024 -0.36166352 -0.069758914 -0.21417572 0.31174058 0.1831261 -0.7753638 -0.44016686 0.045649998 -0.09673167 -0.18409176 -0.59720343 0.63821244 0.86157274 0.52957237 -0.075061426 0.151565 0.29176447 -0.07538645 0.5685526 0.18222547 0.00046397833 -0.31946835 0.06137519 0.15040986 -0.05969745 -0.345457 0.1641836 0.32371217 -0.21738349 0.13408783 -0.37891912 -0.2920838 -0.0042305957 0.2791205 -0.13288082 -0.3240708 -0.14269845 -0.35071808 0.26267257 -0.1856539 0.30671412 -0.35766336 -0.019423837 0.46564636 -0.0078299185 0.018755833 0.048855044 0.16707054 0.11763586 -0.087636225
has -0.178584 -0.2727131 -0.38881072 -0.2466509 -0.09638095 -0.013370255 0.25886646 -0.047987018 0.02957319 -0.07198065 -0.38507453 0.25124457 -0.075553976 0.322866 -0.058336664 0.56680197 -0.25998032 -0.13859065 0.3085431 0.47922558 -0.3506999 -0.13056538 0.27813083 -0.104774244 0.43524584 -0.1960212 0.4742644 -0.042527486 -0.29512998 0.40977055 0.5636744 -0.28128916 -0.0838897 0.28931624 0.26611087 0.03521868 0.25834116 -0.088723324 0.2973087 0.040716853 -0.0046442533 0.4733384 -0.18798456 -0.06412786 -0.24031784 0.34316292 -0.42797035 0.2268656 0.026186163 -0.12979484 0.07707852 0.15064527 0.029918497 0.14717206 -0.38954997 -0.8057679 -0.3676838 0.15499279 -0.5820148 -0.026721098 -0.18274847 0.43218952 0.6547724 0.36418408 0.31488726 0.18768677 -0.1397315 0.016885381 0.15073122 0.2554486 0.8281329 -0.7438476 0.2068672 -0.07161301 0.05338273 0.5593511 -0.16862632 0.11904293 0.5190782 0.47654104 -0.10806219 0.19379784 0.3670897 0.35894954 -0.05430728 -0.3902461 -0.13717619 -0.09679645 -0.36160257 -0.01353304 0.7391576 0.27724653 0.13684596 0.2535176 0.4113092 0.3719815 0.3424474 -0.12842995 -0.23075876 -0.020920979
pizzatopping -0.2937671 -0.092947714 -0.16129328 -0.43248555 0.1512616 -0.15568309 -0.37480503 0.24554786 -0.18413334 0.36865833 0.05530829 -0.4855176 0.087490715 0.23388131 0.52748746 0.25685427 -0.41775048 -0.22354439 0.53692037 0.21873459 -0.37891328 0.17781924 -0.017579973 -0.05479425 -0.16170742 0.44487295 0.57924473 -0.3996601 -0.44066226 0.31271094 0.3360775 0.38929445 0.111495435 0.3708271 -0.1628486 0.2871919 -0.06396115 -0.22813614 0.3019796 0.6208201 0.3049068 0.057766445 -0.59735227 -0.5696151 -0.21587956 0.31374982 -0.038907576 0.83091193 -0.0036840795 -0.116460584 -0.18446925 0.18194741 -0.4410951 -0.46212235 -0.110419035 -0.36283612 -0.4819866 0.2910522 -0.67897046 -0.075747065 -0.42762876 0.21174088 0.75907487 0.6748483 -0.28713027 0.35351008 -0.26595023 -0.0006592681 -0.121218026 0.10922332 0.31505758 -0.21572484 -0.3784931 -0.064679995 -0.62574553 0.11175667 -0.16573046 -0.6352601 0.25567338 0.30798513 0.17849036 -0.28051764 -0.11258858 0.12255828 -0.022090944 -0.14142448 0.26120913 -0.28584266 0.107770056 -0.006096851 0.4303642 0.12671922 0.13995062 0.28407016 0.29672566 0.23108009 0.16004813 -0.10889816 -0.37226957 -0.2647488
is -0.027560826 0.12155522 -0.47192845 -0.67594403 -0.69445515 -0.111696385 -0.14793897 0.45285386 0.052277934 0.32555184 -0.28227013 -0.08863003 -0.12921898 0.26941392 -0.018622303 0.35652956 -0.35769343 0.15825462 0.41139454 0.11932658 -0.28850698 -0.11030613 0.5838784 -0.38907096 0.42814258 -0.053613957 0.43508637 0.058289893 -0.25591347 -0.05994697 0.65818286 -0.18308917 0.11288486 0.35736254 0.20933175 -0.011393332 0.2969043 -0.44902632 0.09255037 0.24888632 -0.118432716 0.37884527 -0.18019915 -0.17954801 -0.21546839 0.7060418 -0.09791883 0.14618783 -0.38925123 -0.022078488 -0.26951003 0.37544045 -0.6030349 -0.6224935 0.14715672 -0.38278344 0.040759247 -0.11782072 0.017750945 0.4064668 -0.5554893 -0.0810503 0.5803571 0.40082034 0.023493577 0.11381111 0.14658903 0.13847466 0.13231348 0.69389206 0.5568567 -0.55489826 -0.0427619 -0.35662326 -0.26591942 -0.05265772 0.38301095 0.12270895 0.026190747 0.36932072 -0.26943913 -0.23984115 0.10193458 0.0730032 -0.118976235 -0.27510515 0.32400578 -0.29787582 -0.23918317 0.31162468 0.5664384 -0.12448446 -0.02661776 0.46729407 0.2628349 0.008893955 0.03262175 -0.28125226 -0.15451717 -0.19341543
http://www.co-ode.org/ontologies/pizza/pizza.owl#PizzaTopping -0.17499202 -0.17448407 -0.40234473 -0.2646961 -0.09634533 0.23917189 -0.26220796 0.28872123 -0.0800983 0.6296255 0.13591184 -0.33488113 0.02635482 0.17750497 0.76258737 0.3583002 0.18506977 -0.19320935 0.7701457 0.109904 -0.16100399 0.4287095 -0.31352466 0.4746878 -0.11131645 0.52998734 0.52905726 -0.6481213 -0.29941037 0.8695121 0.095448025 0.33176544 -0.024180891 0.22371788 -0.44460693 0.2982491 0.10197763 -0.43003592 0.0048576053 0.52574015 0.25597188 0.12543944 -0.69522595 -0.66374433 -0.068211354 0.35106024 0.12896475 0.66740286 0.031281143 -0.3285833 -0.48702052 -0.031949632 -0.36642367 -0.12881601 0.27109554 -0.074285604 -0.14792413 0.26014182 -0.68678147 -0.30226982 -0.30483514 0.026158825 0.55386245 0.70185244 0.290046 -0.013894602 -0.18779048 0.064313546 -0.33190456 0.35093525 0.042743675 -0.16729517 -0.61665267 -0.04897221 -0.52041763 -0.17947757 0.011380093 -0.6145899 0.17809036 0.18126895 0.20651598 -0.16777906 -0.1926246 -0.15603676 -0.04136507 -0.0066827815 0.09070646 -0.3289109 0.027738018 -0.061789688 0.29243842 0.06701949 0.28780675 0.011575465 0.0064828903 0.64512455 0.16899371 0.07449946 -0.2603839 -0.12301421
http://www.co-ode.org/ontologies/pizza/pizza.owl#hasTopping -0.2522499 -0.12487859 -0.6582561 -0.52984244 -0.10316527 0.43573272 0.31940913 -0.18601169 0.1673446 0.20720418 -0.30273512 0.44539195 -0.4503209 0.5647823 0.4302497 0.77676994 0.41770703 -0.15372346 0.19385733 0.17750642 -0.19825071 0.061187685 -0.17811117 0.36871538 0.558467 0.09921299 0.5036202 -0.34268662 -0.47877362 0.6943449 0.38654557 -0.19071944 -0.06843191 -0.103750326 -0.043201268 -0.01915683 0.06600191 0.06280845 0.14285547 -0.19332933 -0.22167431 0.273985 0.09982043 -0.32878026 -0.2711692 0.12887332 -0.20924507 0.33964208 0.09329844 -0.09635391 -0.05262007 0.16533175 0.2149866 0.19959025 -0.3731115 -0.43194467 -0.2981231 0.10757604 -0.6425328 -0.3275821 -0.40517402 -0.055730034 0.75693214 0.41274896 0.6171178 0.14751616 0.20565282 0.19084343 0.05348297 0.47310862 0.55857474 -0.5559264 -0.12041826 -0.26851925 -0.023143152 0.36443636 -0.13005652 0.42956114 0.5904179 0.3313648 -0.09977542 -0.024558589 0.117772594 -0.1421596 -0.28008962 -0.23664704 -0.033107158 0.01697423 -0.019592654 -0.41934943 0.45076856 0.4049383 0.32526907 0.22881874 -0.051400207 0.6993577 0.29540798 0.340698 0.0012304392 0.0125220185
http://www.co-ode.org/ontologies/pizza/pizza.owl#isToppingOf -0.11278375 0.2719636 -0.64818585 -0.7194304 -0.5742553 0.14185005 -0.24924664 0.50502694 0.23169424 0.38434634 -0.28832445 0.13902439 -0.07118577 0.5014957 0.44799343 0.37320927 0.43817943 0.027240999 0.5497735 -0.047749892 -0.06535709 0.34853297 0.32553536 0.22431202 0.33733606 0.07301115 0.44611076 0.057127174 -0.25716662 0.5364731 0.5458534 0.0078832265 -0.29111418 -0.22956 -0.03645551 -0.030189648 0.5302393 -0.46386746 -0.12353151 -0.0671921 -0.09222665 0.26084504 -0.32650968 -0.24642867 -0.019905142 0.34216425 0.02687177 0.36411193 -0.24866638 0.21121472 -0.45875245 0.22301263 -0.61018914 -0.5101464 0.15735833 -0.29902357 0.26715505 -0.025144076 -0.04222943 0.18741612 -0.5561721 -0.31216598 0.21917051 0.57851833 0.23070115 0.049634833 0.24865186 -0.020599654 0.23705798 0.46051723 0.27741483 -0.13903128 -0.1900143 -0.42042744 0.0525956 -0.18717247 0.33069414 0.24012537 0.02063709 0.34617388 -0.15641814 -0.63481754 -0.32402542 -0.586269 -0.14010133 -0.14430411 0.38429818 -0.17976043 -0.07299903 0.20775409 0.07325077 0.025279544 0.434029 0.5068081 0.103048764 0.3226776 -0.0031726428 -0.07426327 -0.21579783 -0.129543
http://www.co-ode.org/ontologies/pizza/pizza.owl#Pizza -0.3363258 0.14487523 -0.667913 -0.794589 -0.20200615 -0.3743717 -0.31282166 0.15807463 0.437165 0.2186901 -0.2761708 -0.20658329 -0.08755137 0.52727336 0.37382394 0.33802855 0.57626665 0.020773942 0.32992303 -0.53443265 -0.05272873 0.08693554 -0.002576464 0.34734327 0.37518597 -0.066442706 0.48583886 0.50177103 -0.34871855 0.4937454 0.68652195 -0.21156947 0.07828127 0.494652 0.40947267 -0.15857416 0.5110475 -0.08303711 0.24065763 0.29447463 -0.93868977 -0.10173753 -0.16508454 -0.63690317 -0.04471728 0.0322948 0.111691214 -0.012399864 -0.047699694 0.3426697 -0.114865266 -0.28324467 0.005342892 0.35326186 0.4085513 -0.5489542 0.14463493 0.08178916 0.035901606 -0.39956087 -0.565791 0.24249631 0.7491692 0.578647 0.04988337 -0.2547192 0.18573308 0.031605657 0.42911428 0.31671888 0.112208195 -0.43323365 -0.3232076 -0.10183964 -0.0072322097 -0.43615156 -0.19587563 0.14096248 -0.55750775 0.11634473 -0.01144173 -0.07235394 -0.09669229 0.009192099 -0.1653541 -0.21434422 -0.13941915 -0.26956576 0.5449687 -0.24482282 0.16422036 -0.114873014 0.4313875 0.39895263 0.14164521 0.25101432 -0.057786644 0.3600292 0.20926595 -0.000468033
tomatotopping -0.38610783 0.1625234 0.040880002 -0.64816904 -0.725286 -0.3740977 0.14543033 -0.0043286313 0.6447466 0.18322685 0.2958331 -0.09769089 -0.066341124 0.26596713 0.5617483 0.523824 -0.087124765 0.14681931 0.014910658 0.41226712 -0.36269218 -0.15149333 -0.20168798 0.30685437 0.42776048 0.41225934 0.78247356 -0.03567362 -0.03195627 0.1308675 0.7091965 -0.20736589 0.0099523915 0.13939135 0.4140579 0.18472733 0.25271407 -0.40570134 0.4291395 0.20156501 0.23316655 0.54986596 -0.018746765 0.25020173 -0.1489212 0.03631607 -0.311884 0.24687776 -0.33980405 0.3637154 -0.12209719 0.5566196 0.212975 -0.11398043 -0.36283612 -0.4409204 -0.10113215 -0.013821715 -0.38405368 -0.38758162 0.13173336 -0.63943785 0.96519196 0.21692035 0.19555473 -0.010621527 0.64822185 0.18835986 0.5392885 -0.05892295 0.70321137 -0.49279445 0.10166129 -0.11918365 -0.04611248 0.5079421 -0.07270412 0.019059189 0.22685708 0.090344556 -0.3137608 -0.28736904 0.051786277 0.21788228 -0.058318097 -0.21416865 0.3210718 -0.06332154 0.0759854 0.31132635 0.60046005 0.0919712 -0.1252084 0.36778566 0.26792094 0.1749652 0.00897277 -0.8065062 0.17910117 -0.082355246
mozzarella -0.123202145 -0.037532527 0.05316068 -0.51459074 -0.39894235 -0.1422022 0.14825366 0.08984113 0.17642322 -0.31052586 -0.23728628 0.06292866 -0.26316166 0.18425447 0.047091004 0.60285753 -0.39209285 0.13714834 0.07074417 0.5197074 -0.31232306 -0.44743347 0.06403596 0.18751934 0.5126382 0.41192088 0.3101237 -0.15640196 0.028518563 0.32440567 0.99247533 -0.15767646 -0.5011867 -0.11774979 0.1487624 -0.005374979 0.4363634 -0.2636408 0.031092525 -0.014804925 -0.26805565 0.4489791 -0.20208387 -0.2113662 -0.21981627 -0.1394213 -0.27773538 0.4009536 -0.2179505 0.22830653 -0.32788247 0.101064734 0.044576842 0.17536855 -0.042730458 -0.65549225 -0.25806388 -0.40634668 -0.23398128 -0.14321136 0.15769482 -0.16601706 1.0374786 0.6512527 0.30588078 -0.12170115 0.02451089 0.44836783 0.8763876 0.21912077 0.45675662 -0.4664274 0.04914502 -0.08840222 -0.024873836 0.7189398 -0.09468695 0.11314005 0.08762086 -0.27380535 -0.51672906 -0.30368978 -0.08458717 0.46621314 -0.29142115 -0.054044914 0.07799992 -0.29187515 -0.33400664 0.4724076 0.2985701 0.5085826 0.47108638 0.26033425 -0.03288502 0.06142528 0.036698915 -0.5701721 0.09480956 -0.14132078
named -0.5662346 0.19606957 0.06927282 -0.61588675 -0.42837173 -0.3144294 -0.6695202 -0.39328423 0.31212917 0.027397312 -0.3048493 -0.13758154 -0.071527496 0.35014164 0.3812277 0.5122348 -0.35570225 0.27462596 -0.12288771 -0.014457834 -0.39776278 0.049660414 -0.17623281 0.42896664 0.26474634 0.5931517 0.7215035 0.2506262 -0.13358487 -0.10958842 0.6856243 0.040507957 0.3545013 0.21916758 0.44315988 -0.45307717 0.51173425 -0.07400918 0.498027 -0.075121306 -0.47645956 -0.012245974 -0.6296128 -0.40815035 -0.39650404 -0.1326992 -0.06784693 0.38013065 -0.20434439 -0.054161653 -0.36705926 0.107246265 -0.3891354 0.019517932 -0.029376991 -0.40516457 -0.18541394 -0.09977598 -0.031256024 -0.101226166 -0.14588429 0.27995145 0.4649622 0.50286734 -0.05747236 -0.2176377 0.30024236 -0.13297395 0.58789146 0.11057427 -0.05183145 -0.7732052 -0.18985692 0.020048035 -0.26231906 0.36180365 0.4383498 0.086948305 0.123404525 0.05768162 -0.047801644 -0.3016889 -0.3051803 -0.1263944 -0.24543314 -0.2722366 0.11339585 0.0021944274 -0.2583029 0.16665907 0.6054202 -0.1630007 0.02442307 0.6545299 0.19988373 0.44000992 0.58947265 -0.7130708 -0.16810705 -0.25671828
http://www.co-ode.org/ontologies/pizza/pizza.owl#TomatoTopping -0.32662308 0.0731326 -0.21865782 -0.7921039 -0.66000897 0.062061757 0.21717311 0.17680357 0.8562989 0.3663411 0.14683492 0.16771248 -0.14537151 0.19440888 0.74814373 0.6295003 0.6329803 0.26259676 0.037685458 0.20513044 -0.090129815 0.11140327 -0.44357076 0.6226089 0.37323338 0.447544 0.839868 -0.21638086 -0.2749665 0.5137542 0.37279573 -0.2983838 -0.014585067 -0.13213278 0.13466673 0.20894149 0.34206638 -0.28673625 0.13086809 0.064950876 0.23432584 0.27434123 -0.2139541 0.30914694 0.051348258 -0.023360591 -0.20881501 0.13057429 -0.32193515 0.3449423 -0.039682742 0.45576826 0.24145281 0.14422922 -0.093587644 -0.099233486 0.12960604 0.0425219 -0.4111167 -0.6213266 -0.06645594 -0.78222287 0.74585587 0.22348017 0.39982766 -0.3535236 0.7665668 0.2494049 0.21090856 0.15750672 0.54487777 -0.32926795 -0.045186773 -0.16603036 -0.044498302 0.47381598 -0.056967348 0.18720819 -0.1604272 0.06804226 -0.31495857 -0.23267442 0.10245531 0.10932344 -0.095477395 -0.20007613 0.5615509 -0.1272594 0.12197041 0.030287761 0.603613 0.22185193 0.30928317 0.2859016 -0.055274915 0.585341 0.09164575 -0.73862624 0.46373433 0.07574268
http://www.co-ode.org/ontologies/pizza/pizza.owl#MozzarellaTopping -0.18717012 0.03748139 -0.24571757 -0.5778763 -0.36617735 0.1869483 0.2579867 0.28479785 0.33844447 -0.08017997 -0.2783163 0.21624912 -0.5357606 0.19721293 0.3017612 0.49326053 0.3977869 0.279413 0.27118817 0.31646833 -0.11075424 -0.013708626 -0.20004371 0.47652432 0.41670698 0.33602825 0.2999947 -0.2820493 -0.17655797 0.68984 0.8022818 -0.5551806 -0.71885735 -0.16084248 -0.08283993 -0.07127782 0.4705997 -0.47758594 -0.19584094 -0.10647263 -0.5676838 0.3515939 -0.30155772 -0.18846565 -0.017109277 -0.059332754 -0.2503995 0.29478344 -0.2785996 0.21173263 -0.31265193 0.020224862 0.28010276 0.4514063 -0.07322688 -0.39696318 -0.13957131 -0.39193618 -0.24042647 -0.15575606 0.042197563 -0.39321864 0.87602973 0.5658308 0.5558862 -0.38741198 0.19621326 0.30154136 0.85408276 0.44663092 0.27079174 -0.19997574 -0.045516707 -0.1561291 0.15013978 0.5324681 -0.14393674 0.3088932 -0.058274347 -0.3224912 -0.31409374 -0.1238625 -0.10282302 0.2814226 -0.21071033 -0.09000783 0.16317563 -0.094228216 0.054788347 -0.026230851 0.13362622 0.5887484 0.6935616 0.01631612 -0.29806897 0.2169088 -0.13119818 -0.45356873 0.346901 0.0038218095
http://www.co-ode.org/ontologies/pizza/pizza.owl#NamedPizza -0.46146536 0.2665072 -0.17994983 -0.74946487 -0.6956559 -0.011368462 -0.5243531 -0.027904674 0.34807637 0.2506134 -0.40781173 0.11164038 -0.22449686 0.5047839 0.721285 0.46945757 0.14449644 0.39709732 0.26778316 -0.06613647 0.078791626 0.29629487 -0.5196479 0.7888063 0.38527894 0.4609621 0.9347004 0.059848428 -0.2565969 0.37136394 0.30231488 0.14852643 0.25148493 0.10208686 0.34789157 -0.44915363 0.69904906 -0.25322375 0.35715812 -0.31377834 -0.6190796 0.042741098 -0.28798234 -0.3515899 -0.3477073 -0.045198895 0.03334475 0.30239406 -0.3931152 0.20158036 -0.2583655 0.021977505 -0.2217486 0.05956855 -0.09803035 -0.049922194 -0.047775242 0.090258576 -0.036883764 -0.26940116 -0.3898749 -0.1294286 0.37337783 0.32971463 0.20533428 -0.36402586 0.5237743 -0.18526712 0.4734725 0.34122092 -0.10781465 -0.5626183 -0.29558668 0.11721532 -0.27580824 0.21624099 0.22977649 0.089111775 -0.0012784892 -0.1990094 0.0113262255 -0.2781076 -0.4802206 -0.45392942 -0.24687715 -0.17262357 0.17472626 0.04497717 0.05750723 -0.35085297 0.32530415 -0.13322116 0.262876 0.35482 -0.053888936 0.60091233 0.47212663 -0.37356088 0.034870513 0.13600414
label -0.30674088 0.14902264 0.16950467 -0.32333708 -0.082454994 -0.38991433 0.18190461 0.22571054 -0.4791806 0.064388245 -0.6988686 0.0164547 0.50307703 0.25289908 -0.12757829 0.32499617 -0.15064362 -0.4894962 0.0013160999 0.26690596 -0.43500397 0.24992381 0.5446634 -0.1021145 0.67725885 -0.034916617 0.15288304 -0.19065674 -0.45415822 0.43935683 0.03770385 0.13788877 0.3991106 0.038244598 -0.05235979 0.3591176 0.6147821 0.37597016 -0.5118724 0.62611157 0.6776397 0.07535052 -0.32602128 -0.19724862 -0.2455757 0.69369876 0.6254879 0.36888376 -0.30658245 0.64241844 -0.34894684 -0.4672018 -0.578253 0.5238769 -0.15896876 -0.53678805 -0.4789922 -0.425763 0.28114247 -0.030843744 -0.014508197 -0.2008464 -0.115709215 -0.16948111 0.04903144 0.025338635 -0.058494806 -0.42529464 0.2130586 0.5616423 0.6137416 -0.69156516 0.07029384 0.5933271 0.3302269 0.13499545 0.070105724 0.13772674 0.96891123 0.0836628 0.0112203285 -0.19705267 -0.010497639 0.36423674 -0.49335575 -0.040559735 0.23433399 0.052278616 0.019675087 0.53096116 0.7100135 -0.06796969 -0.77634037 0.18428956 0.087253235 0.10336859 0.34610727 -0.5164351 0.5071746 -0.3787192
preflabel -0.031069342 -0.22776298 0.30824924 0.10485925 -0.12570561 -0.8222221 -0.19407772 0.5249379 -0.08798595 0.32455623 -0.30178037 -0.5463004 0.1549546 0.5264522 0.55379236 0.26792067 0.4154619 0.039439004 0.41187164 0.509737 0.05722292 -0.16861546 0.5691096 -0.18016265 0.2139981 -0.27649096 0.06300177 0.5432953 -0.21862225 0.37347737 0.7375791 -0.060345877 0.10752042 0.24418813 -0.051165838 0.6141537 0.19689558 0.29872477 -0.061250497 0.49048668 0.24597137 0.1770026 -0.63378185 -0.2907249 -0.03749033 0.33550036 0.2191326 0.52116334 0.15337981 -0.011748288 -0.5787022 0.17056295 -0.22523856 -0.31735158 -0.24049631 0.30864114 -0.12274204 -0.66554445 0.21245344 0.022918973 -0.32500845 0.23491068 -0.13222086 -0.22375616 -0.15992807 0.67891973 0.30348077 0.013662772 0.3664751 -0.15887365 0.42877275 -0.6525207 -0.3269599 0.82104766 0.24863419 -0.1474571 0.33321044 -0.04819269 0.34387726 -0.009220567 -0.19736059 0.121289834 0.9580631 -0.2492548 -0.21422388 -0.50328934 0.48061064 0.48764846 0.2234879 0.82929033 0.6695865 0.78808546 -0.038064808 0.02050658 0.75071526 -0.021706888 0.21197377 -0.80340314 -0.07193939 0.33382782
american -0.27549687 0.14223772 -0.2405828 -0.18247265 -0.26928902 -0.23096833 -0.33289856 0.1798664 0.60120565 -0.16869552 -0.38705987 -0.29459703 -0.2017149 0.42805564 -0.010040733 0.8332426 -0.6007054 -0.13661793 -0.123938166 -0.2626632 -0.0743596 -0.6865898 -0.38008496 -0.09889988 -0.03847207 -0.53515357 0.31179327 0.061577402 -0.112584986 0.531496 0.42396614 0.12116813 0.27647954 0.8416719 0.30554745 -0.14153479 0.33704036 -0.40867352 -0.24640456 -0.046529286 0.12490251 0.31830844 -0.7357596 0.3043664 -0.38122225 0.11992706 -0.067022085 -0.09185639 -0.29366872 0.3619806 -0.73680294 0.5230313 0.017213834 0.5294926 0.08401322 -0.44390956 -0.5397604 -0.27824906 -0.57213306 -0.22211349 -0.0019915435 0.50458163 0.47550762 0.36473757 0.0544591 -0.606296 0.029694384 -0.22355546 0.61327046 -0.26704922 0.34334967 -0.4036876 -0.12633112 -0.09341354 -0.22793883 0.75226897 0.30080095 0.3153302 0.086820744 -0.032694887 0.053449027 -0.6229658 -0.2174773 -0.20080315 -0.08348343 -0.109977454 0.3914591 -0.2789842 0.3110405 0.11649404 0.85431826 -0.25653774 0.1688915 0.2323531 0.3662544 -0.11622308 -0.08332863 -0.35022485 -0.76422775 0.07100625
vegetable -0.08117944 0.51268065 -0.19032034 -0.14323084 -0.13493206 -0.43662542 0.34295592 0.5288262 -0.06224314 0.4564986 -0.68098325 0.13299438 0.15038158 0.05875935 0.7078953 0.4574211 -0.8095073 0.3558209 0.39837214 0.07557898 -0.60324115 -0.51616365 0.5417297 0.19107094 0.21036728 0.52428055 0.40069312 -0.027102847 -0.13712883 0.5805015 0.9753703 0.2386717 -0.3785421 0.70507103 0.20727229 0.4229544 0.46378952 -0.4388545 0.32490924 0.30941552 -0.44927043 0.03034249 -0.24590874 -1.0059694 -0.0006925256 0.13976799 0.096855104 0.3684211 -0.022628183 -0.2482599 -0.08368315 -0.05496814 -0.3319518 -0.18409525 0.0057966406 -0.0056298748 -0.24896584 0.2902489 -0.42842978 0.038765088 0.40057614 -0.16490613 0.8916146 -0.10511369 -0.08001214 0.09890897 0.19622059 0.15411417 -0.025947558 0.04106503 0.019389022 -0.39450458 0.29327583 0.34916335 0.11254473 0.23288876 -0.22636881 -0.11773323 0.6904357 0.25381112 -0.22876787 -0.42730716 0.011256264 0.19039516 0.28617826 0.085582845 0.23930737 -0.2858123 -0.27858737 0.3114814 0.35094875 0.21878873 -0.52367383 0.15838835 -0.3574746 0.006821406 0.36549792 -0.20245275 0.5455912 -0.2133812
hot -0.026427004 0.01265095 0.145346 -0.23150477 -0.30672312 -0.18543111 0.062538154 -0.04393672 0.108764865 0.079038724 -0.481894 -0.06444318 -0.11885233 0.29181024 -0.053014062 0.40922892 -0.54220134 -0.15754631 -0.15785274 0.09982154 -0.49339625 -0.7011292 0.31317785 0.18816154 -0.35786715 -0.11565868 0.44622004 -0.21065529 -0.54038274 0.23617607 0.35651088 -0.19409505 0.03538401 0.79913795 0.22227909 -0.48651296 0.29218823 0.42364916 -0.14003015 0.25995386 0.121285945 0.39687768 -0.9723569 -0.081269145 -0.16510731 -0.110595755 -0.34210962 0.03712501 0.5741886 0.62866515 -0.610435 0.5799992 0.30733252 0.5729932 0.15812016 -0.48580602 -0.4989137 -0.32735905 -0.61141574 -0.43523413 -0.023943469 -0.10135152 0.42624167 0.39615408 0.12514499 -0.37971663 0.061365582 -0.019915989 0.52377546 -0.30731028 0.29928216 -0.25728357 -0.15199366 -0.15960157 -0.4508968 0.43599012 -0.2538063 0.086803325 0.07166251 0.09813392 0.25458992 -0.04264043 0.07397634 -0.35060298 -0.23963855 -0.23123924 0.5733126 -0.14843202 -0.15978634 0.31386903 0.52605903 -0.049575828 -0.11823125 0.014159698 0.45600727 0.09585913 0.1295359 -0.15844625 -0.6177824 -0.28542244
mushroom -0.20381998 0.24423532 -0.05919168 -0.3524105 -0.21096264 -0.22944675 -0.18931782 0.18993397 0.13668299 0.12247411 -0.20300439 -0.07550104 -0.044452906 0.45228484 0.11966152 0.30663309 -0.035698578 -0.075023375 0.06630313 -0.19711836 -0.44095203 -0.7092138 -0.005587617 0.22062115 -0.3140135 -0.02016445 0.4411623 0.00873736 -0.23335679 0.2842157 0.6398883 0.3386562 -0.0052057416 0.47805545 0.20107514 0.41865507 -0.10440081 -0.100433834 0.24290603 -0.067732856 -0.018630197 0.13273764 -0.091787 -0.50555086 -0.30708942 0.1174641 -0.33115086 0.32509667 0.13304499 0.4255657 -0.4592716 -0.095419474 -0.12793565 -0.008411965 0.08520853 -0.72147125 -0.34816322 0.00052838016 -0.16757752 -0.04558669 0.27142638 -0.2809862 0.5503433 0.34902552 0.017440863 0.00062194065 0.35388815 -0.024115112 0.3375356 -0.2856117 0.10660988 -0.51842564 0.25298774 -0.13466804 -0.12081696 0.1327667 0.07813872 0.24857822 0.5320574 -0.2362157 -0.49551865 -0.09523167 0.22536659 0.029507957 0.30540735 -0.1426312 -0.23257318 -0.6564479 0.003695653 0.11294247 0.51964206 0.08561296 -0.16735858 -0.07449082 0.11209412 0.12094651 -0.35270828 -0.5726181 -0.32274425 -0.09170442
cajun -0.23838416 -0.01130108 0.15604748 -0.38970864 -0.12264152 -0.35390544 0.081453554 -0.038075883 0.27369544 0.40763003 -0.24003 -0.5933488 -0.38876054 0.038467623 -0.1952928 0.57527816 -0.2379749 -0.69639385 -0.06273681 0.1472912 -0.5019904 -0.49035275 0.52983546 0.29395288 -0.18016076 0.092736095 0.3362721 0.38373846 -0.59298986 0.3189881 0.6612576 -0.28123075 -0.26584375 0.22526671 0.478645 0.0923512 0.05974823 -0.35111418 -0.113597445 0.123839155 -0.3113981 0.2382672 -0.37278783 -0.3077026 0.056668364 0.040625136 -0.11629265 0.36022508 0.15394077 0.24792919 -0.46548736 0.31209558 -0.018466769 -0.20855235 0.38947988 -0.6772353 -0.12802541 0.05806809 -0.64108926 -0.35564232 -0.18841487 0.11234164 0.29972303 0.28280088 -0.021918254 0.5227142 0.44523928 0.18564078 0.35490042 0.25067562 0.08295131 -0.34301186 0.21808003 -0.5039421 -0.6306812 -0.049088985 0.40390262 -0.14229798 0.47301805 -0.3636499 -0.16044453 -0.09968392 -0.28926495 0.18171383 -0.27298623 -0.315719 -0.39596534 -0.30778667 -0.051268276 -0.08139342 0.4935665 -0.044354767 0.2822149 0.18017925 0.13879408 -0.03617117 0.21848679 -0.84647673 -0.05689746 -0.40496096
spiciness -1.0039488 0.2807347 -0.024554752 -0.17344771 -0.5936174 -0.7320936 0.37289074 0.9433229 0.34323084 0.33608103 -0.43047562 0.24138671 0.04688513 -0.06484605 0.62433624 0.31150174 -0.28521374 -0.63798964 0.34992966 0.5816352 -0.08600209 -0.18733051 0.13382964 0.47302076 -0.18496011 0.5450421 0.46063715 0.28920406 0.24508676 -0.15994678 0.09194246 -0.21404353 -0.36831725 0.40672684 0.2861949 -0.029365161 -0.02320502 0.35907546 0.17036489 0.002246064 0.21725635 0.026334517 -0.6169198 -0.47913483 -0.6408319 0.45864442 -0.23605405 0.4223859 -0.5194728 0.22923271 -0.20943041 0.12251444 -0.26185623 0.18948093 -0.43653837 -0.21850196 -0.4362472 -0.35857534 -0.91248274 -0.22025955 0.13013412 -0.036470503 0.50663286 0.55508715 -0.12114513 -0.072434016 -0.49488428 0.021438792 0.19969103 -0.17121015 0.60168785 -0.48412043 -0.32743827 0.40181848 -0.55554587 0.3917246 -0.110785194 -0.14258668 0.64989907 0.3419844 -0.10570235 0.06051129 -0.52124774 0.23080356 0.09681567 0.16584419 0.30399725 -0.432374 -0.41348672 0.15581612 0.45920473 0.09736722 0.059984237 0.43081704 0.1810025 0.13559264 0.13240288 -0.4174588 -0.4297281 -0.32196358
olive 0.15158476 0.26768816 -0.16765466 -0.19095872 -0.29718977 -0.5899042 -0.012438462 0.41955036 -0.27475256 0.35057092 -0.12757093 0.23349193 0.09343947 0.6861552 0.30410814 0.5301305 -0.07589342 -0.1338931 0.31570503 0.28467104 -0.7480951 -0.51178503 -0.21924688 -0.24178796 0.06163986 0.1341792 0.86415887 -0.09251088 0.019229619 0.11385337 0.7429225 0.3659255 -0.9583249 0.34887382 0.2333048 0.018068533 0.44836316 -0.44498387 0.062350962 0.039371956 0.2881899 -0.18603033 0.2340397 -0.16052425 0.39489192 -0.0004350798 -0.20018141 0.34519675 -0.013209095 0.4897307 -0.012602396 0.31479773 -0.54008174 0.054415207 -0.16600682 -0.6873912 -0.47550708 -0.36284056 -0.09753062 -0.24220832 0.3011451 -0.14331442 0.80146027 0.6069437 -0.19726919 -0.20968989 0.33994362 0.1413005 0.12923382 0.034015037 -0.013160529 -0.0710977 0.30781 0.004284977 -0.36880395 0.7575279 0.07284366 -0.07790903 0.6591978 -0.09666713 -0.37009776 0.209249 0.35177395 0.13252741 0.42674512 0.04236979 0.28784597 -0.39245683 -0.10335919 0.0407899 0.6954954 0.14621054 0.41836813 0.3119042 0.07370057 0.50264174 -0.037021395 -0.20666209 0.056920934 -0.405863
cheese -0.11687439 0.48747385 -0.07518021 -0.67309135 -0.16036978 -0.4121142 0.4392425 0.42244688 -0.59753525 -0.25650108 -0.097382076 0.119545914 0.07582206 0.0004248694 -0.29653597 1.0385938 -0.16597202 -0.13851479 0.48557767 0.04816247 -0.32799497 -0.3999992 -0.11418206 0.100644045 -0.23483361 0.7098838 0.012630388 0.33429974 -0.40865618 0.0009998352 0.48849672 0.893136 0.027110208 0.39087513 -0.17144816 0.3507853 0.20575802 -0.06504287 -0.24037696 0.27850768 -0.079028524 0.0018473852 -0.5056353 -0.3819258 -0.007070096 0.09163575 -0.13817613 0.5999622 0.14793888 0.47686806 -0.004431457 0.2789685 0.010022917 0.045159765 -0.17753541 -0.21306698 -0.10768888 0.18443702 -0.68652064 -0.23207535 0.16687673 0.26909065 0.545483 0.7154566 -0.63705325 0.13243574 -0.05539977 0.57508695 -0.07479644 -0.07034372 0.67918557 -0.5969097 -0.03927459 0.19091168 -0.28594032 0.2363271 -0.14043018 -0.13827425 -0.051485054 0.33337113 -0.2316305 0.111207 0.12811022 0.19005445 -0.77219075 -0.45256868 -0.0829058 -0.53822374 -0.07201361 0.44597328 0.35823506 0.1281124 0.1404744 0.26274303 -0.45087025 0.27493864 -0.037743162 -0.45292193 0.13201809 0.0836101
giardiniera -0.13535218 0.038738802 -0.033383675 -0.24416846 -0.13882439 -0.46673974 -0.033299137 0.3813264 0.78490555 0.07453589 0.02837675 -0.4153477 0.3016176 0.76870537 0.18723135 -0.1056463 -0.32253823 0.05012392 -0.2804631 0.1769368 -0.4748736 -0.4953483 0.18443836 0.2064452 -0.1503048 0.5062059 0.23518507 0.08924003 0.31186405 0.3897219 0.71261007 0.0071083815 -0.24348061 0.44062623 0.12870647 0.38358632 -0.1941933 -0.31205133 0.33789858 -0.35164255 -0.4167569 -0.14712517 -0.37260994 -0.51691085 -0.2674709 0.11401302 -0.04203615 0.20684594 -0.1253767 0.3817038 0.038446177 -0.21135674 -0.52780294 0.37872475 0.35110384 -0.6470116 -0.3855444 0.2110107 -0.87064755 0.04964716 -0.21651757 0.13339067 1.0167423 -0.18851982 0.24832363 0.080014855 0.8005109 -0.36978462 0.66703063 0.07337683 0.6351304 -0.44071126 -0.040552597 -0.19225481 -0.16759816 -0.028084984 0.5468038 0.3249896 0.22465897 0.17525537 0.11440478 0.0046254904 0.19879982 0.37508354 0.43526545 0.2750742 -0.2946192 -0.5111818 -0.23728876 0.31001458 0.6476772 -0.5089063 0.43972296 0.1979427 0.054650117 0.6985344 0.26169235 -0.7246778 -0.38537574 0.12219684
capricciosa -0.024985166 -0.00066636805 -0.1799886 -0.44934094 0.042956505 -0.5418947 -0.18678299 0.3816779 0.4397712 0.16182329 -0.096495286 -0.28497577 -0.12774804 0.6382443 0.13960303 0.1410857 -0.30289364 -0.08749405 -0.10911388 0.02312323 -0.30525658 -0.050654583 0.15423527 0.38669562 0.16901278 0.47360072 0.4110327 0.266631 -0.44939864 0.030583343 0.5168783 0.14642428 0.18278767 0.35832226 0.2629687 -0.5403245 0.73816144 -0.47404942 0.04354908 -0.09907778 -0.03732908 0.12908262 -0.090437256 0.44266185 -0.26684326 0.15655012 0.09924698 0.22367214 -0.041229375 -0.15444173 -0.268639 -0.3866573 -0.29777634 0.35086006 0.3025533 -0.25476825 -0.33773905 -0.36389723 -0.48890826 0.2815247 -0.17524028 0.2990253 1.0903877 0.44135383 0.4464123 0.55001205 0.35629898 -0.26224542 0.7004339 0.04894962 0.21556468 -0.5123691 0.120707706 -0.21169733 -0.7296855 -0.1382437 0.38646105 0.43649933 0.7605688 0.044276964 0.09644969 -0.19041038 0.4340678 0.46249625 0.08547431 -0.106919214 -0.1262681 -0.21979003 0.29477245 0.0009093199 1.1423372 -0.045732275 0.5389556 0.03313839 -0.003329432 0.07523764 0.19680445 -0.5862211 -0.24149247 -0.31759876
siciliana -0.11185333 0.3669568 -0.16004321 -0.827088 -0.19671836 -0.24174222 -0.12878308 0.03411151 0.22592516 0.47629625 -0.17159449 0.30127028 0.07031141 0.26965004 -0.116278544 0.35145915 0.05365684 0.09742622 0.64349985 0.611537 -0.30909976 0.00043210492 0.044151604 -0.14592835 -0.04566267 0.03704826 0.15740031 0.520764 -0.4822985 -0.10785158 0.17260848 -0.018322883 0.09049079 0.4091781 0.40228328 -0.13514388 0.72447175 -0.31639963 0.066122 0.040393695 0.014042882 -0.14083035 -0.051269438 0.025636822 -0.27055997 -0.02622194 0.057544835 0.14365043 -0.12952757 -0.42413712 -0.41419375 -0.29633087 -0.5644529 0.0954762 0.069270246 -0.47087175 -0.19127639 0.33965904 -0.14884046 0.3935982 0.06297172 0.27274948 1.239975 0.13090765 0.49965137 0.3064676 0.2128596 -0.15782459 1.0514139 -0.35561383 -0.07272921 -0.6911803 -0.08620854 0.08204941 -0.77871525 0.46957895 0.30886266 -0.03936298 0.71546143 -0.13884397 -0.31706244 -0.419105 0.22642003 0.06608912 0.06476684 -0.3009215 -0.036235135 -0.43873736 0.29189435 0.32885224 0.83611476 -0.11685073 0.43313786 -0.3634536 0.18272793 0.24214987 -0.46836016 -0.2301177 0.14738446 -0.23440576
veneziana 0.10894526 0.13927074 0.058252007 -0.2985938 0.092320666 -0.3381928 0.16566373 -0.26603812 0.11159255 0.5019053 -0.12740502 0.47139698 -0.2666601 0.30287546 0.52258706 0.07688472 -0.465775 0.36557147 -0.12949216 -0.077584505 -0.104275286 -0.124963135 0.5878724 0.30671942 -0.079057164 0.25884256 0.16694963 0.36000484 0.13688709 -0.29967445 0.5709206 -0.10846809 -0.407312 0.8352085 0.101822846 -0.26055104 0.3241094 -0.41102207 0.19328317 0.59190935 0.016270373 0.7860405 -0.0028904239 0.25735992 -0.14969176 0.34160554 -0.034202456 0.67633665 0.24989119 0.25215486 -0.11827357 -0.25733685 0.046896465 0.34365204 0.26984793 -0.61553824 -0.33336028 0.74474454 -0.24749687 -0.005579167 -0.16053335 0.19198836 0.6084235 0.16296871 -0.052476615 -0.0812159 0.29063103 -0.12768476 0.72859174 0.24262054 0.35325545 -0.21212818 0.14271425 0.17048678 -0.6844471 0.35326284 0.501536 0.36690143 0.21683364 -0.36541846 -0.5105878 -0.29603347 0.19699502 -0.1414775 -0.2078919 -0.12585142 0.0056808647 -0.6571351 -0.036672685 -0.39785516 0.93010753 0.15508184 0.3814778 0.653455 0.037947644 0.6686572 0.51951367 -0.53937054 -0.19769622 -0.68392164
http://www.w3.org/2000/01/rdf-schema#label 0.031558108 0.27085304 -0.2197019 -0.58775353 -0.08159766 0.259879 0.3413151 0.21907602 -0.06536077 0.52259547 -0.40983266 0.2789743 0.5088079 0.08104245 0.060524203 -0.052883264 0.7687893 -0.01412565 0.029563494 -0.062343754 -0.32445076 0.26323053 0.24402352 -0.06781356 0.6848067 -0.37513366 0.03798672 -0.3426263 -0.24865043 1.1891776 -0.13648354 0.035758294 0.17024186 -0.050419994 -0.26223102 0.341532 0.46136627 0.5805605 -0.9212387 0.5202149 0.43756008 -0.01147893 -0.42776382 -0.22999732 0.18444575 0.5956723 1.0404592 0.2704675 -0.66062695 0.58339727 -0.6286603 -0.354939 -0.32289758 0.5993299 0.12250885 -0.15947141 -0.11991213 -0.71887076 0.04077163 -0.11096763 -0.24942374 -0.5462258 -0.29938024 0.14050244 0.03534757 -0.29493883 0.31678462 -0.64887565 -0.068576455 0.96964586 0.43616283 -0.18331389 0.24134244 0.691103 0.53228134 -0.43985015 0.2534275 0.33813554 0.7782085 0.09739618 -0.13504809 -0.020937795 -0.089924686 0.23377234 -0.3537776 -0.046602618 0.15040316 -0.11580309 -0.10245655 0.47007203 0.71299195 0.22624536 -0.1366626 0.09841695 -0.35099667 0.3778533 0.68067837 -0.6376485 0.6939324 -0.100644216
http://www.w3.org/2004/02/skos/core#prefLabel -0.49952883 -0.29442906 0.00912959 0.0058384575 -0.106734395 -0.3636879 -0.103047125 0.5676012 0.0970595 0.5631987 -0.53555876 -0.5372319 0.06802649 0.4900242 0.825594 -0.1696349 1.3873074 -0.2882199 0.76513857 0.13799417 0.12007596 0.033479434 0.11486143 -0.107703745 0.08896058 -0.42969608 -0.21294391 -0.19923067 -0.16198237 0.7667131 0.3470014 -0.37162638 -0.2960247 -0.05615039 -0.36975875 0.63145715 0.19887157 0.20356333 0.065201506 0.3365926 0.31947806 0.012891196 -0.5132655 -0.70718807 0.33510622 0.30135986 0.25502297 0.424789 0.089918 0.18520138 -0.43378142 0.07419595 -0.34655294 0.14879613 -0.34609255 0.36584446 0.04051832 -0.5761731 0.05909964 -0.03840177 -0.22821738 -0.18986315 -0.4003728 -0.3591854 -0.06842169 0.35564637 0.36008886 -0.25041896 0.45659044 0.1930931 0.55251133 -0.64821565 -0.1970975 0.47258922 0.083617635 -0.111251056 -0.019547671 0.36291617 -0.025408546 -0.1518612 0.12572573 -0.044769127 1.0792745 -0.69534516 -0.45531872 -0.41092867 0.64562637 0.70284075 0.2401311 0.19053316 0.4302579 0.8393803 0.19599874 0.083220825 0.35318935 0.38795808 0.28510052 -0.51021653 0.18360625 0.27120996
vegetarian -0.3727706 -0.02024796 0.26791412 -0.6648682 0.022946127 -1.0117229 0.1456927 -0.13973384 -0.13427635 -0.29124182 0.27266702 -0.41228652 0.17409046 0.369161 0.038006604 0.7150275 -0.22757712 0.219555 0.11375053 0.15823609 -0.4547304 0.15184006 0.19501474 0.059205294 -0.26347515 0.28664446 -0.17069657 -0.061078545 -0.535535 0.24459448 0.68756235 0.17416371 -0.17362316 0.5476494 -0.092572615 0.52522886 0.110235296 -0.45344007 0.18957418 0.51909524 -0.011544021 0.61147535 -0.32190174 -0.38018337 -0.035976935 0.009859871 -0.21416494 0.15584145 -0.08382451 0.04326524 -0.64171386 0.31864634 -0.26613835 0.04150195 0.061080396 -0.31130522 0.35903352 0.09084035 -0.40261412 -0.3150454 0.18177013 -0.021592371 0.3950115 0.17149703 -0.46929756 0.39464495 0.36415604 -0.07352798 0.20992845 0.46512702 -0.31295162 -0.6225295 -0.08235856 -0.32627246 0.04828815 -0.19751793 0.02126025 0.39477167 0.03463625 -0.002014549 -0.40377083 -0.34256336 -0.0041609467 0.5127218 0.062536545 -0.031301115 0.18978664 -0.532825 0.25407758 0.60377455 0.16118921 0.13342068 -0.4264409 0.041097205 -0.0075521916 0.31850392 0.069598526 -0.048080828 -0.17491846 -1.1084666
pepper -0.1519957 0.27100375 -0.24306022 -0.017211825 -0.27068323 -0.2719078 0.5414238 0.12063053 0.04185982 -0.2776017 -0.20452884 -0.41416153 -0.059149165 -0.09673089 0.5140897 0.70837414 -0.7078222 0.31344947 -0.114231065 0.010338284 -0.35390443 -0.3690555 0.16121927 -0.14815639 -0.20713367 0.45915765 0.63245726 -0.033770032 -0.27473554 0.76232696 0.37882376 0.029226577 0.23742916 0.87960273 -0.3838938 0.31074706 0.30288443 -0.18411873 0.13077594 0.0072341175 0.48270887 0.02400315 -0.5317868 -0.22317831 -0.33598018 0.37963834 -0.2582394 0.010865244 0.5587841 0.13498215 0.2585922 0.041145887 -0.20691559 -0.24909598 0.092950135 -0.39957494 -1.0020779 -0.25222698 -0.4901877 -0.6299745 -0.018722428 0.2583591 1.1663148 0.71098894 0.276063 -0.2176375 0.15062888 -0.2124053 0.23497453 0.31827188 0.33698016 -0.5315299 -0.7393452 0.020855114 -0.5482442 -0.06875748 -0.7388152 -0.36994722 0.49763268 0.36310834 0.24377964 -0.20847219 0.26557606 -0.26852018 -0.44350743 -0.2882773 0.8455134 -0.3734114 0.60640496 0.43123046 -0.20553465 -0.07955839 -0.18324965 0.115971334 0.093054235 -0.27629617 -0.1553018 -0.9517027 0.030470908 -0.38524365
fourseasons -0.5079019 0.25340405 0.013532507 -0.547686 -0.11677588 -0.29123998 -0.5111009 0.17800781 0.34386945 0.3018747 -0.30520168 0.38010788 -0.33508846 0.61895496 0.004672213 0.06594408 -0.13480327 0.40485764 0.13954723 -0.43814176 0.06361609 -0.3605737 -0.101720884 0.26306835 -0.035041045 0.10361954 0.24070375 0.28003725 0.12632583 0.08041306 0.7155172 0.33627835 0.20658812 0.6408724 0.17807373 0.11631059 0.3095075 -0.5001217 0.25949115 0.14084649 0.0044889785 0.45728907 -0.18074605 0.30201504 -0.3571639 0.24769145 0.13735522 0.28116968 -0.101469666 -0.248284 -0.72868675 -0.0332142 -0.03018265 0.42194912 0.15944746 -0.39768103 -0.5474453 -0.07241114 -0.25699687 0.012218277 0.04907537 -0.048186485 1.1457636 0.21440105 0.06033602 0.16135958 0.20753719 -0.33021113 0.4730601 -0.52607495 0.34008905 -0.20787337 -0.0012941973 -0.07309511 -0.27312797 0.1521597 0.20849049 0.71595246 0.20381996 0.0065546753 -0.26171738 -0.5772575 0.6434251 0.16529287 0.26394692 -0.20060928 0.1328552 -0.65185326 0.18466608 0.16968037 1.4916056 0.18587357 0.19431868 -0.06092509 0.36099654 0.12084652 0.123352505 -0.18311967 -0.36226168 0.17844942
soho 0.0037475764 0.27602038 -0.292234 -0.7423759 0.072740875 -0.34782183 0.012347219 0.14229727 0.33379924 0.22852957 -0.15765038 0.17757615 0.23480609 0.20286517 0.212116 0.35445789 -0.042200267 0.3304479 0.42891994 0.11679487 0.03251315 0.04149664 0.17273855 -0.0143806795 0.20640482 0.014081549 -0.07003658 0.6545665 0.20281324 -0.2631786 0.25598145 0.20279942 -0.3869352 -0.06480096 0.30710113 0.16200967 0.52390724 0.07746612 0.33530062 0.062038854 -0.33339822 -0.23468369 -0.3392001 -0.6867666 -0.18106824 0.4502007 -0.5575348 0.6427942 -0.43399066 0.066085465 0.17669983 0.26487094 -0.20318614 0.60967827 -0.16404012 -0.29812494 -0.5790541 0.6687 -0.50617206 -0.086425304 -0.2726449 0.41781613 1.2742035 -0.23901026 0.1852202 -0.27973586 0.12983036 -0.0020506682 0.7488704 -0.054997925 -0.048877068 -0.5362622 -0.031894334 -0.18946765 -0.5466349 0.25692463 0.9152833 0.2005223 0.2413534 0.0125096 -0.43430167 0.13879478 -0.016996501 0.22830138 0.15047094 -0.3894932 0.27858958 -0.5720305 -0.31724337 0.4076041 0.78893507 -0.20924512 0.13714603 -0.26727098 0.21505368 0.46941385 0.18864635 -0.36324066 -0.052853532 -0.4267571
fiorentina 0.17360598 0.46960086 -0.49690378 -0.8014649 -0.123151176 -0.48416767 -0.19568338 0.34183943 0.034075484 -0.10793125 -0.04227858 0.2831164 -0.015896743 0.2260626 0.033819694 0.32627654 -0.442398 0.525727 0.2586295 0.28825673 0.098419026 0.23751466 0.19586585 -0.43079832 0.21382496 0.2520889 0.10186506 0.25427553 0.20264702 0.09229888 0.025079997 0.18178143 -0.3873753 0.34426707 0.18828888 0.3159943 0.6187117 0.5333982 0.40570742 0.06828424 -0.10534627 -0.25023505 -0.30457583 -0.5354543 -0.4782792 0.13201866 -0.28505045 0.351505 -0.34509736 -0.022633389 -0.0007135946 -0.016294532 -0.20147888 0.2944204 -0.3368664 -0.44138974 -0.43909284 0.47985515 -0.28056213 -0.08594996 -0.018218182 0.38010415 1.2712141 -0.25961617 0.1695661 -0.8739523 0.3573045 -0.01201696 0.67696726 -0.23067199 0.18868576 -0.40932912 0.03273663 -0.11061237 -0.6528578 0.35739067 0.5864906 0.20435196 0.16081318 -0.06057703 -0.324186 -0.447347 0.43470228 0.05812332 -0.12608974 -0.22739825 0.4428742 -0.59413165 -0.040884 0.41851887 0.89226264 0.015531784 0.14084889 0.06909174 0.48235235 0.91029865 -0.18494864 -0.11039449 -0.09363186 -0.30567834
http://www.co-ode.org/ontologies/pizza/pizza.owl#VegetableTopping -0.024263173 0.74344486 -0.5078278 -0.3259563 -0.24757814 -0.06377671 0.48452342 0.47731927 -0.022488292 0.71225274 -0.7247519 0.22349454 -0.178504 0.37662444 1.1659513 0.3363534 0.08218051 0.23417321 0.41017544 -0.14934012 -0.39145803 -0.20792179 0.023915699 0.33354867 0.16948174 0.62650365 0.3926003 -0.3453694 -0.17238791 0.7922588 0.6605833 -0.007751698 -0.5581163 0.46255088 0.26660115 0.45934924 0.55291015 -0.31804508 0.035437867 -0.12664504 -0.6473975 0.00538551 -0.17309964 -1.2381454 0.093434125 -0.15748397 0.2424766 0.463842 -0.06528262 -0.050979797 -0.03700519 -0.22822456 -0.3485771 0.06389153 -0.22972573 0.2520383 -0.045028534 0.27939528 -0.49524304 0.0011302215 0.2562328 -0.116179645 0.8817917 0.1519339 0.04077963 -0.3026319 0.31523272 0.05578621 -0.41371924 0.25512427 0.018579338 -0.27219188 -0.09562018 0.17932624 0.20942934 -0.027147824 -0.32694978 -0.12319909 0.514633 0.123316824 -0.108342454 -0.4119288 -0.030924309 -0.42870456 -0.004858764 -0.024371399 0.28144148 -0.043898735 -0.15756312 0.022261426 0.08954427 0.29618418 -0.14683281 0.011365084 -0.59033966 0.31684184 0.36148903 0.0129038375 0.59404 -0.1333092
pollo -0.3791882 0.25356302 -0.2361014 -0.91646385 0.104048535 -0.004620422 -0.23812355 0.57526755 -0.066257 -0.44443417 -0.03003521 -0.2586813 -0.09634787 0.00027483984 -0.093415335 0.36185336 0.16178283 -0.30724093 0.031307083 0.5794843 0.05920594 -0.46912363 0.92358595 -0.24816038 0.12136636 -0.29562518 0.5854824 0.59924585 -0.6946496 0.42409077 0.37131783 -0.1321007 -0.25834948 0.14789242 -0.37346584 0.20971332 0.114994794 -0.16403848 0.26792994 0.53505164 -0.35505557 0.34242925 -0.7694525 -0.3500825 -0.44592378 -0.2742202 -0.017326754 0.1642506 -0.08132663 0.056676097 -0.38081932 0.45612416 0.19117482 -0.23048028 0.22794823 -0.75643355 0.12557736 -0.23594111 -0.24931474 -0.38555774 0.16544071 0.5255618 0.9879104 -0.024782214 0.39026934 -0.10799029 0.6016618 0.12986274 0.6518118 -0.24582727 -0.007608602 -0.4656703 -0.31628674 0.097926505 -0.79205287 0.82765555 0.63518196 -0.042165007 0.6167306 -0.38928726 -0.344677 -0.08711075 -0.49908513 -0.12969142 0.3873007 -0.6465766 0.31195045 -0.36153227 0.44370407 0.23577872 0.7794824 -0.32038048 -0.17817096 0.17921734 0.5488523 0.36768842 0.36509004 -0.27827662 0.17202692 0.09612903
ad -0.30870688 0.27408764 -0.030672736 -0.98200804 -0.12143235 0.1448562 -0.36404637 0.20852776 0.17090139 0.06565636 -0.25724798 -0.3077554 -0.21871366 -0.14295168 0.020217026 0.41755864 0.24996825 -0.1618477 -0.16790967 0.44281286 0.18080457 -0.83922607 0.6869175 -0.1171248 0.05432066 -0.44170597 0.022663267 0.09698784 -0.10927045 0.5310189 0.22565478 -0.048162434 -0.31380892 0.46951988 0.09430636 0.5196647 0.36324456 0.35387513 -0.103553824 0.376666 -0.39331576 -0.048635505 -0.8509905 -0.06901425 -0.38668853 -0.45525393 -0.22238408 -0.1867066 -0.2214291 0.05044507 -0.06057616 0.76607764 -0.21683319 -0.09888022 -0.24582464 -0.9579713 0.23137313 0.10386954 -0.44229686 -0.53355336 0.17878962 0.58509797 0.9540449 0.21425709 0.34880167 0.35778588 -0.00307371 -0.12820734 0.71350884 0.17026636 0.19020556 -0.8092803 0.40300703 -0.010102624 -0.4410121 0.14514334 0.63880855 -0.40199527 0.6134818 -0.69884783 -0.3057347 -0.50824803 -0.30259645 -0.47382137 0.32377973 -0.43101877 0.46928346 -0.6276269 -0.035433333 0.17804876 0.9662959 -0.037558503 0.06990707 0.39282793 -0.0347908 0.45793346 0.17530599 -0.70377564 0.09106148 -0.6072592
astra -0.21237832 -0.05610436 -0.2840312 -0.8760174 -0.32337356 -0.07131788 -0.32694802 0.08003654 0.1179763 -0.4470938 0.23588394 -0.0634924 0.21632591 -0.18319315 -0.173901 0.52156764 0.24162547 -0.34476066 -0.41832232 0.4515909 0.017465279 -0.85503346 0.9129922 -0.07379514 -0.33212808 -0.547182 0.09861365 0.005526705 -0.042194646 0.52771825 0.37339035 -0.13099538 -0.71767426 0.42434415 0.30491084 0.07396102 0.59660006 -0.0080828555 -0.43102014 0.49007964 -0.20905969 0.04773778 -1.1109246 -0.27970782 -0.07796886 -0.05505794 -0.021803716 0.13503763 0.040693607 0.07549022 -0.5069293 0.19472745 -0.016960302 -0.1344009 -0.17096637 -0.56353706 0.03565313 0.42175883 -0.20751028 -0.36189586 -0.26186696 0.35822427 1.3851583 0.3520218 0.16511913 -0.20541303 0.24722844 0.31862366 0.86285114 0.20683272 0.22920448 -0.3189346 -0.23029484 -0.14453752 -0.4678291 0.27150017 0.5057682 -0.26067933 0.7351088 -0.28543103 -0.060201325 -0.4801081 -0.8187881 0.2750366 0.45396686 -0.81958693 0.16290762 -0.10676888 0.16061163 0.4040412 1.219665 -0.63542795 0.012728436 0.56668985 0.50273734 0.7479627 0.30172166 -0.22658797 -0.05622324 -0.29945293
napoletana -0.1466692 0.44547406 -0.24617693 -0.65121895 0.094963044 -0.6415166 -0.3249325 -0.15763786 0.0037802637 -0.013899815 -0.32219905 0.5258167 -0.2240677 0.35831442 0.11183379 0.29154027 -0.28915483 0.2409069 -0.14867118 -0.17402697 0.07646919 -0.31582436 0.10273983 0.14287607 0.1086721 0.18112358 0.059096213 0.22624424 -0.23365112 -0.08230868 0.40098792 0.122096114 0.019513035 0.5249723 0.32215983 -0.1831821 0.91145366 -0.6080018 0.19721726 -0.15680367 -0.1369089 0.5003754 0.13199525 0.23192877 -0.009812545 0.34772533 -0.05810362 0.18935019 -0.37503695 -0.10226928 -0.31975585 -0.4946061 -0.314928 0.37960723 -0.0034142523 -0.5586575 -0.36170736 0.019746633 -0.34150675 -0.006028725 0.16175303 0.29746002 1.088538 -0.10697816 0.15670584 0.16301382 0.47912303 -0.2841789 0.64024884 -0.32106096 0.3442199 -0.22284244 0.004992119 0.06865026 -0.5583838 0.050677832 0.11577047 0.43035576 0.5540414 -0.10232502 -0.04929906 -0.7563545 0.36900607 0.113514334 -0.106607266 -0.4372142 -0.12678231 -0.57201594 0.0533391 0.15645349 1.2508278 -0.026007624 0.49534136 0.06337486 -0.12385143 0.07599085 0.35739806 -0.46130958 -0.3276693 -0.11908574
parmense 0.51761276 -0.22152522 -0.509164 -0.70121217 -0.1877343 -0.49138305 -0.42085633 0.5005264 0.43844733 -0.21561414 0.32656205 -0.32135332 -0.02617075 0.25836053 0.18779585 0.054200407 -0.579557 0.01133018 0.25526202 0.30538085 -0.4562833 0.24272229 -0.15107211 -0.030815016 0.42158872 0.27615288 0.2651965 0.11301283 -0.75193727 -0.109957494 0.711915 0.08521353 0.010471715 0.085994296 0.23397289 -0.25951865 0.39446703 0.8315332 -0.048863325 0.03284009 -0.20923537 0.053875294 -0.24288861 -0.49837622 -0.174727 -0.14760096 -0.25282097 0.6967322 -0.7246092 0.35437554 -0.15442836 0.03774235 -0.0005257737 0.6542871 0.26678416 -0.15180282 -0.21425863 0.22862808 -0.3207798 -0.010494377 0.059428167 0.46386352 0.6532552 0.2229578 0.6271782 0.020175721 0.3536474 -0.12696783 0.8287221 -0.31574273 0.16779959 -0.8072167 0.14473626 -0.20607217 -0.6481933 0.063789226 0.6059882 0.12207716 0.5701852 0.1985554 -0.29153872 -0.039451566 -0.19476008 -0.148138 -0.30272952 0.2244357 0.072510086 -0.30249253 -0.10458056 0.3739185 0.81844753 -0.019428123 -0.2267392 -0.5274566 0.15386304 -0.0058073075 -0.36147627 -0.3712494 0.10278648 -0.69357216
la 0.45428628 0.34534195 -0.3673893 -0.89477515 -0.5462704 -0.33184418 -0.25204337 0.11116454 0.50739133 -0.07750233 -0.16851322 -0.040856395 -0.19136007 0.9461522 0.23541044 -0.048307933 -0.21267338 0.13673235 0.25941992 0.1076027 -0.3110339 -0.12947226 0.10619232 0.16422418 0.3381868 -0.080176875 0.46087298 0.0734242 -0.2702293 0.03097354 0.49776152 0.14921282 0.5395517 0.9423521 0.5636838 0.16737173 0.35787937 -0.027229631 0.07889475 -0.295224 -0.13485037 -0.18307362 -0.72909814 -0.16856012 -0.18274954 0.47083604 -0.15845689 0.53711575 0.2543672 -0.02977776 -0.16828935 -0.20420955 -0.42529988 0.22751202 0.33566567 -0.50971097 0.08115383 0.4623774 -0.5496631 0.27288735 0.09073928 -0.23616385 0.62903506 0.33134022 0.029460594 -0.18182333 0.49993047 -0.33879745 1.2397475 -0.60969913 0.16107918 -0.48853558 0.5215441 0.35846984 -0.52317214 0.26856413 0.59859324 0.13550816 0.47801977 0.062485512 -0.17528209 0.122040726 -0.13472883 0.7303041 0.28852436 -0.20253631 0.08403269 -0.59411055 0.33732235 0.04614401 1.0216224 0.19111545 0.14142127 -0.30164042 -0.023961209 0.47720492 -0.11814515 -0.121613584 -0.31026953 -0.3009492
reine -0.11704875 0.378795 0.015752641 -1.0318687 -0.23244524 -0.54955024 -0.83301145 0.6339865 0.8692542 0.18823132 -0.19011007 -0.029941797 0.05037257 0.9669599 -0.13153836 -0.15772505 -0.15280016 0.6796017 0.096910015 -0.1649607 -0.4780786 -0.06366799 0.16084534 0.18181437 0.2994516 -0.012483847 0.4921246 -0.025048966 -0.27271718 0.10578824 0.9665668 0.16667403 -0.03328567 0.75973904 0.53785986 -0.17793399 0.55269676 -0.0065301135 0.035941705 -0.04551868 -0.03698742 -0.17030975 -0.15737705 -0.059191715 -0.2862104 0.2708156 -0.47222704 0.13306543 0.018505929 0.17269854 -0.39194277 -0.49825394 -0.09646946 0.35440508 -0.14478703 -0.21238811 -0.42230064 0.3585029 -0.35788053 0.28270197 0.033016767 0.13335918 0.6302677 -0.0122931935 0.77684057 0.03923557 0.6429235 -0.46901992 0.8629653 -0.12688519 0.35188523 -0.56767577 0.28481352 -0.11540249 -0.84628296 0.57389605 0.23836353 0.10444854 0.5519815 -0.083886616 -0.59648633 0.239887 0.22828889 -0.08533437 0.10307911 -0.03839737 -0.49298406 -0.65245354 0.13576509 0.51849526 0.6320584 0.10255155 0.18497099 -0.26862448 0.31115824 0.26287684 0.019467179 -0.11974566 -0.43508667 -0.48486608
altlabel 0.32030174 -0.5507977 -0.15651338 -0.44636384 -0.2645038 0.82572985 -1.0588307 0.3057261 0.008738223 0.2644708 -0.4888527 -1.2530111 0.19342019 0.9623108 0.8559574 0.11750135 -0.64878625 0.36352944 0.04967183 0.60066724 -0.37806338 0.18575677 -0.15117767 0.14375791 0.686802 0.38662037 0.7274172 0.75745034 -0.037280127 0.15740779 1.3096846 0.31044844 0.46526855 0.114084356 0.20011061 0.5171948 0.85013515 0.04801586 0.1362006 0.15529907 0.40664127 -0.05162652 -0.31332564 0.05333771 0.38148436 0.20298916 0.5301609 0.9201365 -0.99006665 -0.37446928 -0.6474724 0.35997164 -0.37598416 -0.25365055 0.13821948 -0.15577659 -0.74989164 -0.1453081 -0.56295025 -0.30803746 -0.38651568 -0.30888748 0.9830195 0.11712543 0.28619468 0.47720554 0.53554 -0.093165845 0.2843314 0.55807126 0.033911698 -0.5350446 0.20018497 0.037789524 0.22150902 0.7255727 1.0093614 -0.38232845 -0.14686061 -0.4140282 -0.04088183 -0.48217317 -0.054067105 -0.05762669 -0.3403504 -0.45375013 0.35172707 0.32074615 0.25694406 0.4696997 0.46073008 0.2705827 -0.08109256 1.0026997 0.31346312 0.52481985 0.43908423 -0.60334635 0.0076510636 0.7077968
sloppy -0.15722749 0.23252925 -0.1292323 -0.50515574 -0.42777994 -0.1448168 -0.04329965 0.28547674 0.17262773 -0.5245087 -0.19130237 0.37167776 0.44022703 0.05758821 0.76996946 0.6831711 -0.62700176 -0.08492759 0.010721724 0.019562386 -0.26162937 -0.77724147 0.2985405 0.3601794 0.11205101 -0.17107669 0.10960041 -0.034218222 -0.586629 0.26790187 0.53917116 -0.21261309 0.5091959 0.7581695 0.41411114 -0.05746211 0.036540773 0.1921347 -0.019245809 0.5160274 0.42467767 0.24529248 -0.8421369 -0.5818264 0.14738852 -0.053530417 0.055031024 0.028043749 0.5927076 0.48711884 -0.104337275 0.61259466 -0.008086783 0.7274377 0.639629 0.004205386 -0.6996749 0.6425921 -0.13093741 0.005642577 -0.09654754 0.049528323 0.5849646 0.14993368 0.117129624 0.26411387 0.45252585 0.18813929 0.789804 0.2853505 0.32091472 -0.6127853 0.26384684 -0.13493028 -0.94521546 0.24325629 0.4571006 0.115511656 0.16107455 -0.40018934 -0.22262858 -0.6190932 -0.04753511 -0.37965962 0.13904409 -0.1407379 -0.1071553 -0.20041324 0.18844265 -0.13643178 0.49675003 0.23176695 0.41809434 0.7095267 0.45306852 0.093596414 0.088717125 -0.38964346 0.19357273 -0.36005947
giuseppe 0.25883394 0.0717898 0.42652237 -0.5335351 -0.26298872 -0.23498598 0.19958776 0.23947006 0.3108395 0.10676521 0.07130652 0.26797503 -0.029746417 0.15646346 0.63528234 0.52440417 -0.83504885 -0.06812209 -0.3103845 -0.18737301 -0.7264814 -0.7465039 0.61675674 0.3889519 0.06311759 0.10063634 0.8417963 0.26006064 -0.31843722 0.6752654 0.33380583 -0.108093 0.46777585 0.62420297 0.10489088 0.18509755 0.38178316 0.30796984 -0.49341294 0.04066905 0.0043378733 0.34151775 -0.73638386 -0.38824752 -0.09605582 -0.026389342 -0.08972225 -0.07556068 0.3179857 0.6440628 0.021870326 0.91184914 0.2919928 0.8020575 0.6083851 -0.46070513 -0.62220013 0.354754 0.1599226 -0.03657726 0.20963195 -0.034043264 0.71034276 0.18766893 0.36637828 0.15662767 0.6722798 0.093500845 0.5929854 0.022438083 0.52414936 -0.23788005 -0.28087595 0.24302728 -0.86147994 0.064357504 0.8746338 0.2952651 -0.022229297 -0.1539538 -0.016496496 -0.1831496 -0.34289268 -0.34257123 -0.036168452 -0.2321202 -0.29647645 -0.36963403 -0.036112756 0.25650284 0.7987701 0.42403325 -0.23748873 0.93777937 -0.04087191 0.20324156 0.24981122 0.10026773 -0.29923373 -0.7226599
prince -0.11024435 -0.086444005 -0.415187 -0.8233064 -0.234005 -0.6458016 -0.15727128 0.43754727 0.28909093 -0.06106317 -0.23002718 -0.5533327 -0.301776 0.32976353 0.18083946 0.7380579 -0.5173314 0.005042745 -0.41275516 0.19928622 -0.85920537 -0.31588605 0.017536791 -0.12217881 0.2190902 0.10566188 -0.03781837 -0.061144873 0.08975987 0.010656584 0.53890175 -0.2839388 -0.35238647 -0.18585345 0.182092 0.37968722 0.17666277 0.4183074 0.4382719 0.34637517 -0.34531012 0.08478329 -0.43636635 -0.92141634 0.49331015 0.10760745 0.011780874 0.22977689 -0.73838794 0.6393865 -0.09773708 0.26129556 0.35544768 -0.17659268 0.2856462 -0.2575598 -0.49507034 0.5708955 -0.5983686 0.098149315 -0.018231757 0.5090789 0.67691445 -0.09286547 0.55502415 -0.2127791 0.40216792 -0.45641288 0.6756524 -0.06915347 0.080138765 -0.60692656 -0.42382297 0.13991137 -0.22892572 -0.089307524 0.29553154 0.4927841 0.28794175 -0.23679009 0.21699953 -0.056407142 -0.0790247 -0.03439371 -0.2786262 -0.3060302 -0.21102393 -0.5382392 -0.21008307 0.33471587 0.8436884 -0.4925291 0.21944594 -0.16487747 0.059353895 0.31621325 -0.27149457 -0.7153996 -0.5964922 -0.11283433
carlo 0.3862505 -0.0050287955 -0.60895973 -0.6582025 -0.19909824 -0.82286894 -0.41377276 0.13944456 0.67697495 0.04357252 -0.14256884 -0.38527694 -0.37004232 0.23838323 -0.34302557 0.30470222 -0.70121145 0.29729426 -0.47768492 -0.09525334 -0.40241063 -0.30827796 0.038660143 -0.093243964 0.37984335 0.15542668 0.322209 0.19527313 -0.39883196 0.23585096 0.14971532 -0.33276612 -0.5993546 -0.21436428 0.1092925 0.4180177 0.06534629 0.10573091 0.011798736 0.34142676 -0.56955403 0.32319352 -0.0014873869 -1.1297169 -0.21337403 0.19151999 -0.2605409 0.09939879 -0.74926615 0.8010447 -0.3391874 0.09596119 0.08246159 0.65504634 0.12027644 0.1746433 -0.48106503 0.28452668 -0.66188437 -0.4922985 -0.49471948 0.6115594 0.7688535 0.21749313 0.05460416 -0.021907266 0.4866333 -0.05356516 0.58281255 -0.34483314 0.353825 -0.5805787 0.024690824 -0.15120347 -0.5006958 0.14732146 0.10949981 -0.037861824 0.16341573 0.11173323 -0.12057931 -0.24113186 -0.18915626 0.26658842 -0.24107559 0.09472033 -0.24662603 -0.54766023 -0.30728826 0.51165265 0.8170392 -0.31414282 -0.1412 0.3028645 0.46210194 0.83555377 -0.12152533 -1.0004591 -0.65431297 -0.07851293
caprina -0.048317242 0.29361284 0.27968815 -1.0459576 -0.23543496 -0.6792172 -0.21485278 0.1848141 0.4768179 -0.29431263 -0.057426557 -0.1959684 0.20653625 -0.2798144 0.14909299 0.3995148 -0.40860873 0.32105428 0.12056614 -0.16792928 -0.3264841 -0.54984134 -0.25144744 0.05740586 0.03384381 -0.27975652 0.20346993 -0.014102191 -0.3653287 -0.07250545 0.66450465 0.44688702 0.10758095 0.17116745 0.16321471 0.056259718 0.13418274 0.32535568 -0.2038844 0.30121782 0.021640062 0.07233506 -0.6960452 0.043814678 -0.13213624 0.49928415 0.13188507 0.24201763 -0.19162919 0.36220667 -0.21690822 0.36282107 0.0381614 0.55037767 -0.20456387 -0.2691607 0.10762527 0.33837107 -1.0012708 -0.20625974 -0.06280987 0.49162778 0.84143007 0.36741397 0.10603477 -0.3313162 0.47960877 0.18969055 0.23499897 -0.11584218 0.7346844 0.0063675838 -0.04954181 0.02344419 -0.5637189 0.49842557 0.6793585 0.12097403 -0.026415724 -0.19228873 -0.41481775 -0.46211702 0.020871565 0.08162668 -0.5657651 -0.25612807 -0.31740665 -0.48330215 0.08901676 -0.13494472 1.0380769 -0.26510805 0.48928443 0.11157419 0.22252001 0.17193933 -0.28549275 -0.35076803 -0.17095156 0.24190143
http://www.co-ode.org/ontologies/pizza/pizza.owl#OliveTopping 0.18891154 0.11465939 -0.6000883 -0.3124607 -0.3623925 -0.33225718 0.08778074 0.49043578 -0.052801434 0.6234185 -0.22197367 0.2551178 -0.24860209 0.44860408 0.46374434 0.55755365 0.58841676 0.14656046 0.43609098 0.17014666 -0.63637024 -0.19221306 -0.51868093 0.11003217 0.2551183 0.15147558 0.78396195 -0.29968953 -0.07939557 0.3512591 0.43537563 0.03533419 -1.0676366 -0.05105116 -0.28364024 0.11431019 0.1933724 -0.67330486 -0.2209513 -0.08083434 0.08602303 -0.03356933 0.108322814 -0.45487985 0.4872208 0.027145635 0.16565326 0.47743487 -0.06857189 0.319737 -0.0628599 0.20459056 -0.48316115 0.42589003 0.07453608 -0.45333833 -0.05411981 -0.39401078 -0.083591886 -0.30192715 0.57227737 -0.38402036 0.6445318 0.50038236 0.15464294 -0.47919774 0.41928473 -0.13288921 -0.10012803 0.19747946 -0.16616969 -0.1571252 0.30826026 -0.10360901 -0.084190525 0.68151104 0.019987008 0.0854476 0.5285823 -0.22126424 -0.12193183 0.51848096 0.19596282 -0.34522754 0.45960268 0.07371516 0.4597655 -0.1521504 0.09008005 -0.1710455 0.78281003 0.22119263 0.5214048 0.20390819 -0.28124782 0.6194401 -0.004684934 0.05625086 0.27408403 -0.1494811
mild -0.56787467 0.28787148 -0.30935028 -0.80067337 -0.9006275 -0.99279577 0.24116053 0.7276117 0.20910227 0.24565332 -0.266823 0.3041544 -0.53070825 0.10104225 0.4556806 0.20316117 -0.18079495 -0.25281063 0.14833154 0.5133184 -0.57994056 -0.4608655 0.060755327 0.47023177 -0.34556285 0.7567884 0.5221465 -0.029687807 0.18547812 -0.66730833 0.15421566 0.2748797 -0.49330264 0.040884092 -0.08259117 -0.04036596 -0.102125354 0.29769096 0.37032416 0.31941015 0.32680562 0.027167186 -0.37784562 -0.9347771 -0.5995579 0.3377061 -0.054778393 0.3750953 -0.5120489 -0.064844765 -0.21952222 -0.32777297 -0.080854915 0.02803526 -0.510535 -0.4539095 0.0123291835 -0.101471834 -0.9770427 -0.12481027 0.3524945 0.07353815 0.647011 0.6874718 0.2614625 0.018271457 -0.084888764 0.19513474 0.26654118 -0.22717436 1.203726 -0.17135938 -0.060410168 0.29559657 -0.51752967 0.32138428 -0.39606076 -0.068062976 0.67260194 0.24447101 -0.15577851 0.0069230706 0.02025403 0.016093714 0.039992254 -0.055710766 0.16863489 -0.6204483 -0.51102006 0.0038224037 0.61873955 -0.3009519 -0.047733337 -0.30715123 0.2643457 0.727895 0.14990148 -0.7233288 -0.23824038 -0.27469248
spice -0.35831982 0.18088019 0.093101956 -0.64155805 -0.5065235 -0.05855927 0.047179304 0.34407917 0.23643826 0.24099669 -0.014088088 -0.5573559 -0.28707916 -0.23621152 -0.35087848 0.659836 -0.52022666 -0.06884394 0.08186391 -0.070369564 -0.07640861 -0.107889034 0.7221412 0.2550631 -0.051441863 0.6187523 0.2621303 -0.5259651 0.114321865 0.30864832 0.568322 -0.33079123 0.022111293 0.53065753 -0.08437892 0.6945405 -0.55592316 -0.1336859 0.16990586 0.6382783 -0.017766302 0.019165426 -0.5884275 -0.4286776 0.42483023 0.08200708 -0.3786503 0.562528 -0.24997559 0.1296505 -0.6639354 -0.4070773 -0.28001115 -0.52555835 0.09350078 -0.4346717 -0.27321446 0.25715187 -0.92712843 -0.6602266 -0.10439401 0.44727787 0.27057016 0.50253505 0.23658448 0.3212155 -0.21735382 0.20506367 0.101493 -0.46521127 -0.24667095 -0.3964326 0.01918154 -0.034529995 -0.744981 0.18911923 -0.56798875 -0.2173344 0.48779428 0.20976561 0.0079983035 -0.34439835 -0.06629087 0.34809417 -0.6359585 -0.5510533 0.48387024 -0.22740425 0.50308263 0.6829124 0.615792 0.078700624 -0.019111456 -0.17889003 -0.1353055 0.021171382 0.7688597 -0.5008542 0.23899394 -0.4357163
green -0.43772218 -0.1182914 0.08625412 -0.060067225 -0.00066581747 -0.13898045 0.29617348 0.3315659 -0.0730813 -0.0022066056 -0.27774653 -0.58707225 0.030352348 -0.36071897 0.35548198 0.28737116 -0.48402172 0.43556482 0.43574896 0.1142568 -0.4124429 -0.55797666 0.22100234 0.0022373784 -0.3171612 0.7373726 0.32671213 0.04528778 -0.32715023 0.61600906 0.33185542 0.31570733 0.16429804 1.1051565 0.124119215 0.47487226 0.40260175 -0.4034868 -0.11603517 -0.0128694745 0.24699682 0.42039746 -0.6830887 -0.47729677 -0.030390427 0.079365425 0.10981818 0.32241637 0.21671435 -0.06729997 -0.27847335 0.11647016 0.11205834 -0.027378324 0.20467299 -0.49333888 -0.9409246 0.039571248 -0.8251868 0.02521166 0.13212095 0.45274842 0.8480387 0.5498025 0.046220496 -0.23351127 0.11368607 0.23646416 0.42051327 0.29760316 0.34606153 -0.08159594 -0.5037102 -0.26302823 -0.7041286 -0.07676478 -0.7240217 0.048477568 0.49241498 0.43371078 0.21634619 -0.26527315 -0.03289158 -0.36359796 -0.48639172 -0.48247138 0.24624683 -0.18926227 0.35196942 0.6461858 -0.07834451 0.20843911 -0.48688173 -0.045789964 0.2551804 -0.23772389 -0.48135155 -0.84115046 -0.09394608 -0.28525344
garlictopping -0.31392378 0.3400702 -0.3095625 -0.15557234 -0.50646245 -0.56548524 0.11737326 0.6013029 -0.06310774 0.6216982 0.25875372 0.03144919 0.072678335 0.2147298 -0.053072166 0.54920197 -0.3814747 0.19631267 0.40199932 0.5680387 -0.74468744 -0.64920354 0.032585528 0.018774025 -0.38159788 0.23195532 0.5799766 0.17066652 0.027198348 0.118997075 0.23012348 -0.35043013 -0.23614743 0.54609984 -0.19846614 0.42988908 0.009721247 -0.1998765 0.34032506 0.44691992 0.16024938 -0.10012922 -0.19403884 -0.07789355 0.39119682 -0.2729325 -0.45267746 0.5375616 -0.004346989 -0.07782259 -0.16333847 0.27386922 -0.45945778 -0.11805814 -0.40436324 -0.39066246 -0.15549022 0.1899785 -0.08222505 -1.2660078 -0.28179175 0.0655744 0.7806084 0.25478816 0.5630855 0.03441863 0.13798308 0.23140623 -0.10417236 -0.042230934 -0.005791169 -0.25959074 0.31750435 -0.12470896 -0.541529 0.5623377 0.6314895 0.051457126 0.47248602 0.025098372 0.3117437 -0.32567945 0.4189127 -0.29481015 0.06779582 -0.003799282 0.41425294 0.012277021 0.4270185 0.6714452 0.7236443 -0.14950334 -0.029761273 -0.26401725 -0.042056594 -0.03663951 0.37965792 -0.07100626 0.090440005 -0.5995267
food -0.1933737 0.38479164 0.09957262 -0.69799477 -0.08075594 -0.56252337 0.14782892 0.20285988 -0.1543853 -0.037626483 -0.17210463 -0.31391504 0.67070746 -0.29332778 0.12189355 0.119004995 -0.35528347 0.035659827 0.55703485 0.011230867 -0.38889727 0.20062646 -0.07935477 -0.12553596 0.049733665 0.12887077 0.42948502 -0.10458075 -0.029336603 0.3454941 0.082770824 -0.36148494 0.47421288 0.57545155 0.41536963 0.07162942 0.074750215 -0.12550077 -0.032085095 0.583418 -0.2844826 0.006825085 -0.21515651 -0.1929784 -0.032286767 -0.25612465 0.15990831 0.63970023 0.10524773 0.3159913 -0.06301419 -0.028058767 -0.30165955 -0.30055428 -0.15084743 -0.8408226 -0.35829806 -0.16691223 0.21171874 -0.023740405 0.065841354 0.63499385 0.4613901 0.5445081 -0.78067297 0.28488863 0.5030436 0.14302061 0.2857225 0.271022 0.13345757 -0.938518 -0.48657787 -0.122208774 -0.32865697 -0.47344163 -0.17089397 0.28592867 -0.014597754 0.08161097 0.13871913 0.17627606 0.15722287 0.016895862 -0.05055152 -0.3366773 0.025422119 -0.6553646 -0.112073176 0.0031153967 0.701143 -0.6714142 -0.1460197 0.16737342 -0.10747935 -0.094114564 0.10082771 -0.41955692 -0.072646454 -0.2587362
rosa -0.34112662 0.057817567 0.16491893 -1.1159843 -0.24155699 -0.5905221 -0.07169893 0.11961756 0.25082135 -0.09559515 -0.0033342415 -0.11028093 -0.48548463 0.0019325081 -0.13131417 0.427895 -0.56658095 0.009259216 -0.1753924 -0.13133676 0.049682256 -0.7118997 0.14884742 0.22868824 0.066804536 0.27833244 0.41193652 0.16148248 -0.113853514 0.13159329 0.7009339 0.4953995 0.19370882 0.564445 0.05034925 0.06605864 0.02017834 -0.14408816 -0.0033081318 0.41111955 -0.12606385 0.34561083 -0.14773937 -0.2633559 -0.14301243 0.23056647 0.009358097 0.28256905 -0.33090004 0.56719524 -0.40801382 0.30162758 0.10857476 0.6531309 -0.07238563 -0.5634682 -0.06467759 0.09754862 -0.112613045 -0.36096698 0.10889339 0.49793315 0.65416116 -0.07963183 0.018513592 -0.21686448 0.13973893 0.16753148 0.7723099 -0.005246332 0.5191274 -0.7011908 -0.15302227 -0.08556194 -0.47553882 0.6389403 0.7804838 0.22022575 0.22996965 -0.13156813 -0.040518995 -0.33978656 0.1302311 -0.25361323 -0.60483724 -0.04607279 -0.20135395 -0.41261926 -0.1962671 -0.375909 0.73173845 -0.30218694 0.25016928 0.11925056 0.39562076 0.45177394 -0.39129373 0.14553446 -0.32710075 0.084913015
http://www.co-ode.org/ontologies/pizza/pizza.owl#Giardiniera -0.13219559 0.20716009 -0.24057053 -0.2190563 0.07307469 -0.16428547 -0.15270108 0.53442717 1.0235832 0.31864223 0.1040885 -0.08363267 0.13006467 1.0050225 0.72377664 -0.1189836 0.3607425 0.1543771 -0.10381725 -0.19645055 -0.39387327 -0.21046607 0.011523593 0.46887937 -0.2922985 0.22526157 0.43888298 -0.14403231 -0.08874447 0.7723775 0.7105834 -0.21773165 -0.13290024 0.48603803 -0.14542809 0.19431472 0.011449169 -0.40057635 0.20028943 -0.5405837 -0.39261106 -0.07503971 -0.51532555 -0.7218694 -0.1540653 0.066787265 0.0831072 0.083261065 -0.094320856 0.27945536 0.31134957 -0.3543564 -0.44735184 0.49553922 0.42485055 -0.2991578 -0.012646722 0.24520127 -0.9374712 -0.2659652 -0.3206461 -0.01774571 0.75503904 -0.43646464 0.70945513 -0.22025995 0.8942303 -0.16743013 0.5785829 0.32565174 0.43370634 -0.37792188 -0.23921208 -0.24654588 -0.08852254 -0.2379773 0.68522733 0.5653643 0.13303423 0.04409091 0.40041894 -0.0015070172 -0.027845014 0.052302353 0.22759156 0.39526784 -0.18332312 -0.42109877 -0.20370558 0.17399155 0.36384788 -0.3740338 0.73880684 -0.35678774 0.1691467 0.7949614 0.21772227 -0.41484484 0.008616248 0.2725045
capertopping 0.1715338 -0.0705976 -0.2480958 -0.337828 0.03442972 -0.6334722 -0.05843939 0.27140793 -0.25429577 0.26766962 -0.058407567 0.25847262 -0.15420438 0.36593437 0.61820596 0.64007264 -0.049844343 -0.09809629 -0.2032087 -0.0017213938 -0.5439378 -0.044063237 -0.013136042 -0.22140239 0.0028363843 0.6613367 0.40838715 -0.11987619 -0.22678097 0.23194562 0.8133594 0.62175417 -0.6383149 0.71912056 -0.125939 0.076478705 0.382024 -0.3966593 -0.16881692 -0.2205649 0.49466294 0.38510388 0.1258739 -0.06427464 0.114150606 0.20955974 0.3083914 0.20554821 0.16712888 0.5828088 0.1782022 0.27101114 -0.44896296 0.30864984 0.33871233 -0.49212003 -0.49055782 -0.20228085 -0.40471235 -0.3101574 0.5640366 0.1354688 0.93191004 0.4760521 -0.30330664 -0.039306097 -0.06164967 0.17305566 -0.1558778 -0.2971092 -0.30067998 -0.21386316 -0.25785416 0.10492453 -0.18948434 0.0014895151 -0.568983 -0.3851508 1.0130193 -0.38585216 -0.2621513 0.25887924 0.31083912 0.27427426 0.4736705 -0.2176596 0.43287793 -0.46278965 -0.14438562 0.23870814 0.8875326 0.32795602 0.23556444 0.2642812 0.48225692 0.06776356 -0.39813954 -0.48056749 0.14702788 -0.31816033
http://www.co-ode.org/ontologies/pizza/pizza.owl#Veneziana 0.10428682 0.049657516 -0.10140233 -0.44564798 0.16929807 -0.1708179 0.3090686 -0.035249718 0.08035591 0.5897833 -0.34595037 0.39341384 -0.40855938 0.43680885 0.7038663 0.05027128 0.03247044 0.29637235 0.008713551 -0.28284845 0.29750124 -0.01628884 0.37953696 0.8365611 -0.15080999 0.32814595 0.09328483 0.2510193 -0.11061321 0.19642094 0.19751357 -0.0032740326 -0.7596107 0.5675019 0.011034121 -0.21300304 0.6493326 -0.30505332 -0.09740078 0.41977757 -0.20514755 0.6282814 0.17146133 0.104053915 0.09430453 0.34086952 0.14561653 0.58131814 0.27040058 0.44487262 0.078459926 -0.44695115 0.232601 0.63067144 0.2191307 -0.18460375 -0.14925405 0.8182723 -0.23516655 -0.22242846 -0.31311435 -0.33876786 0.6264575 0.052516002 0.07874167 -0.061102293 0.44121936 -0.009973208 0.35440928 0.7162871 0.48988646 -0.20550993 -0.094094716 -0.09968211 -0.7341478 -0.062913634 0.31720963 0.66927963 -0.26780313 -0.2997365 -0.4481301 -0.17307772 0.31198117 -0.41179696 -0.35875714 -0.03140911 0.033018216 -0.4675235 0.23431036 -0.84785956 0.9177081 0.25547245 0.45740193 0.55516624 -0.055509616 0.869427 0.24123056 -0.31354454 -0.16078451 -0.63630414
http://www.co-ode.org/ontologies/pizza/pizza.owl#FourSeasons -0.31351888 0.16510828 -0.21769387 -0.4642124 -0.24203192 0.069389164 -0.31505445 0.05065426 0.3529604 0.51316464 -0.3440946 0.5018553 -0.54573584 0.78620267 0.1717411 0.21972775 0.3601592 0.34729847 0.24163254 -0.73669285 0.22865482 -0.21115285 -0.39353347 0.5688957 -0.09278948 0.26545757 0.15354459 -0.06664464 -0.17628027 0.4471097 0.4414114 0.33363605 0.051762808 0.70962334 0.066920824 0.10967836 0.4704525 -0.73469913 -0.012967199 -0.18106924 -0.29753792 0.517052 -0.17835732 0.244357 -0.0768991 0.10403251 0.51367354 0.2782964 -0.03334205 -0.0741071 -0.79383457 -0.26834637 -0.15894724 0.6885035 0.16229814 -0.15325339 0.04406549 -0.11779405 -0.32278892 -0.1232402 0.1518679 -0.19930214 0.7825667 0.1891029 0.27774864 -0.10749054 0.19916564 -0.48598346 0.48756889 -0.26861426 0.43724117 -0.2376522 -0.16367707 -0.11768226 -0.13694006 0.10791568 -0.0068800654 1.0033503 -0.01443019 -0.022080071 -0.09017198 -0.57227206 0.512093 -0.053495284 -0.040578388 0.0998293 0.20199646 -0.52360564 0.32175985 0.013901435 1.3696915 0.036672216 0.3975866 -0.2916969 0.21442305 0.57503766 0.1328541 0.14558908 -0.18082029 0.1462092
http://www.co-ode.org/ontologies/pizza/pizza.owl#Siciliana -0.33248648 0.18933526 -0.46597692 -1.04168 -0.1317262 0.095330134 -0.141889 0.42024463 0.35794312 0.55315953 -0.14465669 0.46848324 -0.24673502 0.30045807 0.008887317 0.26162758 0.853301 -0.059728228 0.5899498 0.231777 0.12512372 0.20521855 -0.3328271 0.10537006 0.18814936 0.061750725 0.2337719 0.46823698 -0.8256128 0.4806267 -0.08391979 0.09681471 0.18672557 0.4210547 0.41671056 -0.0013394344 0.9186299 -0.18234695 -0.1671988 -0.14510502 -0.30493712 -0.29473925 0.06246593 0.13812914 -0.0038148786 -0.049180236 0.3040745 0.03657596 -0.11155073 -0.56221855 -0.27315748 -0.3124621 -0.31218007 0.3761511 0.13185014 0.12758005 0.14124358 0.1271324 -0.28770703 0.23488638 0.004517593 -0.014323883 1.151559 0.003679431 0.4550156 -0.10854322 0.5093756 -0.105959855 0.5119718 -0.0617704 -0.11765102 -0.82012194 -0.21269542 -0.14315683 -0.7424865 0.36027956 0.35517326 0.33490917 0.48898008 -0.15040034 -0.36267483 -0.21204299 0.3013991 -0.20141344 0.061934695 -0.3534105 0.06436564 -0.39488867 0.3348787 0.15017486 1.0987514 0.012823648 0.53990275 -0.27392277 -0.05936553 0.45602205 -0.45327523 -0.0031080702 0.5856457 -0.1694676
http://www.co-ode.org/ontologies/pizza/pizza.owl#Capricciosa -0.14901513 -0.1811416 -0.3415469 -0.39940876 -0.1551054 -0.23395607 0.020631239 0.39074755 0.4998442 0.33404347 -0.15569611 -0.15814158 -0.22179188 0.72847086 0.20798539 0.032348663 0.5292382 -0.22332387 0.21422814 -0.1896053 0.0022988967 0.15099391 -0.25559178 0.56650746 0.18102679 0.30675033 0.25317273 0.00277711 -0.46326485 0.661127 0.3754543 -0.07888162 -0.1331914 0.4348907 0.4660422 -0.3345223 0.8612 -0.57640517 -0.20374216 -0.27306482 -0.41689456 0.02595575 0.0820673 0.30993512 0.28793702 0.16198668 0.3396497 0.10268533 0.05991104 -0.10292382 -0.22045025 -0.5200634 -0.33548018 0.26645598 0.4192207 0.027302736 -0.10384155 -0.36360162 -0.50427103 0.02880024 -0.26525182 0.015908662 0.86273617 0.22562578 0.4749175 0.25401562 0.45629668 -0.45872194 0.50055313 0.43031502 0.14467722 -0.41553158 -0.14758155 -0.28125995 -0.68972164 -0.23754205 0.4007409 0.7791046 0.48389134 0.00014043607 0.08487813 -0.048515987 0.2944406 0.013198013 0.053580143 0.22311921 -0.048948377 -0.27560622 0.33892596 -0.3000369 1.0835115 0.0834595 0.96205324 0.122532636 -0.21380635 0.27496094 0.009568494 -0.47851798 -0.24245344 -0.23383358
margherita -0.12436448 0.09867036 -0.002793918 -0.6237161 -0.46725643 -0.4587625 -0.23429441 0.2434318 0.36434412 0.0926419 0.011109518 -0.27994204 -0.16606265 0.2505025 0.10375356 0.37479118 -0.4777346 -0.080342844 -0.039564095 -0.21192226 -0.19249862 -0.34653017 -0.12416189 -0.09557862 0.006926991 -0.11744906 0.2310258 0.007876687 -0.28929067 0.2522025 0.77870506 0.29359105 0.108245626 0.3625638 0.32462755 -0.18552433 0.28234205 -0.10761188 0.07052798 -0.061093844 -0.31798875 0.2653773 -0.35326165 -0.29554656 -0.22135772 0.10160864 -0.31999284 -0.0034934068 -0.15608074 0.45689243 -0.25719434 0.14999366 0.15842463 0.31178564 0.18915239 -0.6295531 -0.18999706 0.33573514 -0.31899655 -0.13850206 -0.2719644 0.5344799 0.87939185 0.16124426 0.31889856 -0.17283833 0.36057577 -0.08468128 0.76201034 -0.20364423 0.5486193 -0.68000084 -0.14625093 -0.020084893 -0.60119987 0.29735863 0.71724206 0.25170815 0.056474037 -0.17153965 -0.3753905 -0.43204814 -0.18496759 -0.047582097 -0.28097847 0.043266475 -0.27848387 -0.2804738 0.09486784 -0.15596019 0.9646258 -0.2998242 0.16440298 -0.007242664 0.14142111 0.43682966 -0.036414433 -0.4104767 -0.19683294 -0.009786993
http://www.co-ode.org/ontologies/pizza/pizza.owl#PolloAdAstra -0.45469436 -0.059691634 -0.30847248 -0.72143435 -0.12771812 0.4762674 -0.24554695 0.3397412 0.27356836 -0.24357988 -0.005917822 -0.070566684 -0.44180933 -0.18725075 0.3362978 0.30932847 0.75783044 -0.35011095 -0.30773354 0.22480941 0.47551033 -0.3438419 0.2973064 0.08627277 -0.18157558 -0.7936287 0.30069703 0.12890308 -0.60290563 1.0780356 0.100681975 -0.14840059 -0.7023821 0.26988786 0.04291318 0.19601364 0.4449425 0.29106727 -0.21922256 0.1871016 -0.4425783 0.104872614 -0.71664655 -0.28647166 -0.029497666 -0.20077698 0.18468483 -0.20575847 0.17439538 0.23805124 -0.12812234 0.6259032 0.25291136 -0.021305587 0.16538522 -0.17294283 0.30117497 0.14156245 -0.020086994 -0.37743753 -0.17996243 0.08141637 0.9529798 0.2169506 0.28180826 -0.28645873 0.378126 -0.026436213 0.3736604 0.1802447 0.1539298 -0.5334883 -0.44056776 -0.009831533 -0.2917664 -0.029797433 0.41690162 -0.19956452 0.26631457 -0.62699187 -0.143106 -0.07329478 -0.6369358 -0.28082752 0.50816727 -0.4698597 0.05347364 -0.26990148 0.26651472 -0.3189824 0.86003053 -0.27720395 0.3872396 0.015906844 0.22570264 0.9404583 0.17128754 -0.62969136 0.05888913 -0.1590333
hamtopping 0.06241594 -0.20768782 0.12800084 -1.0558825 -0.19950734 -0.13932177 -0.28998294 0.47350532 0.022319252 0.16442506 0.00825347 -0.11387583 0.1358981 0.6572551 0.15874764 0.5186569 -0.73224306 -0.22348432 0.6060977 0.0060367426 -0.7205264 -0.061475135 -0.18449754 0.4105459 -0.10535715 0.23233333 0.2827455 -0.24834333 -0.5014866 0.1549474 0.031633794 0.4952289 -0.47111863 0.8460727 0.24961498 -0.047986466 -0.032412678 -0.27226728 -0.33940122 0.45073065 -0.21261905 -0.29296264 0.06206939 -0.27027926 -0.08571291 0.28681433 0.29987705 0.656049 -0.2122366 0.22390625 -0.2687171 0.2808275 -0.042193197 -0.9211666 -0.0774926 -0.035151117 -0.53436196 -0.3233624 -0.18922885 -0.05113618 0.34309834 0.37020916 0.6081538 0.6395752 0.09517974 -0.17523162 0.29267874 0.871847 0.2278512 0.020071656 0.12883526 -0.32688764 0.5130225 0.39347604 -0.4889236 0.6390772 0.12894772 -0.21842484 0.68165 0.15643938 -0.21862566 0.30300573 0.49975282 0.12729445 0.8515714 0.075921915 0.28362322 -0.5682998 0.8182658 0.14690591 0.15398392 0.14867412 0.63617736 0.18192898 0.04558735 0.07382521 0.14023793 -0.62080675 -0.15519203 -0.59184426
parmezantopping 0.21765763 0.23000328 -0.15447497 0.11905925 0.03437481 -0.67031074 -0.22616108 0.44791976 -0.15508623 0.15872082 0.22708358 -0.6260918 -0.31669044 0.29989877 0.04947792 0.6429101 -0.29019716 -0.25422743 0.60742056 0.80170476 -0.043044038 -0.3648411 -0.006208884 0.26941565 0.103825085 0.36790085 0.631074 -0.14074183 -0.3696297 0.29176578 0.20301823 0.41497797 -0.5360503 0.16114466 -0.101834744 -0.057114206 0.1763404 0.059933286 -0.1471582 1.0240589 -0.19570313 0.028430756 -0.33281028 -0.46066314 0.29695833 -0.19497678 -0.13127837 0.60599166 -0.30222777 0.35343346 0.02673585 0.19434607 -0.018499484 -0.25959885 -0.27222496 0.028772298 -0.6556893 0.2131707 -0.42918512 -0.08729832 0.12250252 -0.09711292 1.2381394 0.5099524 -0.38867545 0.086013 -0.60167044 0.40358925 0.31015837 -0.10797001 0.20917213 -0.15182763 0.51189137 -0.14647275 -0.6498999 0.53683317 0.09470099 0.60861146 -0.075605 0.089633234 0.14733762 -0.1079666 0.3347536 -0.1854142 -0.35250318 0.0056564664 0.17288685 -0.61117923 -0.13329026 0.82212466 0.49034858 -0.02484683 0.59320325 -0.16572411 -0.21715574 0.03895419 0.19866551 -0.37317845 0.12978764 -0.2191174
oniontopping -0.5429032 -0.1666732 0.14207307 -0.040690556 -0.046874035 -0.068603754 0.37775046 0.3419053 -0.14980914 -0.12918746 0.034129772 0.16176058 -0.38538533 -0.50113046 0.5222143 0.1886328 -0.63526714 0.37718523 0.06232458 0.15783378 -0.28220195 -0.10314243 0.32517087 -0.00816753 0.3258556 0.687015 0.54161835 0.11313239 -0.038634714 0.5444992 0.83891004 0.04460145 -0.25486735 0.52595735 -0.17264962 0.5784094 -0.025629768 -0.40267634 0.12566632 -0.12497929 0.612641 0.17426075 -0.026912559 -0.32320824 0.1336114 0.37052837 -0.16963692 0.0740225 0.34110737 0.19751595 0.1534851 0.36448327 -0.4307131 0.15568857 0.20350568 -0.6607643 -0.6295366 0.2510164 -0.14784677 -0.54778796 0.047379155 0.24158496 0.7180287 0.5586115 0.22749643 0.23412038 0.28577024 0.50520086 0.043375704 -0.10242581 -0.10742059 0.036711827 -0.30513915 0.052232638 -0.68428516 -0.32509473 -0.29460436 -0.276338 0.6578233 -0.21578132 -0.28829136 -0.11844106 -0.17246978 -0.25949922 -0.16375041 -0.48381948 0.21783629 -0.40405458 0.31168655 0.3590898 0.82643026 0.31554633 0.18788512 -0.02524713 0.47989124 0.19311811 -0.12922446 -0.78845644 0.24080835 -0.7760028
http://www.co-ode.org/ontologies/pizza/pizza.owl#Fiorentina -0.08336643 0.3807936 -0.5512587 -0.9707378 0.04572087 0.13060261 -0.17815588 0.37903973 0.16712561 0.18939474 -0.06371736 0.56111217 -0.2893118 0.33780366 0.19286968 0.26693517 0.55283445 0.4274081 0.36682978 -0.07137344 0.4891712 0.32360306 0.13253672 -0.058686137 -0.045106433 0.4360995 0.029509125 0.23107082 -0.22748154 0.56302714 -0.042274397 0.2408219 -0.65958166 0.10902394 -0.07829571 0.22926816 0.6967517 0.34291056 0.25861153 -0.15259278 -0.5156288 -0.28790528 -0.25997403 -0.6894819 -0.26425797 -0.007923933 -0.09297911 0.30898076 -0.44271633 -0.019047625 -0.015236043 -0.180921 -0.073911466 0.51126873 -0.35719365 -0.21606287 -0.19413373 0.34898603 -0.14684881 -0.20146373 0.04610082 0.2444387 1.0838226 -0.3004121 0.4118139 -0.8977417 0.3325379 -0.034984324 0.5125656 0.023787864 0.12097908 -0.32011172 -0.23229466 -0.17290366 -0.5276792 -0.005326685 0.5975073 0.5465649 0.054660387 -0.22764379 -0.4084224 -0.28129485 0.24052493 -0.2524829 -0.10626489 -0.15743299 0.21879253 -0.562303 -0.106484205 0.17368151 0.69931537 -0.043706547 0.30239582 -0.240408 0.19937676 1.2697201 0.20688325 -0.020152627 0.23983741 -0.038378287
http://www.co-ode.org/ontologies/pizza/pizza.owl#Soho -0.22908594 0.025898222 -0.51347536 -1.003096 0.2644653 -0.033507396 -0.11001547 0.21688959 0.25116527 0.49313742 -0.3811348 0.40990004 -0.09482186 0.14045072 0.21273689 0.3995282 0.4421989 0.3626743 0.35494298 -0.011026484 0.45379502 0.25369048 0.15323527 0.36822838 0.3045319 0.118586294 0.059875518 0.33553192 -0.1420928 0.4203428 -0.014644538 -0.16730407 -0.6437358 -0.08573364 0.053419303 0.2132803 0.7577371 -0.040589865 0.07980345 -0.06873056 -0.6387147 -0.20389606 -0.19615757 -0.86731213 0.028757712 0.32617742 -0.08379306 0.3134214 -0.49896213 0.014046812 0.40447024 -0.045691725 -0.053452365 0.6740878 -0.35965928 0.0782463 -0.068105824 0.7040987 -0.5152335 -0.23733765 0.0024454114 0.12603578 1.0350956 -0.45599607 0.5304385 -0.386332 0.23105179 0.027117208 0.65616244 0.20213366 -0.06785312 -0.6292194 -0.30030173 -0.49470115 -0.3900957 -0.023871958 0.5171028 0.33367056 0.05804156 -0.44663098 -0.45217267 0.14757621 -0.06616212 -0.07741894 -0.024030754 -0.4080915 0.18774022 -0.48557222 -0.077546984 0.07742991 0.80938756 -0.18436621 0.29240048 -0.17646106 0.36254984 0.8155871 0.025611714 -0.10910124 0.21316221 -0.10150332
anchoviestopping 0.08245832 -0.58731467 -0.10629072 -0.91668004 -0.24528065 -0.58336025 -0.011735587 0.05411136 -0.19714439 0.59101796 -0.10493002 0.013903754 0.26176757 0.40725476 0.18443055 0.7124777 -0.33008617 -0.1517434 0.07334869 0.16254708 -0.79637957 -0.3190036 -0.03606923 -0.30179423 -0.54249287 0.67152625 0.057104953 -0.16578843 -0.53037465 0.07907589 0.2213253 0.253022 -0.23418476 0.72746706 -0.11311983 -0.0023425557 0.4881234 -0.40757027 -0.092224166 0.02550543 0.020561535 0.4155498 0.085395776 -0.07283831 0.42076898 0.12016936 0.3337075 0.6772594 -0.01841445 0.42163327 -0.1831036 0.54695606 -0.35063058 -0.054956943 0.16797626 -0.5302477 -0.26447347 -0.36786404 -0.08416744 -0.5472314 0.06040248 0.43049425 1.1713068 0.3871945 -0.13994469 0.110664375 -0.2265939 0.24204423 -0.13927732 -0.27168187 -0.06584597 -0.19733775 -0.2856975 0.21152021 -0.47174865 0.16199544 -0.2688958 -0.5711254 0.77902406 -0.4322493 -0.072925 -0.25912365 0.64636195 0.25819245 0.6644577 0.013479863 0.6265474 -0.2994613 -0.15149416 0.017541762 0.53260434 0.31040356 0.47239572 0.09344818 -0.0074424925 0.027958244 -0.19605893 -0.3154203 -0.05807296 0.09210997
frutti -0.5798867 0.44423926 -0.1713866 -0.5719703 -0.15885104 -0.5723319 -0.25376487 0.15379022 0.8322683 0.118450195 -0.33974037 -0.63368094 -0.0743648 -0.0029209561 -0.013620058 0.19304703 -0.14081559 0.021267006 -0.05277066 0.47732386 -0.6530439 -0.29141873 0.19800232 -0.25535876 -0.12839802 -0.097094595 0.3460373 0.16276279 -0.6999685 0.12862541 -0.038658306 0.4056376 0.18386671 0.56577724 0.77070755 0.12756172 0.44666144 0.22758824 0.0923218 0.09454555 -0.4034753 0.12288702 -0.32289997 -0.451093 -0.02423517 0.012037591 -0.17849207 0.019332178 -0.5295663 0.2632808 -0.25514418 0.17203806 -0.49743232 0.36236507 0.3694503 -0.2898471 0.057971634 0.7468761 -0.28353113 -0.38507044 -0.36982995 -0.1006393 1.6617566 -0.29423702 0.100010216 -0.13754475 0.6453438 0.30819172 0.2591961 -0.05422092 -0.33786637 -0.880838 0.015491901 0.10721859 -0.4434953 0.4287119 0.30879676 0.1320935 0.11273974 0.23000585 -0.2426809 -0.42811593 0.0469622 -0.4659057 0.15601507 -0.7850674 0.4264137 -0.10389827 0.039169576 -0.49463564 0.9288602 0.41884273 -0.38831252 -0.3285894 0.42762318 0.15665704 -0.1575253 -0.52508837 0.25061512 -0.34896976
di -0.34284243 0.80460477 0.16469318 -1.1221683 -0.44873843 -0.54022044 -0.36655164 -0.120089285 0.8672247 0.33823192 -0.016103275 -0.19224152 0.023410315 -0.2734117 0.26767159 0.3922039 -0.15597609 0.19460079 0.087861836 0.14228435 -0.1941375 -0.48079455 -0.1318761 -0.32551134 0.50720656 -0.5479779 0.59732926 0.18844786 -0.7483561 0.4571903 0.16986279 0.07841852 -0.14095698 0.5090294 0.6443915 -0.29722673 0.32630026 0.5257617 0.39660785 0.17562084 0.07131453 0.10428371 -0.30468482 -0.23942524 0.13981573 0.08512718 0.2537735 -0.033942644 -0.11033625 -0.14983265 -0.42052546 0.5124342 -0.27590746 0.23680033 0.00019788253 -0.5738544 -0.24785112 0.68287504 -0.27946237 -0.30719346 0.028278703 0.030678902 1.588436 -0.37739336 0.12836753 -0.5472861 0.43779203 0.08188054 0.46027073 0.08273504 -0.5098475 -0.7394185 -0.072532475 0.10802749 -0.80651903 -0.009779314 0.8977309 -0.01979078 0.5763386 0.42009437 0.03239584 -0.54319304 0.19030136 0.15371731 0.043049183 -0.08435235 0.6387792 -0.5636414 0.16142455 0.109173134 0.3382782 0.046214547 -0.40727392 -0.07140323 0.34086546 0.47988948 0.1258242 -0.09097011 -0.13505723 -0.10639851
mare -0.4520361 -0.02882098 -0.009002313 -0.68098754 -0.49668914 -0.54565144 -0.47654107 0.07717675 0.823646 0.5048274 -0.24208981 -0.14320505 0.44418478 -0.5541741 0.1280123 0.101761684 -0.20760316 0.19883232 0.008812785 0.5059645 -0.30009696 -0.46992847 0.22921212 0.0404968 0.12761855 -0.39858055 0.64383686 0.29061016 -0.63401043 0.1920129 -0.007076662 0.12775691 0.3561639 0.60436845 0.86859053 0.011449362 0.65019286 0.2757937 0.6220093 0.2920057 -0.43035847 0.47996417 -0.52444726 -1.029785 0.12605964 0.41873357 -0.15128322 0.08964213 -0.33860084 0.07094302 -0.36493057 0.925285 -0.30745262 0.08783719 -0.048303768 -0.33914712 0.021684194 0.5164161 -0.2536948 -0.21179843 0.20353772 0.53771204 1.7344297 -0.42559686 0.06589155 -0.6836352 0.8034161 0.19846551 0.41402286 -0.4330007 -0.1705339 -0.45808375 0.059900045 -0.27452803 -0.51168704 0.29018804 0.1848486 0.22992082 0.60343426 0.03648269 -0.3919307 -0.7382476 0.15477313 -0.18595934 0.45058027 -0.2396463 0.104685076 -0.057789113 0.3545233 0.046682365 0.6132138 -0.15731466 -0.3254985 -0.40377328 -0.31652132 0.6067715 -0.057590038 -0.06427876 0.27567577 -0.17320438
http://www.co-ode.org/ontologies/pizza/pizza.owl#Cajun -0.20131882 -0.12755792 0.16948727 -0.04014807 -0.057842903 -0.26762447 0.08346973 0.14203425 0.5208032 0.2136181 0.040837098 -0.41803074 -0.41391107 0.37230894 0.5226161 0.33134997 0.12436292 -0.85019326 -0.022789229 -0.0005233696 0.03984219 -0.2125968 0.23214008 0.9772819 -0.15634151 -0.13351984 0.4146917 0.078918196 -0.8705556 0.90742916 0.7027866 -0.1760291 -0.100588165 0.36674342 0.37695682 -0.19587234 0.0071410146 -0.3862826 -0.29211152 -0.3697304 -0.48628595 0.42271116 -0.35804433 -0.1680918 0.3372997 0.2086895 0.09609771 0.2977792 0.5455532 0.56509227 -0.24541019 0.29744244 -0.029027207 0.17376494 0.91087353 -0.04244568 -0.11318758 -0.3088616 -0.13421774 -0.5075059 -0.44616684 -0.31102103 0.43858856 0.05044391 0.09699901 0.16647771 0.6905162 -0.08271845 0.29448035 0.45835608 -0.024085952 -0.51841885 -0.15339123 -0.52374625 -0.61766803 -0.32289436 0.6614746 0.10215582 0.23404248 -0.2990111 -0.027422387 0.0027085203 -0.40247345 -0.16785222 -0.17390162 -0.035539288 -0.41536295 -0.14932013 0.03383296 -0.6279276 0.8492468 0.055125274 1.00603 0.060253378 -0.16029008 0.323138 0.36140415 -0.5950489 -0.13342412 -0.09722922
http://www.co-ode.org/ontologies/pizza/pizza.owl#Napoletana -0.11030922 0.16469985 -0.07508616 -0.54485416 -0.13938655 -0.3708763 -0.2475097 -0.107139885 0.1712996 0.17709409 -0.5780407 0.7201812 -0.33074316 0.5789121 0.17662899 0.20333889 0.3750219 0.34503242 0.11934994 -0.28247014 0.17261781 -0.087373205 -0.28915027 0.45462465 0.11093491 0.40163562 0.04446943 0.10170406 -0.63337684 0.39655915 0.2710283 0.15773419 -0.40428343 0.3712458 0.3102403 -0.27662295 0.91349953 -0.55746335 -0.023334155 -0.25841963 -0.50496596 0.3951218 0.3312395 0.1269713 0.22934118 0.24235995 0.28178915 0.1041461 -0.26437268 -0.14620884 -0.4364427 -0.37611046 -0.16177738 0.50207496 0.113482535 -0.044523954 -0.23210855 0.2217976 -0.22948617 -0.011435094 0.23851666 0.027932933 0.78891826 -0.35734266 0.41216454 0.07048748 0.29785064 -0.2797405 0.43123895 -0.062227324 0.38638106 -0.31628594 -0.28005508 0.00251175 -0.5735656 -0.03174262 0.08606881 0.8667306 0.10046328 -0.15993378 -0.022891285 -0.63128674 0.21541114 -0.29358903 -0.3935308 -0.13227798 -0.23035394 -0.34317875 0.22230344 -0.16491114 1.1919186 0.03973425 0.62772053 0.042391 -0.07054815 0.62486583 0.2297239 -0.18542705 -0.03336239 -0.101721056
some -1.3032151 -0.112660706 -0.45101452 -0.8178304 -0.55783606 -0.17173108 -0.0026373637 0.7023161 0.14434318 0.29561377 -0.69703954 0.5147877 -0.6040367 -0.048034366 0.12952326 1.0028516 0.019652667 -0.15013684 0.39162108 0.53248394 -0.29960555 0.011833933 0.52754474 0.43439582 0.07764209 -0.0755412 0.7066886 -0.10884368 -0.61023164 0.06622609 0.02273307 -0.582798 -0.40195164 0.29808903 0.10341138 0.040616848 0.42530724 0.067745484 0.0863001 -0.044002917 0.3279091 0.6745412 -0.820196 -0.36845255 -0.4632331 0.26933873 -0.026082763 0.524131 -0.07304466 0.37234876 0.53907186 -0.033105604 -0.5614199 0.3129253 -0.16006148 -0.5022071 -0.12403387 -0.2581017 -0.18932536 0.32474408 -0.41796458 -0.1485978 0.46243894 0.76687026 0.3291214 0.060134593 -0.3188002 0.007285045 0.29156083 0.4665308 0.9955867 -0.11281129 -0.15104574 -0.10832028 -0.011238524 -0.0357972 -0.010481694 0.23656276 0.33596256 0.9809359 -0.25962758 0.39657977 -0.01408528 0.43168852 0.022545122 0.42085475 0.1654029 0.10202011 -0.31999317 -0.31334215 0.36840704 0.3102185 -0.15834394 -0.2264571 0.32716018 0.47244188 0.26118103 -0.40943804 -0.0759336 -0.18832229
http://www.co-ode.org/ontologies/pizza/pizza.owl#LaReine 0.080786034 0.19791767 -0.368326 -0.6205045 -0.32720345 -0.048453707 -0.35291725 0.4401077 0.82368964 0.24798715 0.14138058 0.06376734 -0.249285 1.0521517 0.23382287 -0.17037918 0.65327996 0.24783245 0.39381796 -0.31878847 -0.095422775 0.23730674 -0.2544417 0.20080207 -0.026076026 -0.03681711 0.42769915 -0.1551197 -0.4356072 0.4640227 0.609257 0.000691626 0.16554421 0.67028296 0.18861791 -0.15219375 0.60211104 -0.16516712 -0.100954354 -0.42666632 -0.24431518 -0.09044045 -0.48364684 -0.22021766 -0.082838 0.03130096 -0.032897636 0.32112673 0.016273875 0.037764084 -0.36001727 -0.6840581 -0.24275161 0.5422921 0.05341637 -0.16440584 0.19608659 0.39082962 -0.47851923 0.2810803 -0.070230976 -0.1272576 0.5656994 0.15711612 0.6576757 -0.32538366 0.6535074 -0.63930196 0.83487517 -0.043717176 0.26037204 -0.5175177 0.091257654 -0.11424391 -0.4772975 0.08082252 0.4905551 0.3292164 0.31448507 -0.04907775 -0.2868024 0.14141911 -0.031108994 0.04599199 -0.068259105 0.06736931 -0.041960504 -0.35537496 0.21682094 0.14148203 0.87489605 0.035151947 0.4290437 -0.50917834 0.16281168 0.57537 -0.18809637 0.09951218 0.09894306 -0.119639136
http://www.co-ode.org/ontologies/pizza/pizza.owl#PrinceCarlo -0.08523737 -0.35148448 -0.49492484 -0.9139266 -0.13749331 -0.41152275 -0.1722584 0.38265452 0.69264597 0.14323774 -0.09709155 -0.46665433 -0.35704964 0.2571522 0.04519177 0.20786497 -0.035771415 0.30363205 -0.28560913 -0.25646105 -0.524244 -0.13973475 -0.27547228 0.15127759 0.27357608 0.15590364 0.104879946 -0.134321 -0.44226742 0.70427555 0.249252 -0.36094004 -0.675403 -0.26641238 -0.13583562 0.3709914 0.064217106 0.3460832 0.16586003 -0.07711991 -0.6805053 0.10556099 -0.066334814 -1.1806946 0.33758903 0.0074176146 -0.10305866 0.06148583 -0.6385795 0.7502996 -0.13990737 0.22687247 0.23652779 0.4463897 0.12965168 0.040676072 -0.11159497 0.3374397 -0.45384845 -0.37511462 -0.22548915 0.41448277 0.34622663 -0.025058165 0.58388436 -0.5230799 0.7838408 -0.31115925 0.44454578 0.19804567 0.13087328 -0.41008052 -0.15747902 -0.21344726 -0.28417608 -0.07343278 0.3716754 0.21664518 -0.04700716 -0.047531456 -0.021565316 0.013989306 -0.14067248 -0.33552444 -0.44075397 0.25345227 -0.35797626 -0.39895323 -0.112850316 0.078401275 0.43442667 -0.2700381 0.42223555 -0.066835865 0.16979143 0.953809 -0.15680256 -0.4963116 -0.46443263 -0.18994406
peperonata -0.06851966 0.05151061 0.6693397 -0.3668004 -0.16673695 0.34142295 0.30628797 0.6952435 0.07302494 0.2991954 -0.26939845 -0.37540314 0.3673558 0.002584207 0.59695476 0.5148188 -0.43644306 -0.25180283 0.34567642 -0.14191967 -0.16100553 -0.4037977 0.49313244 -0.21576409 -0.13501437 0.61687595 0.57540905 -0.48243064 -0.01805606 0.18709326 0.7005584 0.20005006 -0.635276 0.5447195 -0.02270667 -0.013349806 0.15443361 -0.38854662 0.41715154 -0.046919156 0.32426584 -0.2900497 -0.060365804 -0.10769841 0.28205523 0.20241128 -0.13424882 0.4002685 -0.0873468 0.623432 -0.39914042 0.37619984 -0.55972034 0.30090505 0.35896972 -0.7169158 -0.5218949 -0.5825947 -0.51494503 -0.011880808 0.24128093 0.46004304 0.5243266 0.4556303 0.3125159 -0.08796182 -0.05887848 0.57003397 0.054333076 -0.23938538 -0.1441504 -0.2665442 -0.072008036 -0.37053302 -0.84188694 0.14716804 -0.41650906 -0.040027216 0.8483342 0.03283749 0.3928522 0.23122577 0.32691118 0.27366307 0.062454335 -0.1747562 0.37763208 -0.0031617293 0.103297465 0.3046742 0.38510987 -0.04124624 0.19890578 0.052464314 0.13367355 0.39164463 0.17238104 -0.6068185 0.50894195 -0.068371736
