750 100
of -0.046892587 0.26718515 0.17508657 -0.30681142 0.33812097 -0.37809345 0.080485046 0.4106476 -0.46984687 0.4803885 -0.12167145 -0.209862 0.2841316 0.14424129 -0.30461195 0.7424411 0.5392125 0.006639415 0.6466228 -0.08508479 0.13500018 0.23279844 0.74755687 -0.25136855 -0.4328983 -0.045140594 -0.24318057 0.27547705 0.214073 0.083715476 0.12811974 -0.2606046 0.07667654 0.3339423 0.30083102 -0.34380445 -0.019915191 -0.0895097 -0.12959334 -0.1281662 0.0023627463 -0.016132552 0.07516671 -0.24577555 0.14983235 0.38639924 -0.5291123 -0.0042058993 -0.43213296 0.07894922 -0.37474763 0.18737592 0.4814745 0.18292476 -0.15838349 -0.060476605 0.23758456 0.06601679 -0.038258493 0.016843181 -0.13692884 -0.28223512 0.23020346 -0.086353935 0.25460666 0.10735061 0.45976156 0.0069925026 -0.2958519 0.2924818 0.35343936 -0.4730334 0.14076786 0.28251326 -0.54195565 0.08343829 -0.05523537 -0.16471632 -0.41396582 0.07577528 -0.4096726 0.43242392 0.008629362 0.36808124 0.19268073 0.20349249 0.22554749 -0.31445923 -0.12978709 0.44414 -0.03046602 0.16845961 0.184501 0.37060297 -0.32024688 0.012013373 -0.116639666 0.06967189 -0.39115694 0.09183644
topping -0.27340138 0.21649136 -0.0891824 0.118490145 0.31510416 -0.13059977 -0.051107932 0.18159015 -0.28522968 0.39705563 -0.113641925 -0.33407548 0.34590027 -0.12610888 0.13966613 0.2373435 0.38433093 -0.37286475 0.5781992 -0.48284698 0.24512614 0.2732579 0.24669139 -0.12107504 -0.47363645 0.06880429 -0.55801636 0.68096316 0.44974506 0.18984787 0.673008 -0.5154894 0.29651478 0.413511 0.45000833 0.11175935 0.4478555 -0.31573865 0.14515553 -0.021065958 0.029441455 -0.100965776 -0.054922674 -0.23203346 -0.21221603 0.44317353 -0.1878613 -0.12122501 -0.2445022 -0.18408208 -0.2945319 0.20454952 0.00773698 -0.04520502 0.005747012 -0.3380063 -0.049610697 0.22220969 0.3262499 -0.2772121 -0.22482109 -0.50552243 0.26747715 -0.21032587 -0.04025749 0.21474688 0.012963833 -0.2215421 -0.66142946 0.5384797 0.26161292 -0.25420037 0.38018456 0.05261374 -0.52764 -0.28345874 0.16860469 -0.39567515 0.19639489 -0.09556113 -0.4191344 -0.047171265 0.039470106 0.33277878 0.34023285 -0.09090654 0.12988847 -0.18618082 0.13039406 0.27549428 -0.41566813 0.2336978 -0.11067513 0.13728027 -0.15327811 -0.02771084 0.072793536 0.44820789 0.1001336 -0.17438991
subclassof -0.059886184 -0.013285461 0.03389216 -0.20159209 -0.16645157 -0.12513214 0.5927996 0.033481352 -0.3167807 0.23583154 0.021652227 -0.041819 0.16268209 0.0153021235 0.05015118 0.666077 0.5587328 -0.2101098 0.80410856 -0.3971946 -0.05735636 0.90069395 0.5437089 -0.16889201 -0.47240388 0.14289834 -0.3711959 0.80258346 0.39827737 -0.054687835 0.25803313 0.21776523 -0.00065344386 0.15069497 0.19020018 -0.31225866 0.21975277 -0.031059103 -0.42114842 0.14757928 -0.32080722 0.28031352 -0.056258768 -0.11798176 0.17006585 0.71029264 -0.437954 0.015025312 -0.16549443 -0.17237377 -0.14850412 0.07186401 0.50511503 -0.13159835 0.30635217 -0.31953397 0.09316552 0.21831661 0.12588686 0.028601505 -0.16143624 -0.46861652 0.07911013 -0.22003129 0.18006155 0.2781259 0.11666875 -0.30337515 0.07702798 0.15692854 0.41428676 -0.4724481 0.45690143 0.18969753 -0.29870605 -0.33129635 -0.29240727 0.17455846 0.04452437 0.102563 -0.6808293 0.4613591 -0.317209 0.7515171 0.12575597 -0.033732135 -0.095290825 0.24125122 -0.105264336 0.46737882 -0.31694987 0.016305935 0.12234818 0.21544524 -0.250326 -0.37501836 -0.30607122 -0.12619375 -0.40567544 -0.03681075
class -0.27571702 0.21800718 0.19546439 -0.17987046 0.025234086 -0.037893165 0.26601914 0.48505527 -0.20856641 0.4938969 0.34861812 -0.201437 0.1733399 0.16084594 -0.27696785 0.51035506 0.5387233 -0.5948711 0.66828704 -0.4577411 -0.043718934 0.2863314 0.40964913 0.07364784 -0.21908295 0.044096153 -0.18745592 0.48231453 0.5975985 0.027697971 0.21769172 0.5170766 0.11925279 0.25518548 0.388975 -0.109224856 0.39741445 0.14952356 -0.015557469 0.111699395 0.0025941527 0.110177524 0.008735664 -0.46941778 -0.031454824 0.18209434 -0.27625385 0.29368633 -0.042226672 -0.10890604 0.22836742 0.14615397 0.48579684 -0.3152892 -0.13486312 -0.12248942 0.2300352 -0.29930726 -0.2904647 -0.026807122 -0.31967023 -0.6795076 0.04571454 -0.5282859 0.5163247 0.18832117 0.24983782 -0.115449406 0.08903872 0.35708374 0.3331412 -0.8070754 0.10139836 0.09225962 -0.62955123 -0.299464 -0.18080693 0.008809582 0.13470618 0.042690746 -0.47621104 0.10960598 -0.04835057 0.5318341 0.2290044 0.22880204 -0.096244805 -0.09470584 -0.2642793 0.09442026 -0.40614617 -0.07043928 0.22902976 0.32958245 -0.6300944 -0.08779631 -0.3651675 0.15960528 -0.065559834 0.082711786
super 0.13886055 0.042380396 0.2506864 -0.25203747 0.3845814 -0.11147798 0.44965497 0.14737599 -0.33658674 0.10283418 0.25048634 0.20993927 0.59907484 0.28966823 -0.062250502 0.3391908 0.41487563 -0.11505229 0.7784334 -0.42499265 0.25789797 0.36659396 0.57108843 -0.18832594 -0.3194024 0.31388327 0.029432686 0.4046454 0.4031311 -0.16597308 0.08483001 0.11650155 0.16761924 0.13366197 0.5716624 -0.23956224 0.19693033 0.19919619 0.26160252 -0.07871494 0.19840133 0.43921688 0.1166097 -0.47472462 -0.031577725 0.35312158 -0.21341656 0.010500508 -0.110458106 -0.058202133 0.05582974 0.1817641 0.34138444 -0.057040483 0.20763263 -0.2192782 0.2627243 0.101156026 -0.21454455 0.045615356 -0.23076685 -0.23617318 0.4203656 -0.24032019 0.12021551 0.3472149 0.2849448 0.12580386 -0.23703054 0.45270374 0.5940106 -0.7082563 0.47252813 0.32372046 -0.5405372 -0.5365202 -0.08465876 0.14617981 -0.1266833 -0.13296485 -0.62280357 0.3733163 -0.1928583 0.63155043 0.24123158 -0.35671315 -0.31802073 -0.088868186 0.15793477 0.21819313 -0.31331608 -0.34230846 -9.8452016e-05 0.2424569 -0.45446566 0.033198178 0.18494102 -0.17928626 -0.36757648 -0.22192134
http://www.semanticweb.org/owl2vec#superClassOf -0.3007818 0.2940307 0.18644974 -0.42904237 0.39563063 0.038539812 0.557512 0.13901727 -0.4608186 0.5174264 0.43979633 0.2133231 0.3838611 0.13655789 -0.020333853 0.5037727 0.75431156 -0.079702556 0.3743249 -0.21200939 0.4119319 0.0034426197 0.69908726 -0.24047025 0.054762553 -0.037159584 -0.083228394 0.29876617 0.45244247 -0.30688304 0.1397756 0.12188334 0.111643665 0.04462863 0.15635791 0.14397766 -0.15795569 0.15704331 -0.111083515 -0.052369967 0.17336825 0.058369383 0.20200647 -0.6509293 -0.04491233 0.5506832 -0.07854352 0.010329474 -0.007782817 -0.12314669 -0.15267637 0.15796125 0.20305252 -0.1706028 -0.24657957 -0.032663215 0.16719167 -0.122367226 -0.50938433 -0.4891278 -0.29819423 -0.36913124 0.13338771 -0.47137588 0.44037077 0.26979065 -0.014108848 0.11244331 -0.12898031 0.5708081 0.37761435 -0.7684513 -0.14267325 0.09036845 -0.22454473 -0.13507044 -0.30316293 0.19731517 -0.011896512 0.011993885 -0.69219506 0.123335734 0.10446535 0.26166886 -0.276225 0.19845206 -0.24182951 -0.46461505 0.16107744 0.12175183 -0.32313424 -0.12428687 0.51929104 0.3941772 -0.4234467 0.23316935 0.007351972 -0.4231994 -0.18928403 0.114295356
http://www.w3.org/2000/01/rdf-schema#subClassOf -0.24080461 0.22369893 -0.16562086 -0.33557653 -0.12474381 0.014451508 0.8428093 -0.017154101 -0.22484925 0.27927163 0.14667864 0.14001186 0.51583725 0.11528827 0.1683076 0.6279326 0.6882887 -0.021123894 0.46407613 -0.30210343 0.37778416 0.6843387 0.60792154 0.1305777 -0.01674544 0.1777387 -0.26866248 0.6572183 0.44526374 -0.48601428 0.09545628 0.109616004 0.08256608 0.045940872 -0.34301868 -0.026503155 0.23908883 0.19890472 -0.7125915 0.22615138 -0.037359 0.13081734 0.3549121 -0.36945337 0.34375185 0.6686303 -0.2015879 0.020702247 0.017161505 -0.11649924 -0.28540215 -0.102816455 0.34463498 -0.4042343 0.20199636 -0.18082942 -0.19634266 0.18220772 -0.15430522 -0.17689168 -0.1273001 -0.3993435 -0.1272703 -0.3872577 0.052352194 0.22384694 0.087150894 -0.2646194 0.19914839 0.11937179 0.4835524 -0.61016023 0.021559058 0.19941363 0.1783797 -0.06006498 -0.43089175 0.45675883 0.19957416 0.0866508 -0.8368099 0.17915569 0.20922886 0.5009497 0.04242123 0.19532862 0.083080746 0.04946387 0.21847263 0.40605864 -0.115078166 -0.034360785 0.25375524 0.42812237 -0.38408586 -0.10041285 -0.14337288 -0.50995845 -0.3642149 -0.056291718
pizza -0.108403295 0.009914999 0.2803484 -0.4171023 0.19906296 0.009096283 0.02001345 0.5164443 -0.06537322 0.45376146 0.327525 0.45796818 0.41698295 0.078537576 -0.041115224 0.37387648 0.8076168 -0.39532617 0.7752884 -0.32236212 -0.18219648 0.194904 0.3934427 0.118627325 -0.12118792 0.33853573 -0.43991697 0.496904 0.19160347 0.0643619 0.3829465 -0.015440359 0.1090335 0.42228153 0.46965703 -0.13606648 0.37769523 0.396743 -0.14875871 0.39545035 0.2656619 -0.3088018 -0.13166244 -0.23944536 -0.28733915 0.274774 -0.29822013 -0.27186486 -0.22683625 -0.28687206 -0.0740522 -0.08084139 0.23863213 -0.021026812 0.20646141 -0.015992248 0.39667085 -0.0061049354 -0.19060758 0.38115898 0.15869914 -0.34164935 -0.15445197 0.08940442 0.16863707 0.50453347 0.26634407 0.0141369635 0.080924116 0.19261687 0.33931345 -0.20081235 0.14161827 -0.102588676 -0.37238666 -0.23205881 0.2827245 0.002071671 -0.38833275 0.17541648 -0.4857883 0.8183026 -0.27716932 0.3713771 0.5893803 0.0069067115 -0.20880444 -0.17178822 -0.3390761 0.2791565 0.48442098 -0.097741164 -0.6287628 0.44033533 0.074460454 0.03604386 -0.24239402 0.87255573 -0.23847072 -0.18621308
has 0.27290335 0.34405956 -0.25438753 0.06853738 0.28503272 -0.20747085 0.41052404 -0.15646245 -0.44749716 0.7797987 -0.29259852 -0.39363915 0.07234419 0.3230947 0.30742124 0.35062456 0.119879626 -0.4487655 0.7124351 0.2308005 0.15290867 0.20539364 0.1900871 -0.45243138 -0.23376057 0.1356001 -0.41150004 0.5996157 0.34248036 -0.18135421 0.19329628 -0.23113233 0.1970669 0.33123294 0.6151846 -0.09319068 -0.3191142 -0.17869134 -0.080419764 0.13983935 -0.40325764 0.15996125 -0.26438677 -0.388142 -0.43703842 0.79610485 -0.53733706 -0.25501966 -0.42031866 0.18731652 0.21810684 0.03144204 0.4276662 0.016588395 0.107354864 -0.015491482 -0.17706294 0.1335859 0.14013155 -0.40439776 0.048066784 -0.7855204 0.026544452 -0.21332484 0.19840102 -0.023720887 -0.112461574 -0.06048805 -0.16171683 0.6889225 0.47592 -0.31117555 0.34165365 -0.06822876 -0.3415052 -0.28201535 -0.10849816 -0.009537513 0.0073815 0.036447037 -0.47958532 0.19932552 -0.18919028 0.47756535 0.117829874 -0.11654059 0.1526514 -0.41617906 0.0929689 0.33782613 -0.34586203 0.2462372 -0.36862373 -0.16887373 -0.53692824 -0.30781022 -0.11441198 0.4501667 -0.0876692 -0.31580016
pizzatopping -0.24645299 0.30155104 -0.09269907 0.0926552 -0.1601027 -0.0020029494 0.16582085 0.2113745 -0.016805291 0.47935173 -0.053628642 -0.19507462 0.16035806 -0.117210254 0.005699611 0.93517923 0.697427 -0.2319964 0.59342325 -0.33510286 0.37316304 0.63251877 0.6818965 -0.18528974 -0.3954923 -0.12230064 -0.08972239 0.5351336 -0.054885775 0.38045785 0.03567277 0.05646869 0.28100473 0.06062658 0.32762048 0.5382263 0.46792987 0.27769873 0.33388174 -0.44714844 -0.060893547 0.1702589 -0.029919636 -0.6016066 0.03750319 0.5366945 0.20675382 0.2598821 -0.3597641 0.2911301 0.1304251 0.29874375 0.5344663 0.08695424 0.21237138 0.3087401 -0.073519394 0.099118456 -0.43044314 -0.0076222317 -0.3553922 -0.39249858 0.4654511 0.15612493 0.144077 0.18541192 0.6229653 0.09783534 0.09982297 0.19465971 0.38361785 -0.08624903 0.23115356 0.34347674 -0.70216656 -0.56011575 -0.21246211 -0.100765854 -0.16161 -0.03353978 -0.5341769 -0.13285893 -0.016283436 0.71530783 0.34698752 0.110754095 0.023819957 0.39452907 0.40433425 0.17824951 -0.11368234 0.25355563 -0.043647964 -0.0056553166 -0.07660329 -0.5058345 0.18994974 0.17875873 -0.013606317 -0.41096416
is -0.27964562 0.2213293 -0.2075681 -0.37276965 0.35196477 -0.2477421 0.03733764 0.17366858 -0.4064686 0.15062389 0.32199398 -0.041534718 0.3926376 0.5175939 0.07128235 0.4755943 0.1583467 -0.7277029 0.68595386 0.049272574 0.39383432 0.19814958 0.3261839 0.3598945 -0.73548144 -0.21641168 -0.24236083 0.38976064 0.24352899 0.55384135 0.47443402 -0.29518026 0.7124165 0.37294328 0.44825214 0.011644609 0.16470876 0.1680303 0.31691056 0.27357325 -0.36623403 0.05021655 -0.17620595 -0.47070017 -0.018695638 0.34451917 -0.081072524 -0.050294254 0.20817469 -0.27197984 0.0029469407 -0.058095623 0.21330436 -0.281503 0.2063996 -0.09680223 0.20906568 0.2627014 -0.061940774 -0.08477567 -0.15603521 -0.28686512 0.0132771935 -0.15548216 0.16239233 -0.32349113 0.43488234 0.026004596 -0.26717165 0.44552642 0.3527861 -0.29431224 0.09053053 0.07793487 -0.14416239 -0.49932107 0.3215311 -0.11381661 0.15832649 0.46972227 -0.5245936 0.36076534 0.09777256 0.54993075 0.49205753 -0.33101216 0.17361 0.06439499 0.097488575 0.18490823 -0.12337485 -0.13812831 -0.11182406 0.41895574 -0.25275403 0.109162755 -0.23294857 0.44186473 0.3139361 -0.44334242
http://www.co-ode.org/ontologies/pizza/pizza.owl#PizzaTopping -0.5871904 0.49663496 -0.070694536 -0.036846116 -0.23462416 0.26112297 0.17416468 0.07488105 -0.03980001 0.55125517 0.008076105 0.15403268 0.19270806 -0.28956693 0.15332106 1.0292279 0.9116416 -0.07545973 0.029103957 -0.28643033 0.5856548 0.6265858 0.71817356 0.10071206 -0.018995924 -0.28217366 -0.16650522 0.29385304 -0.009760063 0.062931456 0.07612339 -0.33040464 0.18724261 -0.2104539 0.13198353 0.93473405 0.3110307 0.35341537 0.032152183 -0.31590807 0.03013565 -0.051756337 0.33046648 -0.6699326 -0.0638388 0.6294152 0.28226358 -0.122175746 -0.17429763 0.08556366 -0.12807395 0.22030781 0.42395607 -0.12077306 0.13753931 0.47340137 -0.34716263 0.18443643 -0.60881776 -0.20106828 -0.19197251 -0.46012208 0.2082473 -0.045722697 0.14479752 0.08264714 0.28381217 0.1910302 0.09022525 0.2072002 0.24695879 -0.24440448 -0.009357744 0.24910186 -0.027341291 -0.35630006 -0.6400802 0.1078314 -0.10459493 0.034393635 -0.8408723 -0.31237108 0.09437204 0.5389972 0.11835377 0.23432031 0.043758232 0.24878569 0.6841178 -0.18388987 0.022002248 0.40849346 0.036914114 0.29407114 0.15601236 -0.1597843 0.32683176 -0.21371855 0.07596377 -0.4747486
http://www.co-ode.org/ontologies/pizza/pizza.owl#hasTopping -0.28092825 0.3964268 -0.37814748 -0.15379617 0.37387082 0.13560794 0.619383 -0.17637043 0.0012021069 0.869578 -0.07471721 -0.3145039 0.42073175 -0.08571821 0.49814516 0.44860435 0.47444776 -0.2886704 0.3403411 0.16242936 0.06543733 0.23599498 0.30419424 -0.19382533 0.009207728 0.1442378 -0.4127341 0.99215835 0.33723482 -0.27449903 0.5682271 -0.42554662 -0.021052685 0.14978603 0.1600912 0.32678214 -0.062439233 -0.22226803 -0.33731243 0.08843577 -0.03336119 -0.07681906 0.07141969 -0.4956964 -0.36564103 0.9154469 -0.21127775 -0.27856734 -0.19295812 0.09727316 -0.04622899 -0.07981866 0.04858484 -0.04171044 -0.09117476 0.19301918 -0.5473062 0.257763 0.004725154 -1.0287133 -0.019337302 -0.80189645 -0.24935433 -0.32355252 0.06705666 0.11320066 -0.26623613 -0.054519065 -0.09628918 0.4798586 0.43113208 -0.16607092 0.16974247 -0.24268033 -0.04013052 0.023355963 -0.2219856 0.06982576 0.3072144 -0.008357309 -0.6890496 -0.06914071 0.4244932 0.12655045 -0.12365564 -0.1548105 0.13190427 -0.3541134 0.27222842 0.12377028 -0.08258862 0.06329813 -0.124429196 0.05437043 -0.20671746 -0.041678425 0.18737379 0.15190226 -0.1540888 -0.37547716
http://www.co-ode.org/ontologies/pizza/pizza.owl#isToppingOf -0.592836 0.32668862 -0.26881447 -0.45387647 0.39154562 -0.13178785 0.044079997 0.17776258 -0.5662865 0.65943384 0.17424895 0.32108277 0.625237 0.25320107 0.10316224 0.6589729 0.6586676 -0.41406247 0.038408644 0.08269556 0.58155596 0.10344586 0.6586817 0.48035127 -0.29625848 -0.5203255 -0.16893838 0.6344342 0.35362563 0.15774857 0.4887948 -0.59579974 0.55643874 0.019672686 -0.055037793 0.47433102 0.14643776 -0.034917615 -0.00568313 0.007680944 -0.0067062574 -0.19088466 0.19103608 -0.39151454 0.24052212 0.47515452 -0.03608099 -0.05759906 0.11297714 -0.16100529 -0.38981792 0.12055126 -0.19374625 -0.18330625 -0.34032458 -0.09453569 0.08426575 0.2799532 -0.17105806 -0.17924981 -0.2970655 -0.48758283 0.044119865 -0.100758776 0.034788825 -0.061762433 0.1631282 -0.043396197 -0.26909804 0.4124331 0.16074406 -0.100697786 0.03187851 -0.00059600093 -0.1764243 -0.07002249 0.089352876 -0.21841101 0.108260594 0.4253376 -0.7041077 0.16467787 0.5654748 -0.09440705 0.095296256 -0.041986797 0.25129554 -0.018193776 -0.20466565 0.26978436 0.29054192 -0.02224927 0.23997395 0.5928034 0.06904011 0.3184789 0.104022704 0.027730316 0.22634436 -0.026466796
tomato 0.50394315 0.27080142 0.084074356 0.165152 0.37042207 0.07586158 0.01114802 -0.07603675 -0.15104447 0.16285188 -0.024070632 -0.45242333 0.4747271 0.5959494 -0.21439992 0.39428762 0.12563066 -0.21711574 0.98574865 -0.3532656 0.19991848 0.47470826 -0.07618965 -0.035325576 -0.4683439 0.42991817 -0.78701186 0.9959564 0.40843517 0.4200588 0.5751615 -0.47085023 0.22792774 0.19725975 0.39460707 0.15581933 0.1507972 -0.07932845 -0.01384626 -0.2942951 -0.27118683 0.28174037 0.07503501 -0.26994312 0.027779132 0.4977978 -0.5931955 -0.0032220054 -0.18350388 -0.3768171 -0.13143468 0.41231737 -0.13082531 0.014662126 -0.15766062 0.18574819 -0.053053986 -0.08546324 0.104444936 -0.2259843 -0.25802347 -0.8447426 0.40887815 -0.03928031 0.35499236 -0.2180124 -0.2614518 0.06906644 -0.20533004 0.5396183 -0.3883403 -0.6489443 0.34389898 -0.10451928 -0.46249497 -0.45003176 -0.08848045 -0.23540062 -0.039068215 -0.55700356 -0.6510079 0.30011228 0.083769195 0.039676204 0.55561936 -0.42241365 0.42518422 0.023951387 -0.08980994 0.19468653 0.24066481 0.33893424 -0.082892336 0.43700457 0.33499 -0.012753438 0.35837182 0.6545756 0.101822935 -0.09194273
http://www.co-ode.org/ontologies/pizza/pizza.owl#Pizza -0.42370397 -0.004712333 -0.137081 -0.76497483 0.1719671 0.11313232 0.11445518 0.32294613 -0.023651445 0.43732908 0.29076388 0.7220311 0.7360521 0.038926985 0.28061906 0.28642797 0.9667219 -0.21493763 0.61235213 -0.35446408 0.1823234 0.13815045 0.39071625 0.3645809 0.40921965 0.2327835 -0.71252984 0.22261854 0.2510487 -0.46016395 0.21045975 0.02921242 -0.09820317 0.26845396 0.03162402 0.06931269 0.09443585 0.692719 -0.34022278 0.35408014 0.3775436 -0.259417 -0.09743383 -0.4288994 0.097927675 0.39350763 -0.19732173 -0.27438277 -0.26390982 -0.2782196 -0.6342718 0.18054093 -0.3288359 -0.50235397 0.23505725 0.1387624 0.11300314 0.051357593 -0.33462176 -0.2345635 0.18565474 -0.6580399 -0.45513463 -0.056858018 0.25804353 0.20693636 0.12005066 -0.056115426 -0.08579446 0.18746857 0.45924646 -0.22619088 -0.10836563 0.056681983 0.10925816 -0.10440564 0.2882422 0.08711237 -0.11613126 0.32320964 -0.70654714 0.53258336 0.04679847 0.22071777 0.29748896 0.24229485 -0.334087 -0.1843997 -0.011042487 0.22323816 0.44749764 -0.13191508 -0.33230755 0.527542 0.3092321 0.48596287 -0.25525773 0.47940448 0.023905067 -0.06090116
mozzarella 0.06959854 0.26239508 -0.11573029 -0.08125538 -0.023357432 -0.07712368 -0.2132762 0.037617326 -0.24570748 0.56614405 -0.31315947 -0.45805383 0.38857818 0.3731526 0.04078997 0.16748588 0.07247933 -0.6988074 0.6424334 -0.08998745 0.25418326 0.10322465 -0.026486523 -0.2755109 -0.20109992 0.23231424 -0.97943664 0.49680144 0.022474859 -0.041632414 0.5114238 -0.72078305 -0.045962337 0.11438524 1.0490373 -0.19630642 -0.052384697 -0.4056912 -0.07118772 0.24479505 -0.09078255 0.17815778 0.18210322 -0.58696854 0.28902155 0.19827533 -0.76093024 -0.098033324 -0.2884952 -0.43797266 0.17794476 -0.00091148174 -0.27058142 -0.044445124 -0.08371163 -0.082680576 -0.032155376 -0.13401067 0.14586829 -0.42032307 -0.13013622 -0.59077835 0.47823972 0.17277092 -0.25082564 0.08054826 -0.29982522 -0.3878526 -0.24813114 0.50363034 0.26575306 -0.18976882 0.15352803 0.16284427 -0.60157263 -0.6289841 0.15313011 -0.03719163 0.29516825 -0.0587324 -0.591531 0.35052717 -0.11574023 0.10677923 0.6888487 -0.13284451 -0.027299477 -0.17138107 -0.16053413 0.25379378 0.34474355 0.058040943 0.21231128 0.4645086 0.060376603 -0.048613 -0.025403172 0.5023653 0.062106133 -0.114208296
named 0.1122929 -0.44703865 -0.299299 -0.5473952 0.008617542 0.06380998 0.26437533 0.5767013 -0.020497818 0.41929606 0.088933416 0.40131122 0.3576094 0.36400515 0.22301908 0.765545 0.06333488 -0.36606935 0.7927421 -0.2057239 0.029818358 0.112933464 0.06981486 -0.09020187 -0.422036 0.4820424 -0.18333942 0.81165504 0.1887196 0.33043602 0.28569058 -0.17269932 -0.16390754 0.40672868 0.10819733 -0.012042296 0.60295624 -0.14529572 -0.11541883 -0.20078364 0.32426825 -0.4504116 0.37103206 -0.64144194 -0.13006239 0.44487035 -0.024773555 -0.17417617 -0.44841453 0.06897012 0.10084036 -0.028161254 -0.24571066 0.30719173 -0.13364671 -0.20828393 -0.024146194 0.07212379 -0.08804186 0.08754959 -0.48885876 -0.51934034 -0.12738931 0.0013768284 0.27263176 -0.02472344 0.23689795 0.18973574 -0.23888922 0.011148095 -0.19275956 -0.35690007 0.2922794 0.065875374 -0.9949547 -0.34457862 0.5294864 -0.34132984 -0.27355507 -0.025513252 -0.6583747 0.16147892 -0.071029894 0.25951183 0.64345145 0.0037945055 0.3978529 0.07891229 -0.12383093 0.080197014 0.3575744 -0.10869823 -0.6020747 0.7097083 -0.1967236 -0.2761636 -0.29634476 0.69615453 0.0067916564 -0.19522326
http://www.co-ode.org/ontologies/pizza/pizza.owl#TomatoTopping 0.38592502 0.16227567 -0.086587474 -0.22529697 0.32214537 0.62310106 0.087161414 -0.25419855 -0.29102874 0.066760786 -0.10285451 0.0015934858 0.43013492 0.5879763 0.0831395 0.4217336 0.3457967 -0.19085562 0.5997747 -0.24932174 0.16130613 0.3177601 -0.21264388 0.062974565 0.06717935 0.034704328 -0.78033817 0.7503576 0.41057488 -0.062679835 0.6467147 -0.74291325 0.2270369 -0.13387208 0.13783441 0.4090026 0.050521087 0.06404549 -0.6111282 -0.095165744 0.17101769 0.084339656 0.38078153 -0.5437997 0.018157272 0.48660636 -0.44255602 -0.18550561 0.084955916 -0.4038708 -0.28567287 0.3235079 -0.22121604 -0.34550455 -0.13852532 0.3243047 -0.1428882 0.06339799 0.0007792027 -0.36678743 0.017316498 -0.9510828 0.20213391 -0.22388716 0.33978432 -0.24570832 -0.5717132 0.047491428 -0.19388527 0.70195675 -0.6069615 -0.52104163 0.18797706 -0.18951935 -0.042586856 -0.41331223 -0.19301395 -0.042731028 0.106343135 -0.47555923 -0.77923626 0.08146851 0.40849307 -0.2448465 0.17331684 -0.32223654 0.4157182 -0.2005817 0.18394417 0.08319913 0.09919643 0.22145016 -0.005929677 0.7022156 0.5534006 0.26702863 0.5889524 0.51295733 0.13965653 -0.24391179
hot -0.32039243 0.5194749 0.39583954 -0.27558053 0.106032446 -0.022187974 0.25133982 -0.17145467 0.13200665 0.19380821 -0.4463636 -0.40341583 -0.32156214 0.18854205 -0.13919163 0.5141617 -0.12754521 0.044427726 0.53119254 -0.33298105 0.37953117 -0.16894016 0.636058 -0.4980528 -0.11537908 0.21458681 -0.7021843 0.53461546 -0.1190062 0.054425165 -0.06566103 0.07330469 -0.09950426 -0.1750326 0.10278791 -0.45090848 0.052828573 0.04470144 0.20756629 0.093972 -0.019076962 -0.04059489 -0.18696694 -0.406263 0.21455698 0.27944416 -0.5894729 -0.37166387 -0.08539476 0.15711322 0.36027914 -0.086367235 0.24467254 -0.0787213 -0.26836976 -0.39574626 -0.533938 0.15318024 0.24696057 0.15993713 -0.0670285 -0.5302243 0.10953395 -0.028003162 0.116530724 0.38399604 0.39617118 0.0010804893 -0.40070862 0.19505878 -0.07230369 -0.6831192 0.12078885 0.16465577 -0.24190833 -0.76701933 0.12592003 -0.088287525 -0.08390944 -0.210776 -0.73958725 0.14219566 -0.51250976 0.9472079 0.04847085 0.48323315 0.13794386 -0.2853432 -0.16737638 0.46036687 0.20422883 0.1774131 0.053618748 0.77422184 -0.22772206 0.11452317 0.1858916 0.65165734 -0.30430597 -0.53252554
http://www.co-ode.org/ontologies/pizza/pizza.owl#MozzarellaTopping 0.08402282 0.32524762 -0.1532844 -0.30078718 0.035324045 -0.038955417 0.0047163717 -0.008926496 -0.1273025 0.6653702 -0.19415349 -0.06509328 0.6029879 0.43517357 0.24828215 0.19696684 0.34755158 -0.58398426 -0.028605897 0.4545697 0.17666915 -0.3308445 0.008134161 -0.12263961 0.09143794 0.22993731 -0.9424791 0.55206984 0.051096544 -0.079777755 0.54192996 -0.9284271 0.13159497 0.0427537 0.76552135 0.10370101 -0.21399032 -0.4061543 -0.5475348 0.22984025 -0.10264284 0.14994015 0.38920176 -0.6952776 0.22932293 0.6134285 -0.4442989 -0.20818791 -0.17863888 -0.28090695 -0.15730606 -0.09140498 -0.38495752 -0.2925661 -0.016303282 0.15837857 -0.33093923 -0.18109871 -0.19819456 -0.58359855 -0.031154426 -0.7491978 0.30452123 0.25010458 -0.1917836 0.18819875 -0.5111314 -0.32732397 -0.32298914 0.5502869 -0.27337605 -0.13558896 -0.15789674 -0.14181109 -0.227034 -0.28489763 0.01552678 0.1179691 0.11550097 -0.13716562 -0.6270833 0.25790536 0.28127745 -0.2223977 0.3582287 -0.025714062 0.065092064 -0.28605103 0.18887486 0.005424971 0.56021845 -0.11656039 0.37212333 0.6885441 0.12008687 0.03681116 0.05059885 0.030072944 0.16773319 -0.0049863476
http://www.co-ode.org/ontologies/pizza/pizza.owl#NamedPizza -0.12832355 -0.115778774 -0.41779038 -0.60499215 0.052034523 0.48954543 0.3341247 0.2156534 -0.13618706 0.69329023 0.41176865 0.5304723 0.3737698 0.36835226 0.23988473 0.5603314 0.5133539 -0.062967084 0.16494548 -0.056119077 0.2815634 -0.10384515 0.20815888 0.19849978 -0.18365937 0.1387715 -0.39954516 0.8110272 0.10579788 0.05096695 0.33967406 -0.371262 0.03636878 0.26179478 -0.08402034 0.4456884 0.28813687 0.19520882 -0.3032024 -0.065299995 0.5351654 -0.36101148 0.59169376 -0.5652765 -0.18958083 0.66441166 -0.003909404 -0.32391852 -0.36996692 -0.12274019 -0.29212263 0.031168446 -0.47024617 0.029410966 -0.23458749 0.096537255 -0.27196258 0.1981057 -0.3026799 -0.02792852 -0.42573094 -0.6528139 -0.24630919 0.014363926 0.04643196 0.25697905 0.17294213 0.19347633 0.18764217 0.15973412 -0.3448531 -0.23460287 -0.08514291 -0.0075660837 -0.51344377 -0.21326362 0.32450658 0.023382222 -0.10607884 -0.22619209 -0.893468 0.056308426 0.17286748 -0.21907581 0.5630614 0.033606168 0.38411564 -0.15938585 -0.06815229 0.085898 0.61244327 -0.14120318 -0.42815763 0.7505498 -0.019501839 0.123423174 -0.08639093 0.6442736 0.19038379 -0.21401292
american -0.32921782 0.095497675 0.15293682 -0.07476318 0.32435566 -0.34067714 0.025890553 -0.26098862 -0.5588653 -0.28569105 -0.009889272 -0.19762841 0.050909042 0.046035986 -0.2946838 0.40262583 0.25445655 -0.16154402 0.17811799 -0.527236 -0.044106185 -0.39544094 0.4695163 -0.15577237 -0.37976953 0.4117477 -0.7904889 0.24516791 0.16730621 -0.20557442 0.501479 -0.32017916 -0.31663668 0.27774507 0.47388786 -0.103152014 -0.26541182 -0.3017883 -0.07451646 -0.10803086 -0.5743202 -0.46310928 -0.0013436618 0.013049036 -0.13168478 0.44917187 -0.121491544 -0.19656414 0.07003115 -0.20767316 0.59059733 0.061297726 -0.04713726 0.6057189 -0.13469706 -0.13557902 -0.42021766 0.012390778 0.17897026 -0.02937506 0.045745432 -0.7276579 0.18750256 -0.30755973 0.12808245 0.11119755 0.7222784 0.50359416 -0.08464633 0.6403436 -0.06965199 -0.006511812 -0.18592921 -0.002919326 -0.84910256 -0.7246515 0.23848328 0.1352548 -0.27954814 -0.08899817 -0.62246364 0.6441021 0.04811587 0.91788536 0.37949973 0.49343252 0.07292413 -0.44672444 -0.4682062 0.6191198 0.4149235 -0.103410296 -0.73937106 1.0799801 -0.3319681 -0.17628744 0.16959104 0.69831496 0.02771223 -0.23753859
label 0.22653878 0.07068821 0.03921832 -0.40075734 0.693461 -0.69116056 -0.70032626 0.03961801 -0.7765774 0.41697478 -0.49974856 -0.735759 0.08462106 0.24559495 0.10656628 0.12848857 0.0856166 -0.20550692 0.057882342 -0.54416203 0.2592537 0.5646311 0.105691 0.04860126 -0.16569638 0.09344839 7.888784e-05 -0.03553639 0.48083112 -0.017095461 0.49228057 0.4962612 -0.10948804 -0.29277486 0.26149538 -0.29553527 0.47576877 0.028395442 -0.11173864 -0.48782864 -0.13462125 -0.35209024 -0.19213529 0.11171411 -0.30346897 0.46451768 -0.4321738 -0.13586338 -0.0054447083 -0.5504881 0.22711694 0.31947687 0.46655825 -0.96629477 0.5650263 0.4148121 -0.52962744 0.2278006 0.07745824 -0.038689144 -0.2379778 -0.46931994 0.75219816 -0.6108189 -0.18885268 0.10074 -0.030394424 0.16336903 -0.5636613 0.18101649 0.4950671 -0.21370968 0.12004404 0.7259379 -0.7965272 0.7799086 -0.36133376 0.16567051 0.023469275 0.18374114 -0.45531785 0.37893265 -0.37220895 -0.066100985 -0.12098386 -0.7191124 0.35542896 -0.07704565 0.18624574 0.49011588 -0.17599438 -0.08285464 -0.13505654 0.4082928 -0.20872843 0.011194294 -0.33064848 0.38396004 0.37162578 0.23354426
preflabel 0.108425595 -0.4023586 -0.22931345 -0.55020994 0.53201985 -0.6121795 0.24917282 -0.21055332 -0.5549329 0.50029457 -0.2451104 -0.7427 0.1972283 0.40150794 -0.6763378 0.41482958 0.10226629 -0.54419786 -0.42789942 -0.20979601 0.7064825 0.3308333 0.21251594 0.12956846 0.3361754 -0.60419875 -0.5070578 0.12756309 0.17994554 0.105454385 0.33976158 -0.07072385 0.33620766 -0.3053981 0.2602523 -0.5335597 0.3552128 0.69344443 -0.5386101 -0.08946081 -0.26847422 -0.51512086 0.20358028 -0.34693742 0.15162404 -0.14199899 0.42496702 0.32718894 -0.023977377 0.031244189 -0.1365969 -0.01286524 0.74274814 -0.44414538 -0.49539253 0.09718926 0.018525604 0.49931613 -0.07355228 0.0024975464 0.03959952 -0.7409008 0.73823357 -0.42675197 -0.53005284 0.19480741 0.6385466 0.19314176 0.1596942 0.40260687 0.354418 -0.4465434 0.72917604 0.46376762 -0.61168194 -0.19747365 0.83847845 0.06554114 -0.39595473 -0.23128141 0.052954696 0.3102802 -0.60043555 -0.27441335 0.29438925 -0.4360927 0.25607133 0.36781588 0.07999479 0.383813 -0.39185995 0.1907018 0.28780705 -0.1684627 -0.6149817 0.084355704 0.21752718 0.68296593 0.05691718 0.08012391
vegetable -0.26649323 -0.25602645 0.046479676 0.5084849 -0.06147612 -0.43831438 -0.18797839 0.32645816 -0.31457233 0.953103 -0.63553977 -0.23500317 0.34367535 -0.064442396 0.2723976 0.8416366 -0.08026801 -0.23872364 0.58954316 -0.4090511 0.62094307 0.7936474 0.18526985 -0.5470664 -0.13883173 0.046722304 -0.1311848 0.35727873 0.2594676 0.2119592 0.31995377 -0.74587816 -0.2598591 0.25183374 0.42593077 0.005642996 0.1813006 0.5725656 0.2792064 -0.3428013 -0.06057746 0.0062396377 -0.36666137 -0.59236705 0.09112994 0.45196134 -0.1944753 0.37830773 -0.34192023 -0.09802703 -0.069709636 -0.22209726 -0.13273217 -0.62827826 0.50958574 0.14260317 0.2698847 0.5758688 -0.13625535 0.32227656 -0.18512781 -0.43112072 0.23981665 0.15360536 0.27580103 0.19042262 0.11030756 -0.555573 -0.13444978 -0.0824106 -0.029747402 -0.75008416 -0.14202487 0.022628963 -0.4614206 -0.27412942 0.32332784 0.006351833 -0.02897005 -0.26959783 -0.37498567 0.5214863 0.070992276 0.4893841 0.62577003 0.2977883 -0.24626839 0.17048018 0.43402597 0.04563634 -0.1247161 0.23956904 -0.633288 0.017064294 -0.34846303 0.38718423 0.2240744 0.67393637 0.6612337 0.1380123
mushroom -0.23291174 0.036516458 0.06696588 0.10369743 0.30255485 -0.009630731 0.043547027 -0.070589915 -0.23145711 0.32118058 -0.22978432 -0.23646995 0.4756052 0.08715827 -0.057600692 0.47220618 0.009307185 -0.3509861 0.49709985 -0.26310307 -0.016311977 0.2666003 0.10605707 0.04657637 -0.6321218 0.004793442 -0.41194957 0.22365305 0.33283904 0.3089689 0.40165895 -0.013828802 -0.17798351 -0.13819125 0.32421362 -0.46194753 0.10423355 0.026095664 -0.25814715 -0.24004975 -0.07689726 -0.077447034 -0.18520315 -0.44634932 0.015316346 0.24107961 -0.40385905 0.27390653 -0.19448924 -0.1086992 -0.064296566 -0.07371287 0.08864313 -0.007447124 -0.20290881 -0.055422492 0.11973614 0.1451496 0.44673806 0.028683707 0.12699467 -0.4503091 0.109695755 -0.51110137 0.3326557 0.55682075 -0.14203043 -0.042253055 -0.26955193 0.10731085 -0.085983165 -0.38245583 0.21440569 0.0443202 -0.46222875 -0.29591906 0.2096979 0.08710362 -0.031122299 -0.26983422 -0.6225724 0.30102104 -0.055875693 0.612024 0.75151837 0.18139187 -0.6791469 0.08803483 -0.031063916 0.064230725 -0.11848594 0.21107553 -0.6123995 0.428081 0.013808607 0.005829316 0.013734247 0.0003623559 -0.030368567 -0.0125394035
vegetarian 0.13332573 0.2938465 0.6457766 -0.7242362 0.20949483 0.07075697 -0.09524552 0.20965075 -0.2180921 -0.07058543 -0.18955179 -0.26963866 0.16897248 -0.22865906 0.0090128835 0.40680492 0.20866874 -0.16188979 0.85309535 0.1700054 -0.15928441 0.34089822 0.45157337 -0.035791613 -0.13072707 0.2450805 0.0939712 0.02336049 0.28873745 -0.30371666 0.64616627 -0.3400429 -0.19680282 -0.087387405 0.52459586 -0.34253177 0.59570277 -0.12704194 -0.28235137 0.15206896 -0.2604736 -0.44360596 -0.20892023 -0.49900395 0.6235473 0.32180446 0.120882936 0.30046293 0.019323802 -0.28863537 0.067131445 -0.5133803 0.47700915 -0.41878015 0.06533529 0.1472995 0.0053247004 -0.009597613 -0.25513232 0.2945078 0.15063934 -0.46411717 0.25827616 0.4507315 0.16586028 -0.15472676 0.24968988 -0.034130905 -0.21691093 0.2277753 0.33726844 -0.62236226 -0.024535075 -0.041587424 -0.90798897 -0.27647042 0.48901513 -0.31504145 0.5519304 -0.26876658 -0.41914177 0.40951 -0.11328915 0.5147072 0.5762307 0.4711862 0.058873076 0.53408253 0.32941708 0.03734403 0.008861957 0.06730742 -0.37682715 0.13833588 0.36965248 -0.07085433 0.31504226 0.04770837 0.027871123 0.12772323
spiciness -0.18671681 0.01762374 0.109454736 0.026723882 0.26079643 0.048304044 0.22288796 0.2821569 -0.19437003 0.522974 -0.6545656 -0.28569737 -0.27785748 0.13274096 -0.6107279 0.16751789 -0.13437916 -0.4573355 1.0450433 -0.07601674 0.6731109 0.677543 -0.03880551 -0.83916277 -0.6521896 -0.12295277 -0.50006264 0.9219336 0.43824336 0.09081156 -0.081483155 -0.29718992 0.17065705 0.17659566 0.28447908 0.19478586 0.16390449 -0.06963819 0.009619066 -0.7521316 0.50652814 0.4023586 -0.05566598 -0.33485267 0.18935941 0.5525079 -0.008841651 -0.2324418 -0.19974726 0.05441189 0.34259492 0.10287227 0.19654638 -0.28164402 0.0820768 -0.290534 -0.1748007 0.41412598 -0.39750966 0.20853466 -0.21314166 -0.64144623 0.047712002 0.07222654 -0.13059856 0.5395889 0.28520998 0.06641744 0.24212793 0.21076004 -0.49442396 0.08562995 0.3055135 -0.038425628 -0.58375275 -0.43316478 -0.26815185 0.32005736 -0.18400657 0.13425174 -0.89388716 -0.23943438 -0.32271385 0.54488415 0.36410204 -0.06824904 -0.004935782 -0.032131866 -0.07639964 0.68103516 -0.19618599 0.13493155 -0.08408642 0.9898632 -0.07837332 -0.62074935 -0.059617054 0.48025548 0.1593796 0.18128687
olivetopping -0.11442515 0.021866705 -0.26676556 0.3830367 0.07461297 -0.56568915 -0.14179187 0.49585727 -0.12393647 0.26669213 0.095712066 -0.27956766 0.35522106 -0.07494017 -0.51552266 0.75928456 -0.013008433 -0.5059293 0.3624229 0.07553657 0.5461305 0.055693515 0.1805983 -0.33163503 -0.27752212 0.2675683 -0.55090123 0.34616745 0.27452976 0.51216656 0.5097132 -0.48326668 0.2722581 -0.31486318 0.78516895 -0.16575971 0.457869 -0.25457996 -0.31700498 -0.36321095 -0.46140772 0.72590196 0.134362 -0.39799744 0.04530255 0.16175921 -0.4964212 0.059397306 -0.4042537 -0.0018204784 0.15573287 -0.19612984 -0.09357732 -0.07598135 -0.4668026 -0.13564907 -0.2677948 0.09288675 -0.046807516 -0.5481122 -0.14239013 -0.43371207 0.06717585 -0.045555472 0.20063181 0.45421094 -0.48407498 -0.24287301 -0.056035466 0.2373474 0.021225413 -0.6768074 -0.11555894 0.20095068 -0.6472529 -0.18046942 -0.361761 -0.15785143 -0.31926215 -0.21370408 -0.40464148 0.43362325 0.21957299 0.38372022 0.6410058 -0.031755354 -0.47036338 0.34108365 0.15742253 0.4935971 -0.40087393 0.27493295 -0.55967396 0.18134202 -0.035199992 0.44172966 0.43953747 0.43540415 0.09351948 -0.4735909
cheese 0.06846671 0.061224304 -0.20313346 0.055964507 0.058234192 0.07642136 -0.38509202 0.3551741 0.68310815 0.4023759 -0.7281556 -0.04317254 -0.0995595 -0.4274574 0.41000706 0.21101756 0.44673693 -0.5518559 0.56420594 -0.0847481 -0.34608835 0.68496966 0.37399697 -0.6465015 -0.24793516 -0.4180629 -0.20068674 0.22316553 0.37697953 -0.21341336 0.39652127 -0.0718209 0.09930526 0.005401747 0.5270787 -0.1046535 -0.12137316 -0.54506004 0.10749801 -0.3726045 -0.03733172 0.049938373 -0.046475314 -0.13806029 0.59281784 0.047570013 -0.16686212 0.39344427 -0.20494671 0.08085492 0.1987377 -0.08422985 0.07356402 -0.101924025 0.009446742 0.28301364 -0.44351977 -0.116394356 -0.18214677 0.09000677 -0.34144655 -0.32689902 0.14893006 -0.24243946 -0.023128945 0.539583 0.11100332 0.27037638 -0.35857397 0.5393426 0.35117728 -0.6283402 0.3837379 0.5170853 -0.18307538 0.033516627 0.29305634 0.080937155 -0.27016118 0.26060712 -0.6182945 0.40301707 -0.10727894 0.5803225 0.9803108 -0.019348815 -0.17951502 -0.2073674 0.6176117 0.30671465 -0.006823834 0.2822598 0.15468495 0.26955897 0.10423694 -0.1460988 0.21842863 0.6706304 0.31717017 -0.39410466
giardiniera -0.2033957 -0.1231371 -0.034165226 -0.08241956 0.01138824 -0.17407417 -0.6737271 -0.3576436 -0.6441214 0.08101423 -0.26733938 0.054317545 0.85735774 0.26913399 -0.27956262 0.2786194 0.254735 0.14951172 0.1955547 -0.41166604 -0.03635687 -0.004531645 0.1877506 0.22715479 -0.5456545 0.30312634 -0.6385833 0.5500736 0.35775152 0.2937279 0.5223919 -0.33418757 0.2043262 0.36948726 0.08172139 -0.7918705 0.3232593 0.17293105 0.18699123 0.049282 0.35295495 0.22576931 -0.024915583 -0.18025409 -0.5959814 0.61053765 -0.08311491 0.12609887 -0.909686 0.04498847 0.0723845 -0.03858363 0.08009284 -0.2574925 0.18557297 0.061247207 0.25961253 -0.0608375 0.23734704 0.07414029 0.25454777 -0.89012396 0.14012104 0.021764271 1.092723 0.40905574 -0.2576111 0.17509608 0.036527198 0.3752793 -0.19375633 -0.3064373 0.29137897 -0.021496985 -0.20129088 0.010305567 -0.06433397 0.25419787 0.08758132 -0.037289713 -0.8050211 0.34466147 0.17358525 0.37288818 0.83275425 0.26180217 -0.06983958 0.11754785 0.09389444 -0.053210307 -0.117777385 0.7929654 -0.65456146 0.688092 -0.5089039 -0.26176122 0.30881378 0.64076847 -0.5367765 -0.1126922
http://www.w3.org/2004/02/skos/core#prefLabel 0.2268132 -0.5287018 -0.059635937 -0.6138083 0.6758326 -0.42641845 0.80178404 -0.47349882 -0.21214908 0.42249438 -0.24544251 -0.10731346 0.62841827 0.1722264 -0.0864006 0.44287565 0.21457961 -0.58183485 -0.45837066 0.15336742 0.68183273 0.1099109 0.037042305 0.13639961 0.5566021 -0.75760996 -0.4605427 0.08427196 0.08083564 -0.28526407 0.5382232 -0.1255591 0.6256621 -0.67074186 0.119588144 -0.17453943 -0.03407777 1.0034411 -0.598303 -0.07005034 0.00968466 -0.87953883 0.447425 -0.32174456 0.06605355 0.21453361 0.5179938 0.1661507 0.5326587 0.37652114 -0.18762298 -0.1260675 0.1846467 -0.78440446 -0.5209588 0.20781724 0.070449494 0.8530947 -0.114636466 -0.37472668 0.047302984 -0.6759346 0.59114724 -0.68630487 -0.23077428 0.053627726 0.33454952 0.27617568 -0.00048722976 0.38963917 0.17886057 -0.43747693 0.61714625 0.40779343 -0.09666322 -0.03927856 0.54458535 0.29275647 -0.20990445 -0.20425536 -0.11320224 -0.13776088 -0.33935833 -0.50888556 -0.0012915552 -0.20759924 0.26551354 0.34947053 0.54783034 0.14716096 -0.18813165 0.23007035 0.22858943 -0.18577458 -0.35475188 0.14704649 0.5821929 0.23883264 0.24642862 0.3869269
veneziana 0.08116379 0.37686613 -0.034824617 -0.57698303 0.059259575 -0.35382763 -0.111680314 -0.20088775 -0.4450418 0.53489214 0.08725337 -0.2552644 0.12224457 0.44632497 0.07409576 0.108163476 0.2185942 -0.5278426 0.6680881 0.3038343 0.15043946 -0.057490747 0.48655623 0.06775867 -0.26299742 0.11030092 -0.20417595 0.8278072 0.9323761 0.14062442 0.16901517 -0.43323877 -0.46106428 -0.1556165 0.659048 -0.3310208 0.5125182 -0.3643453 0.23542488 -0.363669 0.2868236 0.040984806 0.23889522 0.007186015 -0.34180933 0.5771324 0.028250122 0.2660533 -0.69285977 0.0733483 -0.34564927 0.024813384 0.61785126 -0.14628294 0.44012305 -0.62615055 0.16385783 -0.08023948 0.5850045 0.027931508 0.57284737 -0.6927329 0.24498399 0.22416756 0.20641848 0.16003598 0.023370435 0.13839783 0.20154494 0.77574354 -0.5324113 -0.33823815 -0.11355825 0.057791628 -0.4068339 -0.032048896 0.079233944 -0.20775342 -0.41513672 -0.6277797 -0.2115357 0.13359158 0.33937508 0.77294546 0.6503473 0.2666595 -0.27048618 0.120288216 -0.13628289 -0.04019306 0.44223514 -0.3333248 -0.55696905 0.05371846 -0.22699778 0.70836836 -0.3245439 0.41179353 -0.09711046 -0.38089103
http://www.w3.org/2000/01/rdf-schema#label 0.16389622 -0.29624212 -0.1215466 -0.8318716 0.43185496 -0.31163546 -0.4862975 0.32772204 -0.4723926 0.29393563 0.10847494 -0.40449235 0.37516472 0.1494878 0.34760883 0.36333093 0.032668263 -0.42992502 -0.19501354 -0.30733073 0.66822565 0.1198144 0.23644283 0.45364654 -0.0151887555 0.026421435 0.119848885 -0.025061155 0.60043323 -0.3372411 0.93479246 0.23003681 0.35221776 -0.8636223 0.17766067 -0.09031909 -0.042434923 0.52621734 -0.47768393 -0.4086848 0.19959185 -0.4347252 0.25121802 0.38617396 0.025635146 0.3196237 -0.05591544 -0.04263848 0.08820854 -0.44586587 0.0104447 0.18896791 0.21765567 -1.1062176 0.4013997 0.6073668 -0.80388707 -0.05758392 0.08503149 -0.14221112 0.088735424 -0.20583157 0.5843657 -0.8358479 -0.18859173 0.1363261 -0.19086926 0.13627261 -0.5036471 -0.07080149 0.076313846 -0.17891455 0.059865598 0.6345837 -0.36716548 1.005464 -0.6341651 0.35871682 -0.3559222 0.1920242 -1.0025706 -0.099864885 -0.25443116 -0.25885347 -0.6243827 -0.48558775 0.20877688 -0.13880351 0.7198975 0.1895932 0.30350226 -0.18696582 0.04062539 0.30465335 0.09839881 0.2412343 -0.22424361 0.024048284 0.6698494 0.23918587
siciliana -0.09436899 -0.25981835 -0.09956573 0.017642895 0.02941915 0.19943303 -0.014318304 0.28780904 -0.25966966 0.46551964 0.20409311 0.22271855 0.56975317 0.2761333 0.25771967 0.20667325 -0.05909675 -0.47213614 0.8934877 -0.047864694 -0.14692992 0.21188878 0.31384063 -0.03878604 -0.80791974 -0.27186856 -0.6744332 0.38053253 -0.18998985 -0.2111706 0.13947389 -0.23693635 0.069867246 -0.07151854 0.53361946 -0.13025081 0.96019024 0.15517838 0.14482965 0.1263398 0.13263011 -0.6992423 0.17106329 0.36795583 -0.71867555 0.4104188 -0.5745321 0.14048462 -0.522931 0.4615578 -0.056966078 -0.309111 -0.041712534 -0.4054719 -0.15376669 -0.12997627 0.384215 0.27358925 0.1693679 -0.43147966 0.67396235 -0.3513136 0.6070938 -0.07887766 0.27759135 -0.035904504 -0.30001932 -0.34480795 -0.07628085 0.8834513 0.36788008 -0.5153962 -0.2897305 0.063883714 -0.655451 -0.3691873 -0.006840812 -0.31419685 -0.56659025 0.022632655 -0.2527297 0.30094132 -0.015308931 0.7083677 0.6310248 -0.02349258 -0.24368681 0.1759358 -0.108072944 0.3603736 0.30812252 0.3019766 -0.13543375 0.6565715 -0.11343133 -0.015898319 0.03607256 0.22960918 0.25519937 -0.51274204
capricciosa 0.14977312 0.02057598 -0.41151053 -0.27063105 -0.14081731 0.022986284 -0.23793764 -0.08992281 -0.4457862 0.26014745 0.49198127 -0.15698777 0.36146224 0.2575257 -0.08709198 0.46518493 -0.025245542 0.011409897 0.8324075 -0.2847386 -0.1377328 -0.032281052 0.3213337 0.20587946 -0.26005194 0.07406808 -0.59831333 0.57606846 0.39872903 -0.012048077 0.51911116 -0.13828225 -0.09911705 0.125953 0.030244572 -0.5715085 0.8042354 -0.042541143 0.1630711 -0.049788747 0.055425152 0.18740526 0.2251593 -0.0644047 -0.56306684 0.048409425 0.07838673 0.24428566 -0.82460266 0.020723937 -0.042684186 -0.35756075 0.34523737 -0.39393803 0.079241045 -0.09429002 0.15023798 -0.012218106 0.19389619 -0.2427475 0.42776853 -0.57302755 -0.2165033 0.038157374 0.3784285 0.2614702 -0.06221375 0.06598134 -0.28905335 1.1693629 0.33261397 0.18880175 -0.020637317 0.07802316 -0.68151355 -0.22369738 -0.058008812 -0.3432922 -0.43499622 0.009114373 -0.6422298 0.25445813 -0.04013534 0.5745899 0.66250825 0.033419836 -0.015543708 -0.00059455395 -0.032271758 0.33530775 0.53497064 0.507661 -0.39605567 0.6611539 -0.25713003 0.21842033 0.21267834 0.41896302 0.0014861403 -0.22857563
fourseasons -0.1569855 -0.36658755 0.010323673 -0.13188307 -0.16385032 -0.09557551 -0.3298253 -0.06770008 -0.41451785 0.19850354 0.1506679 -0.36676276 0.41926616 0.32320213 0.010533414 0.21371764 0.12734723 -0.55305815 1.0188808 -0.036715087 -0.46513504 0.051235475 0.2077775 0.24288844 -0.24746619 0.044437382 -0.59612256 0.091319874 0.49070162 0.26906785 0.4167404 -0.347596 -0.6381634 -0.1869972 0.36102894 0.15379263 0.20357732 0.022520622 -0.17289664 -0.018376505 -0.21236953 -0.4828034 0.046172123 -0.2786737 -0.47085798 0.5582461 0.12847738 0.17514001 -0.6103211 -0.0390483 -0.06806023 -0.07741215 0.23813987 0.23589888 -0.06407062 -0.0019130855 -0.003421328 0.20092373 0.81889087 -0.39887786 0.6215131 -0.61454326 -0.15527442 -0.34587175 -0.048779827 0.40823835 0.24768987 0.09864389 -0.21683873 0.7777173 -0.18237342 -0.0908717 0.015898464 0.03977933 -0.8156107 -0.54021734 0.15057376 0.35995716 -0.3686725 0.28065678 -0.45622978 0.5932234 0.2044561 0.52127874 0.7497177 0.11091362 -0.15083337 0.1301968 -0.21235558 0.027068764 0.32730082 0.2849402 -0.26843026 0.6198444 -0.60292935 0.1686494 0.61632276 0.34143287 0.03103894 -0.55276793
pepper 0.47570306 -0.15755415 0.12051219 0.6059117 0.38378534 -0.4453665 0.014271126 -0.3937659 -0.24379635 0.17088129 0.074155815 -0.3655432 -0.40032125 -0.020157099 0.5111592 0.8032148 0.39438996 -0.21008746 0.7709527 0.06396789 0.2394029 0.3310723 0.6527803 -0.26903382 -0.21747056 -0.3134449 -0.35913023 0.40140697 -0.40500814 -0.27447194 1.0659126 -0.52260214 0.44515714 -0.1439245 0.15517586 -0.41754296 0.78651625 0.36056554 0.070900306 -0.891284 -0.10131927 0.03821043 -0.46026206 -0.56960005 0.2471842 0.31088242 -0.527711 0.18436089 -0.07910495 -0.19363323 0.15198153 0.14892152 0.35020384 -0.2028928 0.24011391 0.284924 -0.48166582 -0.24559541 -0.6457145 0.055001363 -0.67024124 -0.59299576 0.00919583 -0.035204466 0.21735156 0.4694082 0.43503356 0.30254486 -0.3712206 0.08677003 -0.108842306 -0.12589192 0.115171134 0.21042334 -0.46705553 -0.7641764 0.5870769 -0.3247017 0.3131109 -0.42755148 -0.5513451 -0.2139656 -0.02565319 0.5115017 0.6648051 0.4031745 0.24302909 -0.4766762 -0.13111901 0.40425372 -0.13917159 0.21240003 -0.3689823 0.74740887 0.41275305 -0.51570505 0.31250906 0.19681875 -0.15006238 -0.31450504
http://www.co-ode.org/ontologies/pizza/pizza.owl#VegetableTopping -0.49391916 -0.5527983 -0.25595555 0.48235965 0.042312186 -0.20624623 0.06637493 0.4685006 -0.09252649 1.0545225 -0.22669663 -0.022400778 0.5665782 -0.12620892 0.35625908 0.5002259 0.26775485 0.0044530933 0.23618656 -0.61521024 0.63946354 0.58072776 0.3417337 -0.4588836 -0.023317901 -0.011983354 -0.344708 0.7815936 0.10841433 0.044306375 0.37791586 -0.6634689 -0.091901615 -0.0876419 -0.07207119 0.47067377 0.32198554 0.6682601 -0.045672182 -0.28523934 0.35355863 0.0042643724 0.045591135 -0.6001346 -0.09428389 0.5541692 -0.16219616 0.13585916 -0.1646515 -0.1511614 -0.29868168 -0.1643472 -0.4050074 -0.66775686 0.49704015 0.29554093 0.0036111076 0.67806965 -0.24273132 -0.032510933 -0.34936756 -0.6280745 -0.23682526 -0.02618765 0.15625195 0.23149571 0.017234204 -0.42545384 -0.09295527 -0.01625626 -0.3907716 -0.93730855 -0.095084466 0.011135598 0.043852147 0.10910741 0.09199836 0.46454522 0.10452366 -0.43257326 -0.58026016 0.17330833 0.4592216 0.20206234 0.15335211 0.30611002 -0.37753963 -0.0021228225 0.5869703 0.1751672 0.06293434 -0.005044692 -0.422825 0.24563909 -0.25242224 0.37002116 0.4165821 0.17463422 0.7211578 0.3453746
fiorentina 0.23236005 -0.48087567 -0.2917499 -0.03394955 0.2503732 0.15279362 -0.09373901 0.24501467 -0.6574959 0.5418227 -0.59860116 0.6176126 0.30528846 0.24173807 -0.12941046 0.031465735 0.29569042 -0.48306808 0.4192052 0.19893074 0.40675354 0.67497087 0.29526263 -0.055246275 -0.6250608 0.05963928 -0.34694096 0.64610136 0.2044217 0.019693894 0.29397807 -0.3315368 0.02893087 0.40981045 0.526477 -0.17424136 0.65735847 0.13475044 -0.27001664 0.36070386 0.04001598 -0.60123605 -0.263399 -0.045579486 -0.5083621 0.46565628 -0.36926493 0.059931353 -0.48638567 -0.11780863 0.294699 0.14760974 0.077207856 -0.059321545 0.050289165 -0.34359565 -0.18736844 -0.11904995 0.11818329 -0.037388235 0.7827944 -0.08280654 0.49373686 0.36008424 0.21841174 0.4806181 -0.43354866 0.13400716 -0.1520455 0.4409789 -0.029028596 -0.6869483 -0.11574163 -0.70841867 -0.5499133 -0.26111698 0.04923815 -0.42709947 -0.6366266 0.11273819 -0.47677186 -0.0012030886 0.4451138 0.7279432 0.6069977 0.22768806 -0.44601554 0.12265252 0.33760026 0.010173348 -0.022806617 -0.019357447 -0.07720808 0.60532826 -0.052496262 -0.09240629 0.057923008 0.9912678 -0.141714 -0.26911125
soho 0.21495618 -0.53154457 0.026608413 0.33359852 0.06685224 0.25549576 0.20861861 0.20114036 -0.6233259 0.81357104 -0.107007965 0.49725646 0.44786304 -0.12540185 -0.21305057 -0.023237623 0.07044715 -0.5602094 0.48476124 -0.13157025 0.28396705 0.1878843 0.6560442 0.05542394 -0.6119023 -0.26709774 -0.47131178 0.08714566 0.26715186 0.043409683 0.24728267 -0.33300167 0.0941853 0.6753156 0.78082967 -0.2069841 0.7326432 -0.116115496 -0.2063593 0.13556029 0.24326086 -0.43783703 -0.13390796 -0.0015148013 -0.076965995 0.66177934 -0.20817526 -0.22060406 -0.4909944 0.30848268 0.2962299 -0.099834085 0.13655038 -0.061745383 0.18677947 -0.19728102 -0.32630268 -0.2231614 0.41069475 -0.044608667 0.48116773 -0.59866256 0.66393375 0.045039337 0.19305938 0.30150157 -0.1840685 0.235143 0.26697308 0.6464627 -0.25161302 -0.49594566 -0.051025826 -0.52643967 -0.45907024 -0.2845662 0.39565605 -0.3210395 -0.1932188 0.19204074 -0.20692372 0.06381212 0.538441 0.6912923 0.83864176 -0.031117298 -0.087770484 0.089688554 0.39439747 0.3917066 0.30778298 -0.23187949 -0.41470444 0.5957525 -0.32705265 0.042936012 0.07880457 0.7578492 -0.18051091 0.07638225
polloadastra 0.0018730436 0.6743101 -0.2015827 -0.3396191 0.49746493 -0.43717864 0.04275973 0.10664293 0.026291363 0.25918403 -0.7786142 0.20801066 0.42863 0.26696327 -0.15105213 0.35244086 0.66636807 -1.006738 0.44035533 -0.27130482 0.07683033 0.42719105 0.053161703 -0.09428582 -0.36327845 -0.21011367 -0.81343377 0.25107357 -0.35865575 -0.16849147 0.25650656 -0.12201132 -0.18626265 0.24242434 0.89709723 -0.24154882 0.69424015 0.48018035 -0.24682301 0.058513477 -0.040453434 -0.51496977 -0.016182665 0.1427789 -0.2049443 0.5798008 -0.4632378 -0.045480203 0.26631427 0.08258092 0.3674596 0.370503 0.12361823 0.19581862 -0.06809161 -0.11789343 0.1573474 -0.08735593 0.47221017 0.40234613 0.23720331 -0.1564021 0.4588775 -0.18586612 0.009536852 -0.58523184 -0.4579442 0.38226393 -0.053700298 0.3799594 -0.21879286 -0.6178796 -0.20848076 -0.25120875 -0.85499823 -0.2904308 0.22899172 -0.27156797 -0.53739417 0.023556614 -0.5621956 -0.57299745 0.07700648 0.899111 0.2915416 -0.22379847 -0.60332084 -0.091048315 -0.54076546 0.47213078 0.19856754 0.059889685 -0.3625632 0.69123846 0.066422015 -0.22023343 0.42219916 0.015652463 -0.23337883 -0.16237825
cajun 0.05054658 0.6246682 -0.5691064 -0.17531675 0.17297836 0.08190172 0.25307965 -0.7124876 -0.14785017 0.42750877 0.17270435 0.020100225 0.3950798 0.34825584 -0.030616598 0.5727058 0.4602972 -0.86379886 0.65935653 -0.0886829 -0.22110291 -0.21182913 0.38955134 -0.45337656 -0.40072387 0.22189435 -0.5217421 0.66335374 -0.1371772 0.19143666 0.6308375 -0.16527943 -0.17669947 0.21948285 0.31748912 -0.85895586 0.51141506 0.014601336 0.5320027 -0.44164094 0.340186 0.033598367 0.41708332 -0.17684518 -0.02286496 -0.017306468 0.24552849 0.13274883 -0.04986288 -0.25533673 0.016027823 0.3320715 0.23246053 -0.08222399 0.08736873 -0.053963657 0.100180835 -0.12077896 0.59261525 0.10787736 0.0711413 -0.80920184 -0.2649188 0.07503744 0.20649171 0.06804296 0.37198272 0.19793977 -0.4047534 0.42331928 0.051249504 -0.17057858 -0.2819165 -0.1676195 -0.40152225 0.0117432345 0.14056522 0.13391592 0.06991959 0.19086611 -0.33692414 0.35682437 -0.16196206 1.0613319 0.3986609 0.3638998 -0.24463275 -0.007221599 0.41118884 0.4066392 0.24221231 0.66834354 -0.8994113 0.61360925 0.25600147 0.03965404 -0.45693478 0.37991795 -0.6103955 0.27004862
napoletana 0.17481846 -0.2796302 -0.018991368 -0.16629294 0.010693396 -0.16786674 -0.36136204 -0.05399083 -0.22056417 0.3688305 0.3316073 0.028514097 0.25906855 0.082595505 0.027753755 0.10010213 -0.06971471 -0.52526015 0.5172427 -0.0016739465 -0.47416282 0.37690547 0.47855368 -0.071193695 -0.07250142 0.17241085 -0.6415326 0.6760813 0.49457467 -0.06033806 0.21329023 -0.43194327 -0.2247003 0.38203856 0.51678705 -0.054225888 0.30453435 -0.18564866 -0.07510601 0.14009899 0.05553963 -0.15231244 0.086038925 -0.120128654 -0.31606746 0.7271764 0.15106218 0.66414803 -0.6258239 0.16936755 -0.1555569 -0.33250386 0.37136838 -0.055970404 -0.24914569 -0.2486553 0.25080958 0.11962981 0.40051684 -0.3558209 0.8289742 -0.43240008 0.00899445 -0.14607461 0.47101557 0.46266186 -0.1056354 -0.13872553 -0.4415354 0.830729 -0.007875 -0.16343941 -0.23489387 0.14465147 -0.79694605 -0.3918436 0.14862536 -0.115745984 -0.6804962 -0.20785733 -0.2830692 0.6549861 0.29558557 0.40662488 0.7188469 0.13221146 0.17282894 0.037895396 -0.15154608 0.16781987 0.6581845 0.3728776 -0.41047996 0.7393829 -0.4025273 0.31782594 0.10582643 0.28536376 0.18817133 -0.5277581
parmense -0.07326258 0.017603595 -0.27779728 0.22071628 0.11639946 0.46618307 0.42999652 0.46955657 -0.20481339 0.27614227 -0.11514337 0.018195737 0.22467965 -0.014440464 -0.039606754 0.32893726 0.001455946 0.41214907 0.30791083 -0.47196904 0.18328714 0.2992468 0.10584046 -0.30342677 -0.5036088 0.19657774 -0.59885126 0.49857485 0.2022974 0.14581335 0.6476926 -0.40508157 0.2195681 0.13304253 0.39031994 -0.40082067 0.22136489 -0.426432 -0.23075792 0.35539168 -0.093829595 -0.6225136 -0.16366765 0.19375475 -0.38776365 0.2661375 -0.13314499 0.07939623 -0.12212434 0.12103079 0.08760859 -0.08031945 0.11543547 -0.5590388 -0.049193054 -0.013840454 -0.11333078 -0.034411583 0.048163567 0.48282114 -0.013265117 -0.09432599 0.8044797 0.0099728815 0.678167 -0.2286615 -0.3170722 0.29336953 0.042092666 0.87614435 0.4299756 -0.23378594 0.01396273 -0.041839615 -0.24471076 -0.46982053 0.108999446 -1.1670026 -0.32993612 0.18177089 -0.5473555 0.23904632 0.015177974 0.39514995 0.7816574 0.11746542 -0.67881984 -0.14266112 0.4581807 0.27538514 0.7666792 -0.11102844 -0.44279712 0.9294544 -0.19672072 -0.13101315 -0.17748821 0.87617093 -0.29106975 0.04942248
la -0.07225413 -0.3188173 0.10196428 -0.33423734 0.23816715 0.054397326 -0.4660624 0.09705519 -0.225607 0.34118515 0.049511176 0.31455472 0.7267634 0.03464098 -0.15806013 0.4838844 -0.49203715 -0.011990859 0.31500167 -0.29081142 0.096940205 0.18682697 -0.04768994 0.30502826 -0.48184362 0.14174807 -0.42860502 0.5071721 0.42897582 0.41469702 0.7000838 -0.015005227 0.021342013 0.098106116 0.38065574 -0.48806757 0.17378077 -0.15046768 0.14369386 -0.40030235 -0.1102215 -0.80750483 0.35071328 0.036561932 -0.3384284 0.4146239 -0.854973 0.024871934 -0.68452513 0.4316125 -0.26236826 -0.064321816 0.42201498 -0.49862078 -0.23281077 0.09962109 -0.24278542 0.4455452 0.3629053 -0.048292235 0.5767958 -0.58526963 -0.08915891 -0.29977944 0.41792452 0.4513226 -0.16319561 -0.118704505 -0.103182025 0.9806685 0.09555514 -0.12549624 -0.18774253 -0.0513428 -0.39503193 -0.6989859 -0.32978588 -0.47225532 -0.31842366 -0.038921416 -0.7388647 0.30931997 0.21092577 0.66004527 0.9221374 -0.16049217 -0.70731336 0.12126451 -0.0007541788 -0.19958235 0.311676 0.062598094 -0.77175057 0.65317696 -0.07458015 -0.42005622 -0.30716756 0.4840724 -0.38724044 -0.06299944
reine -0.34838724 -0.18493211 -0.34900424 0.1099139 -0.14526048 -0.21961345 0.24441254 -0.0720412 -0.40065038 0.44510865 -0.5075969 0.18471073 0.43364903 -0.01328929 -0.11041653 0.002603954 -0.024004698 0.26256284 0.37131187 -0.05985418 -0.1906301 -0.1323211 0.02201216 0.2631088 -0.94316316 0.30841193 -0.747676 0.29684055 0.16251875 0.55876505 0.41802377 0.028946016 0.23666173 -0.0994812 0.68355864 -0.3340779 0.42516235 0.056621406 -0.07871244 -0.18613057 0.3489398 -0.76256603 -0.013936882 -0.5559678 -0.56826127 0.05057872 -0.40286955 0.25997865 -0.4653588 0.19726282 0.018348172 -0.233048 0.30077615 -0.32509905 -0.15357047 0.008105329 0.3176527 0.49384987 0.5873267 0.04453119 0.7803228 -0.8912089 0.07197778 -0.18552518 0.85728383 0.31647885 -0.30791232 0.08648385 -0.26181075 0.683574 0.17142873 0.041096486 0.22298594 -0.028596535 -0.8989655 -0.48722088 -0.18539916 -0.5772536 -0.6369156 -0.2697218 -1.0179273 0.522046 0.34446284 0.41970128 0.749601 -0.073127024 -0.46918464 0.25086245 -0.0034087454 0.68887377 0.8023173 -0.12755568 -0.5788774 0.75663936 -0.25840926 0.049843084 -0.11060393 0.444426 0.11622511 -0.1677247
princecarlo -0.035124417 0.14382051 -0.43137825 0.10063168 1.5543905e-05 0.05339344 0.029658787 0.4866634 -0.15490831 0.32792348 -0.34781292 -0.009744631 0.8217847 0.037488196 -0.046706732 0.338398 0.5322864 -0.18962297 -0.04120498 -0.30632105 -0.033034876 0.15019676 -0.1290078 -0.33426812 -0.4325694 0.49409914 -0.6789056 0.38485196 0.80138284 0.030727793 0.4454349 -0.48020086 0.43010136 0.55608034 0.53535455 -0.77307457 0.12606536 0.046427146 -0.19711746 0.7612797 0.29227462 -0.23470701 -0.39897704 -0.14021616 -0.108618 0.3767862 0.43719277 0.014017283 -0.49066073 0.2893857 0.50689256 0.24741228 0.46504688 -0.016712697 -0.2667578 0.1121338 -0.06807705 -0.18542962 0.3653514 0.17179194 0.09890362 -0.32953382 0.5932876 0.31719738 0.48629758 0.10008487 -0.008524611 0.3312913 -0.19678909 0.23616973 -0.17654563 -0.3730463 0.19650228 -0.21393685 -0.1543648 -0.2022641 0.15463156 -0.15389752 -0.034346465 0.3883744 -0.41444612 -0.21280555 0.23523308 0.19084387 0.8689313 0.075432636 -0.2568728 0.23944719 0.51813996 0.29291096 0.1756095 -0.042187437 -0.54093504 0.9916549 -0.05689645 -0.32998973 0.019412126 0.91954875 -0.873719 -0.033967886
altlabel -0.09752626 -0.6245606 -1.2971296 -0.31808478 -0.2908518 -0.16885951 -0.027705513 -0.28070778 -0.6406822 0.49783713 -0.085344955 0.10219478 1.1456376 0.1545017 0.19862288 1.7417839 0.44255978 -0.789422 0.69394916 -0.77172434 0.3823393 -0.05607501 0.368241 0.48294586 -0.13140742 0.12850931 -0.4844526 0.8887828 0.095110096 0.42861995 0.75521034 -0.5208112 0.4610935 0.25798285 0.2785915 0.2543665 0.5844202 0.7197197 -0.05808061 -0.30351385 -0.37926292 -0.22498505 0.8518476 -0.15325502 -0.1766328 0.10999199 -0.29847798 -0.09198074 -0.002128689 -0.036656365 0.7043995 -0.071102254 -0.13601354 0.27369368 -0.49746585 0.28142738 -0.4179295 -0.1516994 0.70408404 0.35491064 -0.19418408 -0.34494978 0.6980011 -0.41881126 -0.5190964 -0.34200943 0.38301894 0.21556148 0.53184664 -0.14703278 0.23430434 -0.11276029 0.7698457 0.15788008 -0.90262866 -0.2993951 0.30996603 -0.6836179 -0.68953884 -0.0904798 -0.45790207 -0.20432131 -0.30453172 -0.61294335 0.37190363 -0.16057056 0.6748811 0.48925468 0.07968828 -0.17021047 0.5343525 0.11137415 -0.48432446 -0.19910473 -0.37127942 -0.053818874 0.19364019 0.927857 0.11000879 -0.35737532
sloppy 0.4599405 0.7720033 -0.29759973 -0.48542234 -0.089248 -0.27648163 0.42356104 -0.17539082 0.08202468 -0.03087682 -0.1707257 -0.14699964 0.65209097 0.48766527 -0.08159964 0.5011709 -0.14676888 -0.44698238 0.5959517 -0.7482467 -0.07025379 0.27460232 0.7029498 0.07799595 -0.7931771 -0.046182718 -0.89997035 0.8391006 0.5701943 -0.15435775 0.56733733 -0.29836985 -0.028094597 -0.25620937 0.6252774 -0.3362299 0.19030078 0.024560092 0.40984342 -0.0988859 0.4148499 -0.5581781 -0.092713095 -0.4658917 0.25193137 0.17299865 -0.1079027 0.51652026 -0.18548372 0.093100786 -0.12162361 0.16791147 -0.22063479 0.002267064 -0.10935713 -0.30924708 -0.40644673 0.19202897 -0.011408028 0.29253182 0.30139643 -0.7921398 0.66867584 -0.299067 0.06765736 0.043730527 0.055946413 0.18258667 0.057546638 0.1367193 -0.18721183 -0.14035623 -0.62699664 0.39099073 -0.051299524 -0.059552204 -0.01962367 -0.32590112 -0.38661116 -0.007168822 -0.48988932 0.22888738 -0.2996214 0.9391307 -0.0936776 0.55148846 -0.4744537 -0.4069617 -0.18009584 -0.122360095 0.2960804 0.23828544 -0.62600935 0.53842205 0.19295362 0.40176716 -0.1258361 1.05368 -0.28224093 -0.34589818
giuseppe 0.042706776 0.84146893 0.035970293 -0.60914826 -0.00785612 -0.09560644 0.24574755 -0.81311506 -0.2599351 0.104695156 -0.09460617 -0.2160954 0.04092159 0.17339961 0.27423435 0.4573187 0.3969604 -0.46813482 0.041983783 -0.6406806 0.48211017 -0.11623535 0.6080891 -0.20641005 -0.5332265 0.084285825 -0.89523244 0.8418795 0.297163 0.23846547 0.5628412 0.0011954043 -0.44721758 0.017963259 0.97194123 -0.50414324 0.61405605 -0.31992647 0.5424129 -0.22177133 0.10552026 -0.3333872 -0.17698348 -0.32506737 0.050852563 0.63971454 -0.47803172 0.35134104 -0.44488534 -0.060381394 0.15301609 0.41794255 -0.103876136 -0.26249963 -0.049545452 -0.3429038 0.023530582 0.6903106 -0.14076962 0.47389853 0.018343043 -0.43198282 0.6470522 -0.18233278 0.19192201 -0.414083 -0.062035687 0.33071867 -0.42738485 0.3192844 -0.053525727 -0.61873275 -0.15785801 0.14532386 -0.019221999 -0.20794928 0.43159133 -0.0013379015 -0.324201 -0.24863173 -0.5213809 0.18965444 0.1860122 0.68056214 0.107847825 0.60075897 -0.8581657 0.10597283 -0.281666 0.15399458 0.51635784 -0.019204117 -0.8660442 0.513452 0.32777542 0.263281 -0.432638 1.2708585 -0.73360044 0.037941884
caprina -0.17214388 0.34431136 -0.059050303 -0.44863313 -0.07968788 0.20761548 -0.109893866 -0.031553574 -0.062650435 0.064618155 -0.16185524 0.106795736 0.3033915 0.27374423 0.06448773 0.046664964 0.014814658 -0.4483003 0.07350559 -0.14871402 -0.38497263 0.07272636 0.11010159 0.024389833 -0.17410392 0.26111037 -0.6908738 0.29804578 0.5921091 -0.27235138 0.1354199 -0.019780621 -0.3103419 0.35823748 1.059576 -0.23696752 -0.19341919 -0.22740874 -0.10299443 -0.23583752 -0.029440325 -0.27080947 -0.18459997 0.049478546 0.10645372 0.5202525 -0.093498975 0.46375582 -0.19695625 -0.16844739 0.2309478 0.2747166 0.118618 -0.052457336 -0.4298146 -0.16084224 -0.20844255 -0.28956085 0.44591352 0.11708174 0.06166544 -0.6702737 0.4897616 -0.18064952 0.5886193 0.048391115 0.42276773 0.42887732 0.053101413 0.5186231 0.21426661 -0.35404205 0.4637148 0.20276143 -0.47382388 -0.14382747 -0.2582019 -0.17476168 -0.60567856 0.13529077 -0.77862287 0.5746595 0.6918505 0.8707028 0.72383535 -0.05234318 -0.23069096 0.13227299 0.1566965 0.27778587 0.35600963 0.11265711 -0.22279893 0.90099204 0.16885267 -0.14951836 0.45845383 0.8151527 -0.16830666 -0.18041106
http://www.co-ode.org/ontologies/pizza/pizza.owl#OliveTopping -0.24011195 0.16045953 -0.104610816 0.30987924 0.3122348 -0.3066918 0.23753795 0.36708507 -0.4378367 0.4401417 0.34571683 0.136439 0.34196126 -0.33066493 -0.2002337 0.8917847 0.22366041 -0.3946618 -0.08480719 0.078898214 0.6664797 -0.03367901 0.030454045 -0.058014143 -0.011684159 -0.10649765 -0.63803744 0.3045406 0.3447711 0.09778888 0.55763805 -0.8723122 0.18807475 -0.5809392 0.41537803 0.027101148 0.19599979 -0.058882095 -0.6832669 -0.09429225 -0.38907743 0.58389676 0.43526405 -0.31613287 -0.05405243 0.3293908 -0.15484709 -0.18818384 -0.4353332 0.007479647 -0.017139511 -0.087984435 -0.2723853 -0.22687958 -0.13088563 0.11715587 -0.25681588 0.20302275 -0.29972816 -0.70052564 -0.22610882 -0.4389419 0.16640939 0.20290421 0.13149597 0.16773266 -0.76134235 -0.18194856 0.16140787 0.2625231 -0.24497166 -0.44724804 -0.2232526 0.06758186 -0.40338385 0.11825039 -0.57524616 0.11349742 -0.24404953 -0.2663839 -0.579263 0.49695256 0.36106008 -0.017216016 0.38280785 0.34080175 -0.40664008 0.33853623 0.42160007 0.26695356 -0.1900242 0.013990636 -0.51647073 0.40208745 0.30952856 0.6605275 0.7592458 0.20805234 0.16918905 -0.38163242
garlic 0.054251317 0.40278238 0.24822517 0.42303687 -0.017785281 0.013576841 0.14608693 0.43624675 -0.5771456 0.035244633 -0.07886294 -0.149441 0.35405752 -0.16710441 -0.5514874 -0.06379646 -0.016633118 -0.30764967 0.58796674 -0.11195777 0.07030395 0.16362692 0.13375497 -1.013302 -0.1296239 -0.109926715 0.03703247 0.3589307 0.05858313 0.42798212 0.75438267 -0.49505085 0.19679993 0.11083073 0.29596058 -0.10887649 0.9617145 0.42199582 0.005303971 -0.32998085 -0.38649517 -0.16044399 -0.10405714 -0.14656667 0.15738678 0.34256893 -0.60057086 -0.1784709 -0.41604006 0.19425254 -0.06953232 0.459347 -0.14855406 -0.29859966 0.11076571 0.15131032 -0.23876667 -0.07624888 0.004205422 -0.019994758 -0.16779952 -0.21454373 0.4228603 -0.5745233 0.05760707 -0.051265396 0.0058547924 -0.46748516 -0.033184614 0.45419866 -0.37840515 -0.5806297 -0.14906761 0.033096287 -0.61098886 0.11565716 -0.108980566 0.0937804 -0.4693468 0.27663153 -0.77803385 0.19825138 -0.11801553 0.5713477 0.46351612 0.3745572 -0.0044966587 0.8479378 0.38906372 0.44798648 -0.24780203 0.09086235 -0.23494554 0.033540946 0.012065966 0.2869535 0.42347813 0.43206108 0.107134946 -1.0954844
mild -0.47135502 -0.11853349 0.036405895 0.094584085 0.043896757 -0.085998915 0.008499771 0.56717837 -0.0235374 0.7872851 -0.39571705 -0.15989341 -0.2427323 0.3752531 -0.3555989 0.2880672 -0.31128955 -0.44946668 0.9247972 0.05970857 0.3949437 0.7503581 -0.39475527 -0.8486012 -0.4892567 0.05871456 -0.5525618 0.7434171 0.46842486 -0.04517473 0.24029395 -0.4382541 0.47453338 0.124332495 0.7679276 -0.06664677 0.056861024 0.10956897 -0.2765393 -0.34686667 0.25427163 0.27940926 -0.34191227 -0.27227336 0.20966408 0.8442067 -0.095275246 0.5670358 -0.52273786 0.19892724 0.04983592 0.2047876 0.3687082 -0.48644462 -0.09048374 -0.47927603 0.13301702 0.27816054 -0.0013350567 0.3700379 -0.28532824 -0.29076046 -0.025584456 0.27332005 0.6280007 0.72564447 -0.32448104 0.17520735 -0.29060924 0.418132 -0.21631671 -0.052775193 0.70054376 -0.18359505 -0.84493876 -0.19790648 -0.57987267 0.13902688 -0.15975037 0.11411647 -1.0423926 -0.6259061 -0.12657686 0.2598651 0.72198606 -0.405767 -0.24190828 0.15227921 0.12954271 0.24816734 0.14061674 0.39860466 0.39723292 1.2210748 -0.21449225 -0.4520255 0.42954955 -0.06611844 0.11263359 -0.2792088
food 0.27957514 -0.10849826 0.09027219 -0.34470683 0.08572765 -0.45963955 0.010638698 0.3549221 -0.0057804296 -0.3233694 0.25251284 -0.19481362 0.3869649 -0.027468374 0.0893354 0.5192402 0.6650075 -0.1958037 0.6522662 -0.28685364 0.49536812 0.5417566 0.15895146 -0.12762144 -0.3198477 0.57822275 -0.26213494 0.054899335 0.29090002 0.46400678 -0.40116665 0.40989634 0.31237388 0.103259556 0.2659387 -0.3286475 0.41847697 0.59870905 0.03074984 -0.24432659 -0.13773449 -0.3731408 0.11170467 -0.36883885 0.37197512 0.47207195 -0.12564991 0.24566558 -0.3289916 0.022077993 0.09433942 0.23813629 0.47018808 -0.17279823 0.4531764 -0.23478162 0.43023267 -0.055188596 -0.35191813 -0.25344118 -0.17667973 -0.40470105 -0.04807855 -0.29352713 0.64497095 -0.026909122 0.24443665 -0.065244816 -0.035992503 0.51680446 0.338361 -0.46822178 -0.16101992 0.40485802 -0.2365522 -0.36049804 0.40551445 -0.34620664 -0.4084654 -0.09992695 -0.31231496 0.47242552 -0.19869661 0.71371174 0.67619634 0.4572031 0.16253944 -0.305694 0.29740462 0.5235727 -0.13503794 0.054253586 0.04763994 0.24156387 -0.4366095 -0.0535442 -0.084774345 0.11608703 -0.20085233 0.1607853
seafood 0.055613775 0.4074553 0.2937065 0.4395531 0.09319047 0.027333433 0.035926595 -0.08328486 0.08068106 0.06488261 0.051702816 0.10054213 -0.042866882 -0.5263159 0.14276099 0.6837382 0.52348185 -0.5204437 0.6732194 -0.30511817 -0.23205848 0.37486345 0.029176744 -0.9821255 -0.0023762928 -0.13857546 -0.46847844 0.30665624 0.09250029 0.61375546 -0.17224784 0.22472872 0.35424232 -0.29089102 -0.27168044 0.0880256 0.550214 0.4873063 -0.3677948 -0.7561757 0.064097576 0.31518275 0.03968319 -0.41947615 0.14889628 0.6291984 -0.3508161 0.27179936 -0.36411047 0.3884947 -0.05036596 0.45186698 0.3642935 -0.25117737 -0.18261237 0.30832496 0.037482273 0.13663487 0.007112363 -0.31263506 -0.450194 -0.20649092 0.10899959 -0.11321947 0.16687998 0.25320545 0.7786765 -0.19817764 -0.39812806 0.7745668 -0.069006786 -0.56953174 0.1901321 -0.06105748 -0.9286212 -0.305047 0.11045694 0.0029593697 -0.3303545 -0.074883215 -0.3031397 0.3550895 -0.40525576 0.33259863 0.5525613 -0.2211637 0.15522647 0.61856383 0.44258913 0.24775213 -0.19110377 0.14765288 -0.34396437 0.38129872 0.28999257 0.039589625 0.14913647 0.5657482 0.20359935 -0.77456594
sauce -0.022775276 0.22518748 0.31799492 0.6046314 -0.318561 -0.5716225 0.19086161 -0.0048038536 0.014580086 0.4967822 -0.18345709 -0.4165232 0.32291988 -0.045701876 0.3533672 0.59806514 0.5942522 0.047616675 0.20703998 0.045550317 0.058764305 0.49866423 0.29833364 -0.75934285 -0.25483468 0.027350403 0.078522496 0.098345 -0.29599905 -0.1942777 1.0223736 -0.3857567 0.23116411 -0.2895822 0.22512929 0.023742482 0.616559 0.64407814 0.3865042 -1.1850817 0.08946562 0.1450294 -0.20666246 -0.43439996 0.25991306 -0.096444525 -0.1411658 0.41510794 0.262623 -0.20465133 -0.04797568 0.113748915 1.0138289 -0.2939516 0.37456438 0.31446669 -0.030659268 -0.1996709 0.1731856 -0.28054437 -0.14891644 -0.6761867 0.21144766 0.25669998 -0.060653284 0.28494474 0.45728117 -0.16451263 -0.25659627 0.41632593 -0.4371734 -0.4040594 0.02172976 0.19965364 -0.20487069 -0.8423768 0.21536216 -0.3978269 0.33242986 0.043857235 -0.49308318 0.23556459 -0.061261486 1.0551584 0.7157332 0.2923741 0.17667833 -0.23973133 0.4030029 0.309795 0.08318237 0.30107567 -0.1217056 0.7749908 -0.08682838 -0.53842616 -0.0046858317 0.12463981 0.23943916 -0.13143235
rosa -0.16526163 0.30299914 -0.20774037 -0.33767673 0.27020276 -0.022462709 0.041640695 0.06846834 0.07552115 0.3982114 0.26762846 0.029667601 0.42055625 0.5943952 0.04434696 -0.12325371 0.23405743 -0.34053436 0.123327054 -0.42076668 -0.23844457 0.30271095 0.17107761 -0.44643322 -0.79592514 0.22193955 -0.54643285 0.39668345 0.043145165 -0.28224424 0.8016668 0.3964779 0.033343922 0.15159257 0.6257565 -0.4542373 -0.23818964 -0.075804785 -0.19792992 0.21472774 0.0489893 -0.08688273 -0.091065995 -0.0031664795 0.036249094 0.69374603 0.12720886 0.41108268 -0.33747968 0.21281494 -0.20445089 0.40631256 0.18809286 0.30101597 -0.3352488 -0.01342104 -0.29480925 0.090892926 0.29872912 0.21932907 0.18053018 -0.3790979 0.31704596 0.1744054 0.43419877 0.104492016 -0.12839499 0.42249158 0.01653123 0.82170844 -0.005633083 -0.50054747 0.17439182 -0.01754213 -0.46431863 -0.25557774 0.34821948 0.093627736 -0.24823461 -0.14799966 -0.44285694 0.18277822 0.05032609 0.50647926 0.96352136 0.39818794 -0.41753498 0.2865169 -0.35372648 0.26121363 0.6237163 0.18204024 -0.4360915 0.5126332 0.31061327 -0.07056803 0.13749658 0.9229008 -0.21750675 -0.48523355
http://www.co-ode.org/ontologies/pizza/pizza.owl#Capricciosa -0.08510205 0.10286822 -0.68279254 -0.43211833 0.04885854 0.44016692 0.07654244 -0.17603295 -0.4090026 0.16357656 0.8271998 0.029509615 0.63663197 0.16476774 0.16480398 0.1791309 0.14054641 0.0040414217 0.5157763 -0.012865627 0.11105549 -0.17264956 0.6652191 0.30448788 0.042741068 -0.06488435 -0.6960836 0.63031864 0.16897056 -0.38740107 0.56489486 -0.3464873 -0.07161766 -0.43076122 -0.06959676 -0.38201326 0.6035402 0.042657148 0.24045072 -0.018077891 0.22087993 0.031145338 0.48295772 0.12487253 -0.54009 0.15680042 0.27567387 0.1746052 -0.71261615 -0.09527568 -0.21913162 -0.29154113 0.07478014 -0.5802881 -0.22336729 0.21608399 0.10686106 0.07757361 0.13490178 -0.70230716 0.34440082 -0.7175826 -0.35295185 -0.061892036 0.4775447 0.18978287 -0.21826802 -0.18321742 -0.13465756 1.1284567 0.18058941 0.34916693 -0.23562387 0.19366357 -0.391254 -0.07549414 -0.1362401 -0.13918066 -0.1367357 -0.13593486 -0.90007794 0.01726161 -0.002548454 0.42305848 0.5895154 -0.06686375 -0.100999475 0.10542182 0.33057138 0.34832025 1.014726 0.37729213 -0.3042633 0.7177926 -0.25356367 0.51282173 0.30610418 -0.20450437 0.417873 -0.11888745
http://www.co-ode.org/ontologies/pizza/pizza.owl#Giardiniera -0.44580323 -0.37875524 -0.37092802 -0.33775428 0.16468842 0.12739986 -0.34330815 -0.64742845 -0.7967045 0.13484414 -0.13906223 0.27250338 0.64101374 0.16167985 0.2200378 0.36611947 0.8197918 0.12921706 -0.07420294 -0.21456128 0.32640314 -0.21434127 0.20027207 0.14493598 -0.465991 0.11482607 -0.6606969 0.46945432 0.22781928 0.15466172 0.6734782 -0.34887078 0.06835981 -0.09029522 -0.12971503 -0.5166767 0.22594677 0.12993658 0.03706842 0.35268092 0.33325782 0.16533615 0.09653133 -0.090151764 -0.60502684 0.7746798 0.21212885 -0.013490775 -0.74625653 -0.1934043 0.07697536 0.0126056755 0.0458562 -0.46911305 0.12259062 0.4637562 0.13516085 0.1705454 0.027376538 -0.2376452 0.22596037 -0.78556967 -0.26015338 -0.013573298 1.151526 0.10508754 -0.48995557 0.20594491 0.059121985 0.46398768 -0.6296452 -0.26743868 -0.11224252 -0.12890813 -0.034507673 0.26651222 -0.11165416 0.7079951 0.3004672 0.078773916 -0.98108643 -0.0047188927 0.38139707 0.07892474 0.77557683 0.21689487 -0.24262685 0.13417636 0.3825273 0.026724763 0.0662045 0.52839196 -0.36351725 0.70803005 -0.3999567 -0.09244203 0.47907805 0.37408805 -0.35550153 0.2213615
caper 0.12885465 -0.084022835 -0.03683217 0.6621286 -0.017041912 -0.4279389 -0.32521987 0.20957524 0.012181824 0.2911815 -0.03860415 -0.45886278 -0.27819893 -0.040501606 -0.20058043 0.91934466 0.31570604 -0.23441526 0.23903719 -0.17254102 0.46275896 0.47450444 0.17356612 -0.14022455 0.013233881 -0.07974452 -0.52377933 0.33650765 0.24338855 0.26796412 0.65712345 -0.45591223 -0.5022075 -0.34109646 0.5185778 -0.109237164 0.49922752 -0.28190103 -0.50060916 -0.33038756 0.026928771 1.0639851 -0.064592965 -0.2741507 -0.09005718 0.56200415 0.0335227 -0.061179318 -0.48134348 -0.20833945 0.20703115 -0.19530863 0.82879794 -0.039054085 -0.0057976074 0.24581908 0.0010241533 0.20695679 0.12394143 -0.26274642 -0.29849514 0.12769091 0.279757 -0.06880873 0.26962698 0.33123934 -0.23990504 -0.12929386 -0.37733477 0.33122942 0.013551683 -0.766286 -0.2344207 0.5925107 -0.82541585 -0.4060992 -0.28975058 -0.24189456 -0.033402666 -0.040993303 -0.19908157 0.121888876 -0.25188652 0.5015001 0.5698752 0.107418284 -0.57621074 -0.0968636 0.18655519 0.26196295 -0.20797418 0.24078478 -0.39686033 0.4216666 0.27817333 0.51934946 0.763977 0.6957067 0.54459304 -0.38333058
http://www.co-ode.org/ontologies/pizza/pizza.owl#Siciliana -0.15729241 -0.12752227 -0.26886722 -0.22551888 0.21164095 0.5171744 0.1524217 0.21883431 -0.008091923 0.5280309 0.26965007 0.56638485 0.76337063 0.26951215 0.471471 0.16868494 -0.0411477 -0.2328941 0.6537149 -0.04277476 0.25874645 0.09373453 0.3847055 0.28174868 -0.44930205 -0.5639057 -0.5528263 0.47315457 -0.094974026 -0.47881597 0.0277394 -0.22890818 0.14324111 -0.25654766 0.015538917 0.06863625 0.6253373 0.40719584 -0.15181984 0.22908373 0.14484158 -0.56219816 0.33136952 0.2010474 -0.5603206 0.61758786 -0.31554267 -0.16990682 -0.31648144 0.27675194 -0.27727753 -0.3832861 -0.32999986 -0.39827517 -0.52975506 0.27119318 0.1124335 0.28310102 0.11457943 -0.68806845 0.82908636 -0.25784117 0.4289475 -0.3760489 0.22203124 0.09307834 -0.7163132 -0.34281784 -0.14184363 0.8409935 0.26281717 -0.43707862 -0.55166465 0.014470914 -0.36228165 -0.2925706 -0.1252803 -0.1612463 -0.5027517 -0.0144501 -0.66106063 0.04389746 -0.06110433 0.5675142 0.47188857 -0.00976841 -0.26000747 -0.046612196 0.24791422 0.2076982 0.63053286 0.42073438 -0.10275932 0.77034634 0.19468215 0.049804837 0.1914812 -0.08090554 0.4930082 -0.26436996
http://www.co-ode.org/ontologies/pizza/pizza.owl#Veneziana -0.11027758 0.5306342 -0.41567606 -0.86120814 0.1995071 0.018037431 0.29655242 -0.24972306 -0.48734573 0.6602626 0.12715419 0.08481817 0.26738694 0.55218023 0.48811725 -0.050450325 0.43633193 -0.34525928 0.22687875 0.30741775 0.29950047 -0.041968107 0.57271063 -0.0026936063 0.015337779 -0.094735995 -0.41859332 0.86787367 0.83023995 -0.054072764 0.16231377 -0.21688533 -0.6192895 -0.2555873 0.19856441 0.085314825 0.19753434 -0.23427066 0.078158095 -0.03355402 0.28767896 -0.0483172 0.2586847 -0.13033709 -0.19574115 0.88409406 0.19934852 -0.019456444 -0.62304354 -0.008400339 -0.5914669 0.15430205 0.52024084 -0.17371464 0.3366125 -0.22798607 -0.08090807 -0.12995693 0.3453749 -0.26009038 0.45834607 -0.5897361 0.10878808 0.28545055 0.44782722 0.04480642 -0.3835346 0.025933933 0.062286064 0.6354318 -0.78291565 -0.37519675 -0.23292169 0.18415898 0.025164828 0.17614901 0.073232956 0.15569101 -0.30742648 -0.6576691 -0.4572861 -0.13327692 0.42557508 0.48294514 0.38823646 0.6579051 -0.0717789 0.21519524 0.043461204 0.008258638 0.7236844 -0.24469759 -0.24139418 -0.014282232 -0.06456002 0.942959 0.06702716 0.10153384 0.26199654 -0.5002376
margherita 0.05340684 0.14969711 -0.3946949 -0.29874605 0.34544653 0.16083832 0.12468233 -0.0074527217 -0.35924932 0.35899764 -0.08304238 0.028665144 0.35598123 0.36452952 -0.08958117 -0.033744972 0.14364238 -0.25705963 0.2211448 -0.33110407 0.011903012 0.30045524 0.2029489 -0.032513257 -0.40907627 0.16037321 -0.75827336 0.5291519 0.24636252 -0.18634558 0.19937262 -0.21003982 -0.25578517 0.32592815 0.5313195 -0.43294343 0.1763747 -0.16186115 0.03517592 0.1923323 0.22738342 -0.7052733 -0.06349924 0.08342936 -0.17578179 0.6985724 0.024130313 0.26952794 -0.3109132 -0.071815565 0.07508582 0.26158202 0.21101579 0.019048152 -0.30652553 -0.004061607 0.008739766 0.011173563 0.44465333 0.19057973 0.21760964 -0.69346523 0.09836085 -0.080495074 0.32883877 -0.009419985 0.27566394 0.23647961 -0.14265768 0.54638815 0.158751 -0.42211127 -0.09918651 0.014974902 -0.6611712 -0.21179707 0.25753778 -0.03926898 -0.21606828 -0.035146285 -0.39513114 0.27531204 0.07378685 0.7687924 0.8229979 0.19955646 -0.39010617 -0.15020889 -0.16009812 0.30161315 0.54792696 0.18131118 -0.7651946 0.9739144 0.049576137 -0.010487977 0.047659352 0.72590655 -0.20816126 -0.31598812
http://www.co-ode.org/ontologies/pizza/pizza.owl#FourSeasons -0.38839442 -0.5199799 -0.22542861 -0.5128191 -0.14308693 0.043612476 0.12616856 -0.06701882 -0.46622425 0.29583132 0.28838217 0.027881294 0.7398711 0.15448093 0.2609811 0.31785727 0.46623066 -0.33595273 0.72527343 0.0718761 -0.39307937 -0.2540238 0.4748486 0.35990947 -0.13826166 -0.25867045 -0.7915929 -0.107567206 0.47655934 -0.070988685 0.30560654 -0.302916 -0.6306857 -0.47792563 0.22034147 0.4453641 -0.058110263 0.16320704 -0.27464718 0.03784145 0.085618466 -0.51671803 0.31713971 -0.06835018 -0.40800494 0.77618974 0.18708062 -0.10326558 -0.26454958 -0.06837492 -0.30605677 -0.13551225 -0.032915045 0.22644739 -0.0814663 0.2037127 -0.025971273 -0.01215549 0.55488306 -0.7551186 0.61486274 -0.6664866 -0.18659802 -0.41978404 0.04455998 0.45957932 0.1832173 0.065753065 0.058867335 0.700942 -0.55995274 0.13447441 -0.11832187 0.17611668 -0.48637435 -0.25751254 -0.2995985 0.51259375 -0.3821936 0.19804761 -0.8512621 0.24263865 0.37772423 0.43597746 0.475734 0.14615397 -0.16349758 0.20770782 0.06150941 0.035117265 0.63854676 0.058178667 -0.06720962 0.74328965 -0.5272021 0.33875006 0.83543855 -0.100538515 0.3363259 -0.3182773
oniontopping 0.811871 -0.04832036 0.24113636 0.28922555 -0.5717143 -0.79125285 -0.034436587 0.1030514 -0.10345432 0.5670922 -0.41410685 -1.0774969 -0.139719 0.23417002 -0.150541 0.3085721 0.6510159 -0.022347586 0.33999106 0.11330369 0.027033307 0.2032563 0.02984108 -0.023601802 -0.14434803 -0.059789825 -0.048403963 0.44296002 0.06371039 -0.12590909 0.7555234 -0.38707554 0.10845696 -0.5025469 0.60191137 -0.12951991 0.724964 0.33942708 0.25035957 -0.5059708 0.33829352 0.30785245 0.15488325 -0.37878668 0.20641689 0.5356934 -0.38212493 -0.022949679 -0.1441134 0.21855697 -0.085286275 0.37043703 0.2079884 0.042322323 0.18228105 0.10144068 0.15936145 0.1593913 0.23674567 -0.15848213 -0.22562936 0.27388883 0.3118274 -0.36568895 -0.09169341 0.03220284 0.30843043 -0.16117282 -0.18961085 0.26835555 -0.2852632 -0.57408965 0.050228354 0.017230598 -0.24154238 -0.67560637 -0.10602186 -0.41117033 -0.13198218 0.1353684 -1.0120682 -0.052800722 0.11664151 0.72014105 0.69676983 0.5176653 -0.45767698 0.22551721 0.3267371 -0.12540211 -0.25888184 0.50571716 -0.14424042 0.4858503 0.068728425 0.3020844 -0.06276087 0.35778293 0.09021857 -0.22577064
hamtopping -0.53191984 0.45753923 0.32108492 0.04076654 0.013573397 -0.18345235 -0.2635399 0.10345738 -0.20366046 0.4781366 0.12125926 -0.14756545 0.34458938 0.13593128 -0.52977085 1.38612 -0.19746356 -0.26464137 0.6439345 0.036648616 0.33215263 0.24494474 0.03271066 -0.6620709 -0.4234552 0.28002518 -0.8144755 -0.066281125 -0.14075708 0.6608386 0.63713527 -0.10444763 -0.22125569 -0.26534408 0.56762725 -0.22428557 0.5778388 0.12100998 -0.2638614 -0.18825077 -0.40001562 0.16703862 -0.29508716 -0.4337542 -0.5390959 -0.39277107 0.07476711 0.7252709 0.057080913 0.2857532 -0.19588354 -0.17718105 -0.2770835 -0.31583488 0.4856514 0.16124873 -0.2867505 0.054321215 -0.3177565 -0.40445474 -0.18960655 -0.5810415 0.08236895 0.58194023 -0.38313055 0.15905467 -0.15378349 -0.3759675 -0.102570474 0.67374593 -0.042590924 -0.37921834 0.45292512 0.93629736 -0.45136365 -0.78556025 -0.3328585 -0.45428458 -0.55581814 0.12204188 -0.44478104 -0.27792665 0.111235335 0.6671478 0.45562956 0.109966956 -0.15721968 0.19464335 0.18225394 0.4488996 -0.15039189 -0.41273016 -0.50903076 0.5376493 0.45065206 -0.2647067 0.250557 0.04889867 -0.061887164 -0.3468759
http://www.co-ode.org/ontologies/pizza/pizza.owl#PolloAdAstra -0.34107965 1.0847464 -0.5778113 -0.61279756 0.64252347 0.0078069577 0.45639527 0.1456736 -0.047413986 0.14768553 -0.6022147 0.16352706 0.569992 0.23103017 0.17389525 0.41791928 0.9779517 -0.86325043 0.19423753 -0.30010268 0.58119065 -0.02892396 0.26190126 0.115867876 -0.091759294 -0.4139447 -0.85741204 0.08273687 -0.5867628 -0.44774243 0.07374339 -0.16670285 -0.11179889 -0.24182042 0.2969096 0.0025107583 0.5066535 0.47325906 -0.47040918 0.20767042 0.06891838 -0.41101554 0.21491498 0.4505325 -0.0614027 0.70376176 -0.36973175 -0.5154931 0.38689238 -0.012701328 0.40917605 0.23933737 0.077754565 -0.124933064 -0.41041303 0.016885972 -0.21303067 -0.28186622 0.057795458 0.055776525 0.16920316 -0.31749353 0.16513221 -0.12253846 0.24137177 -0.69242483 -0.6032202 0.54391456 0.14585279 0.30601352 -0.45448256 -0.6936845 -0.6056414 -0.31739092 -0.5530158 -0.0171384 0.16685472 0.07833635 -0.2281054 -0.03152816 -0.6567396 -0.66351026 0.1442424 0.75069195 0.32101625 -0.05179865 -0.35815284 -0.00010049823 -0.28421 0.54234034 0.2535494 -0.15619184 -0.31039578 0.72436696 0.19713971 0.10119901 0.67822564 0.013151135 -0.16083692 -0.07535462
base 0.26413423 -0.23256329 -0.18473387 -1.1175364 0.35895708 0.008822341 -0.6957205 0.2709014 0.1946155 -0.2037433 0.013719463 0.17707714 0.2948497 0.24323003 0.009494786 -0.2925651 0.61364686 -0.47147372 0.5758271 -0.3592845 0.25032726 -0.09943806 0.19277583 0.06193185 -0.5280453 0.8622519 -0.49207237 0.112408206 0.3373196 0.06876832 0.52676666 0.24814443 0.15960184 -0.3045005 0.67345554 0.17157482 1.1940209 0.51268756 -0.45689532 0.049001068 0.17192104 -0.86180454 -0.4985273 -0.23868701 0.4099696 0.45219934 0.17034772 0.06992305 -0.7293727 -0.43929687 -0.053168174 0.048652023 0.20838448 -0.0028860413 0.34401104 0.26140335 0.20784935 -0.06325701 0.36615896 -0.52097243 0.32081142 -1.0580237 0.25291958 0.12692136 0.51780564 0.031426024 -0.24878593 -0.115533605 0.14359084 0.25599572 0.09492657 -0.08646851 -0.08986228 0.011577212 -0.47201976 -0.079483755 0.6188837 -0.31148204 -0.7645134 0.1236588 -0.2644357 0.7016002 -0.40897578 0.7146197 0.83002275 0.011388855 -0.15641646 -0.35921395 0.35231394 0.6302086 -0.24587202 0.27802044 -0.63831353 0.20795633 -0.21518093 -0.276468 -0.35193494 0.45578805 -0.44446248 -0.06351018
parmezantopping -0.42542127 0.11152426 -0.34773684 -0.060573485 0.26937413 -0.29710415 -0.011318857 0.089694865 -0.050856642 0.596377 -0.20257457 -0.16207947 -0.018952891 -0.301653 -0.24544661 0.4815848 0.3848678 -0.3742038 0.8398293 0.023865474 0.012284441 0.32514828 0.084418595 -1.0548187 -0.060061388 0.046334986 -0.70046085 -0.077356085 -0.049493987 0.44024688 0.02770746 -0.28776756 0.19514377 0.1768032 0.37333143 -0.22638622 0.72752106 -0.48494613 0.5200462 0.2819472 -0.5121458 -0.012739754 0.15795073 -0.34779063 0.21966553 -0.21015063 -0.16890949 0.15017536 0.10954567 0.43130112 0.011460195 0.20727934 -0.19665219 -0.6742208 0.20749635 -0.10802518 -0.56840086 -0.53730386 -0.2663137 0.10732675 -0.31519848 -0.32455218 0.56599313 0.28377914 -0.26978493 0.2426904 -0.0028717949 -0.2763502 -0.119366065 0.8614312 -0.42063326 -0.29564014 0.33418876 -0.09451633 -0.3656106 -0.21969537 -0.24159442 0.16439234 -0.26815304 0.059168518 -0.7020665 0.52855307 0.12594315 0.39703032 0.68126196 0.12357376 -0.32285598 0.43483746 0.6122261 0.34921116 0.159113 0.043336168 0.07885274 0.064553544 -0.16385862 -0.096242554 0.4744038 0.67142636 -0.46896544 -0.47357297
http://www.co-ode.org/ontologies/pizza/pizza.owl#Soho 0.21477813 -0.28204113 -0.35512832 0.090330355 0.11929111 0.46445823 0.40897167 0.29456696 -0.5830255 0.96655864 -0.19664323 0.5975036 0.80201083 -0.0042608287 0.14439484 0.13254027 0.5222479 -0.4787503 0.030560339 -0.0007739703 0.40317574 0.11033218 0.59201694 0.13721171 -0.42810366 -0.3002548 -0.575122 0.27759075 0.47476554 -0.08030329 0.09148319 -0.19728339 0.05611645 0.41200897 0.35326406 -0.064868525 0.68435436 0.026741745 -0.37452993 0.43169296 0.46470442 -0.5293329 0.117744796 -0.01312852 -0.16987059 0.8724251 0.11309515 -0.24465325 -0.3121057 0.0736513 0.052371513 0.009475833 -0.15931901 -0.42270765 -0.07148387 0.16684985 -0.4807639 -0.19829866 0.16735658 -0.407049 0.36240757 -0.61898965 0.36513734 0.083657034 0.17640302 0.34050232 -0.48010385 0.29402566 0.29748544 0.63741136 -0.39067447 -0.49044526 -0.23874645 -0.37029722 0.24911244 0.0662461 0.26444 -0.07569589 -0.4417171 0.2335893 -0.26183552 -0.29718664 0.9042787 0.3964242 0.6159012 0.074156895 -0.37091076 0.2890137 0.5562692 0.13048379 0.35442263 -0.32470912 -0.28737772 0.52686495 0.020508423 0.20621446 0.1005192 0.4121737 0.16139445 0.37773848
http://www.co-ode.org/ontologies/pizza/pizza.owl#Fiorentina 0.0674736 -0.5166377 -0.58305824 -0.16928259 0.21841 0.5646786 0.32818848 0.32039693 -0.44773957 0.69499964 -0.4140169 0.8918893 0.46525663 0.23045748 0.32440862 0.1718688 0.40266827 -0.34471628 0.21955882 0.2775253 0.71159124 0.15662137 0.3487867 -0.03282126 -0.25468296 -0.1531704 -0.33112037 0.5886444 0.30555958 -0.26543713 0.25068918 -0.45186552 -0.09483704 0.23578261 0.13822655 0.09806762 0.51848453 0.19890977 -0.44323978 0.46147045 0.27220416 -0.6956293 -0.1092753 0.03159346 -0.47700146 0.71961755 0.026220331 -0.06934291 -0.27059743 -0.18791047 0.031435184 -0.24696778 -0.083142914 -0.19267076 -0.20409986 0.15943727 -0.3125362 -0.2316887 0.2372258 -0.13883851 0.57144535 -0.109615624 0.3059224 0.13832109 0.42364517 0.43894124 -0.69905114 0.22207558 -0.012995651 0.4486676 -0.21093966 -0.80098295 -0.24733654 -0.53242224 -0.11727594 -0.09305112 -0.026410293 -0.18774031 -0.7217748 0.13592108 -0.60946697 -0.30402136 0.59191376 0.5220635 0.43177587 0.10817968 -0.3962377 0.13170126 0.6876063 0.110696465 0.2601317 -0.22995034 0.102401696 0.6625456 0.037745304 -0.04996084 0.46543252 0.46935904 0.22246245 0.0064219725
fruttidimare 0.26872057 0.13786337 -0.07121047 -0.17598374 0.33343533 -0.22516318 -0.038566127 0.16895661 -0.14643972 0.5150154 0.06924902 0.29166582 0.5276546 0.41796127 0.061330445 0.49721512 0.25169605 -0.8622029 0.74513507 -0.5622667 -0.2719013 0.04769529 0.09894947 -0.3917903 -0.32590663 0.55484974 -0.80782956 0.16364895 -0.3074322 -0.023079362 -0.609976 -0.1579769 -0.07366152 0.23241495 0.32873923 -0.15790597 0.79977113 0.6041323 -0.34417704 0.14034346 0.09494785 -0.6231879 0.09746323 -0.2110598 -0.12062581 1.0369709 -0.2760248 -0.08751127 -0.092670456 0.08277367 -0.16681486 0.20280711 -0.07332925 -0.13187437 -0.47683746 0.13584544 0.18101616 -0.0060167997 0.6038369 0.120199695 0.5467684 -0.6681827 0.21570943 0.2967747 0.07837788 0.24199246 0.36167884 -0.28300858 -0.05225118 0.6049513 -0.1641037 -0.5472122 0.008251095 -0.6554348 -0.43805546 -0.21739405 0.2806721 -0.27091432 -0.3922888 -0.039484642 0.154844 0.24455424 0.0026578777 0.812268 0.12734987 -0.32577935 -0.3098219 0.67111886 0.098039486 -0.057818357 0.21483998 -0.1590173 -0.39583117 0.81523454 0.48665467 -0.07933118 0.077133626 0.47303528 -0.023127697 -0.12778537
http://www.co-ode.org/ontologies/pizza/pizza.owl#Cajun 0.050184894 0.72528785 -0.5228671 -0.58003646 0.18545583 0.23153184 0.32572466 -0.60186577 -0.39027193 0.29185826 0.28282276 0.14350554 0.39234316 0.19604172 0.1508158 0.6202055 0.64312434 -0.5949029 0.0351973 -0.013551773 -0.05379496 -0.2500625 0.499265 -0.24031028 0.016027143 -0.019988576 -0.61672837 0.7336451 -0.013239143 -0.31612456 0.6723257 -0.29297692 -0.1565279 -0.25154975 0.13475622 -0.68429434 0.5401694 0.23738766 0.31863675 -0.28269875 0.67824316 0.07514068 0.70034236 -0.3120489 -0.19483145 0.20012401 0.44034693 -0.068976596 -0.009183137 -0.35899362 -0.152337 0.1699652 -0.19838534 -0.17938602 -0.35390404 0.055764064 -0.15373056 0.0132671315 0.24000953 -0.21086356 -0.020392798 -0.8322634 -0.16439603 0.21782894 0.12129231 -0.0046479926 0.028776176 0.3036502 -0.12253792 0.34953547 -0.28434876 -0.04669999 -0.39473435 -0.12337188 -0.22643751 0.32595262 0.03910056 0.6613741 0.2738254 0.016639465 -0.5946728 0.18973099 0.06433945 0.74999946 0.2263988 0.1761656 -0.24096052 0.22068904 0.45187813 0.32853326 0.3582223 0.59994596 -0.7206397 0.58949775 0.51147914 0.37104407 -0.11654363 0.11496959 -0.30800018 0.2135308
anchovies -0.1012813 0.3634728 0.058193937 0.64070493 -0.12550327 0.1976468 -0.47990784 0.18840963 -0.25740686 0.12501854 0.32870102 0.12917775 0.20672414 0.14813657 -0.07598331 1.000858 0.12506886 -0.7826349 0.30710644 -0.1468711 0.28935674 0.24250089 0.32460004 -0.42638406 0.06525745 0.29835048 -0.4435846 0.12328689 -0.23400593 0.43962678 0.4348754 -0.60484093 -0.38955376 -0.18645105 0.5318379 -0.07147888 0.6766212 0.10997729 -0.3408353 -0.2874547 -0.19502883 0.8136365 -0.43078393 0.036536496 0.073948205 0.3955763 -0.023711981 0.35745913 -0.5848193 -0.009758154 0.23740894 -0.2264659 0.5966732 -0.13356535 -0.11390599 0.13516803 -0.03176943 0.19081888 -0.17358509 -0.38504726 -0.12056136 -0.46951193 0.3022668 0.04460105 0.18115947 0.34963563 -0.12822287 -0.5416503 -0.3718276 0.3091142 0.20321591 -0.527254 0.07057548 0.9921234 -0.6144628 -0.2832041 -0.17134428 -0.22003771 -0.22380151 0.6392965 -0.04818806 0.13606875 -0.2662847 0.6174562 0.3101744 0.2887205 0.007988399 0.21773405 0.19305876 0.5118287 -0.006442955 -0.14478508 -0.27615646 0.54285836 0.6415665 0.4237071 0.5262749 0.40227395 0.4028039 -0.5616175
http://www.co-ode.org/ontologies/pizza/pizza.owl#Napoletana -0.034867354 -0.093022116 -0.2489985 -0.4313966 0.16225922 0.3362502 0.10308617 -0.15960588 -0.4435825 0.45409116 0.49755463 0.518373 0.3655675 0.16942182 0.44694188 -0.09160582 0.10901043 -0.22960058 0.2925098 0.3137064 -0.1820098 0.020386497 0.689516 0.2447514 0.19694752 -0.0552836 -0.62957424 0.6083298 0.40326077 -0.31908512 0.15145095 -0.287368 -0.26467294 -0.10737875 0.15157972 0.31163323 0.04721034 0.057468217 -0.20188443 0.108983286 0.30261645 -0.2362057 0.033334207 -0.08765779 -0.44404644 0.9885581 0.36361572 0.14030616 -0.5107884 0.07324431 -0.50605494 -0.16723 0.17245744 -0.16956507 -0.29972667 -0.053134065 -0.022339677 -0.12294978 0.55754817 -0.59941894 0.695849 -0.6508866 0.01464559 0.10216949 0.38630822 0.65069133 -0.18095724 -0.1625413 -0.14884566 0.7400503 -0.2159475 0.022509063 -0.19824104 0.19694056 -0.5284816 -0.31473008 0.0049362597 -0.053511925 -0.6181568 -0.28498843 -0.65043926 0.36739424 0.42852697 0.40712884 0.48331574 0.14988004 -0.024461068 0.1766107 0.12725897 0.053250216 0.7767088 0.10186903 -0.33634838 0.5909413 -0.1715437 0.5631862 0.42231998 -0.07307362 0.5656324 -0.5101318
some -0.39683354 0.42443743 0.10421447 -0.58543533 0.4622245 0.1566375 0.2944428 0.8607623 -0.3565888 1.0258964 -0.13867562 -0.6981673 0.08396731 0.47325847 -0.11925223 0.3446186 -0.22021279 -0.7144998 1.1736977 -0.10517745 0.32796767 -0.3241603 0.027755594 -0.5536019 -0.05414714 -0.661134 -0.17252365 0.47531006 0.5011171 0.22196195 0.18909866 -0.47570437 0.39508247 0.08104197 0.6146371 0.030700391 -0.29275027 0.21651691 0.13164745 -0.4531698 0.08713192 0.16812956 0.20662823 -0.7200262 -0.35303274 0.51217604 -0.14379567 -0.59351045 -0.18238908 0.09538706 -0.031956386 -0.18184842 0.5180446 -0.3118383 0.015101204 0.03461498 -0.119543076 0.45050666 -0.7435443 -0.51424813 0.04111208 -0.30212128 -0.14329512 0.29482043 0.29526252 0.62124676 -0.16652976 0.5925005 -0.3682094 0.52664936 0.09264823 0.0024208822 0.17622459 -0.123909585 -0.17448395 -0.03675304 0.14005344 0.6477478 0.42863774 0.3753781 -0.9236576 -0.15668021 0.014673061 0.4186882 -0.2872102 -0.64915335 0.2802547 -0.16134441 0.34269533 0.62591064 0.1179689 0.03414119 0.08568367 0.8391763 0.003693331 -0.16441394 -0.056746587 0.6212366 0.023500549 -0.11210412
http://www.co-ode.org/ontologies/pizza/pizza.owl#LaReine -0.61590827 -0.39144218 -0.489357 -0.32357314 -0.15320571 0.23414527 0.04331854 0.045663476 -0.3529886 0.522071 0.008850789 0.342129 0.77737445 0.20955056 0.25661147 0.13003892 0.23372005 0.40806338 0.09107102 -0.05538825 0.08580897 -0.38637173 -0.02275064 0.38484386 -0.39378682 -0.19799547 -0.58461106 0.38517243 0.26666796 0.0697241 0.7468299 -0.15884838 -0.007444921 -0.37834668 -0.18262084 0.05622457 0.14704798 0.08246113 -0.2037498 0.058348775 0.0031984982 -0.8307389 0.14688383 -0.0016348587 -0.5937295 0.42833242 -0.23960899 -0.123807825 -0.47614926 0.079607636 -0.3424342 -0.2710746 -0.08353634 -0.54702973 -0.2585025 0.42021093 0.046773516 0.26592666 0.32262042 -0.34772247 0.34907827 -0.68052524 -0.13404252 -0.2330979 0.5587315 0.17758453 -0.27230692 -0.04431072 0.06525896 0.8002447 0.0014169997 -0.073785275 -0.06420098 -0.108324595 -0.2135087 -0.40130994 -0.25350246 -0.19492383 -0.21508595 0.110335626 -1.0011649 0.25495014 0.23962082 0.12699862 0.7610269 0.086045675 -0.76122206 0.12861145 0.27991727 0.12035227 0.8720232 0.030526962 -0.24831767 0.76765954 -0.29105428 -0.058187496 0.15913698 0.08538236 0.21197446 0.029173786
peperonatatopping 0.08710285 0.1882766 -0.07464011 0.04854807 -0.2572951 -0.42794326 -0.15575795 0.095314324 -0.59561276 0.8603602 -0.12520845 -0.8072866 0.38696027 0.3741353 -0.051681705 0.9189922 0.2987138 0.1272282 -0.06897892 -0.04060397 0.38569126 0.22833122 -0.022508984 -0.30905816 -0.5453387 -0.07352264 -0.5484785 -0.15548946 -0.38962787 0.14027943 0.59617454 0.014440829 -0.005206773 -0.04628731 0.36198264 -0.248179 0.6308867 0.3385287 0.2720789 -0.6736975 0.19503754 0.7436438 -0.27216458 0.27398968 0.1348045 0.21277323 -0.46509215 0.2691624 -0.33648548 -0.23841275 0.23169835 0.029422529 0.24431232 -0.31649232 0.17388731 -0.18495302 -0.05904085 -0.45214397 -0.013654606 -0.56331885 -0.5997686 -0.55128235 0.035763606 0.47152534 0.08145555 0.48232457 0.14767666 -0.21464084 -0.028328111 0.14933972 -0.3236505 -0.26446718 0.24844675 0.39115968 -0.2547378 -0.7403388 0.112394914 -0.22567914 -0.28336537 -0.07655564 -0.8300524 0.005133455 -0.2949184 0.48131672 0.40840855 0.016946761 -0.06646895 0.1191578 0.10346386 -0.09722483 -0.5357257 0.35366127 -0.13600609 0.8291123 -0.13567424 0.27147043 0.4417828 0.6959082 0.2072218 -0.36806843
http://www.co-ode.org/ontologies/pizza/pizza.owl#Parmense -0.23261027 0.13632141 -0.46429524 0.1320494 0.07303579 0.75996697 0.5555938 0.4081399 -0.2728244 0.550438 0.00020481132 0.34106955 0.6349679 -0.046005845 0.18370155 0.29174465 0.06373174 0.5677241 -0.29900607 -0.28235018 0.50145847 0.071404785 -0.25883994 -0.09455497 0.023999048 0.12704436 -0.45362657 0.4484602 0.30004627 -0.31723374 0.5422693 -0.32175088 0.3502559 0.14745523 0.009573147 -0.2961538 0.08584518 -0.085089765 -0.29654026 0.27748156 0.013083571 -0.8158678 0.20190698 0.18564166 -0.28244814 0.29267135 -0.12491845 -0.006960196 -0.103051536 0.14679466 0.18115345 -0.12537056 -0.13711463 -0.6857054 -0.39269915 0.04574011 -0.2799485 0.021175003 -0.06151263 -0.13174745 0.040605795 -0.48546225 0.44851786 -0.056940533 0.6183472 -0.10854467 -0.39144564 0.32300317 -0.0092488155 1.0241724 0.5394206 -0.37184528 -0.06762135 -0.23445012 0.19181757 -0.7133078 0.04438853 -0.73520494 -0.16005549 0.2258763 -0.73230433 0.037325196 0.2989829 0.15655206 0.52900165 0.26075274 -0.6394686 -0.1509887 0.7076431 0.42265445 0.9161865 -0.2508166 -0.27132872 0.9973907 0.22600977 -0.14274837 0.022931967 0.48383602 -0.011117795 0.3902689
http://www.co-ode.org/ontologies/pizza/pizza.owl#PrinceCarlo -0.3642069 0.17184655 -0.5019482 -0.09827091 0.0975928 0.5299472 0.074701644 0.0023596985 -0.3385357 0.54744387 -0.39703944 0.34794724 0.7021776 0.10158469 0.21062243 0.33468732 0.8850923 -0.104724236 -0.46078816 -0.29422796 0.2681702 -0.05702009 -0.051006433 -0.27113247 -0.17715134 0.44264022 -0.66449106 0.49999985 0.43580267 -0.24807698 0.6756892 -0.3887508 0.4162502 0.3173871 0.36766648 -0.5382488 -0.077828676 0.27564642 -0.32782272 0.8839435 0.35319507 -0.25957078 -0.23412634 -0.04918464 0.09292563 0.6627411 0.47331887 0.031440213 -0.26917523 -0.052470896 0.47788513 0.21948622 0.14317843 -0.25481012 -0.35895917 0.47218415 -0.095079154 -0.15341084 0.16455461 0.098353505 -0.022042109 -0.2872011 0.42292312 0.32711375 0.6359135 -0.005871528 -0.40650436 0.38915375 -0.09657805 0.18603335 -0.2156526 -0.5257056 -0.139823 -0.35038045 0.17139229 0.0707631 0.021386953 0.38798282 0.028837485 0.41503754 -0.6916772 -0.25421476 0.42901438 -0.11485867 0.6937134 0.16280863 -0.45538646 0.25166115 0.6321883 0.09625406 0.30696446 -0.11847117 -0.28678572 0.959005 0.33704025 -0.04303032 0.221304 0.53471965 -0.7506936 0.32280695
http://www.co-ode.org/ontologies/pizza/pizza.owl#SloppyGiuseppe -0.07898294 1.0368643 -0.53176373 -0.6760983 0.23393133 0.09775505 0.61866844 -0.505967 -0.101225585 -0.09144867 0.02088939 -0.027611198 0.31831804 0.03534531 0.37596032 0.3645372 0.26602104 -0.29590946 -0.32767656 -0.653715 0.48686126 -0.2635729 0.45675606 -0.10642268 -0.1723894 -0.2327165 -0.91809535 0.79627806 0.29145682 -0.3209025 0.5841508 -0.26531932 -0.09631332 -0.35438782 0.15296024 -0.12858589 0.027445493 0.108624935 0.09320169 -0.15975441 0.28178763 -0.36422747 0.27678645 0.009055434 0.13414247 0.49278468 -0.15580499 0.09115127 -0.065681465 -0.07871009 -0.03306937 0.17244454 -0.21540838 -0.38272408 -0.020037921 -0.1513571 -0.45748618 0.27983752 -0.17105721 0.081980646 0.1171499 -0.5507537 0.34342363 -0.36020952 0.22041708 -0.37692887 -0.32879397 0.43830886 0.12342739 0.491682 -0.37963516 -0.31422934 -0.62457347 0.15026172 0.24790117 0.119162194 0.22391325 0.23036885 -0.14428505 -0.3090889 -0.57027334 0.0090601025 -0.014885934 0.6148137 -0.1307141 0.64495903 -0.46676707 -0.477729 -0.002032731 0.022561142 0.54119074 -0.20731594 -0.5911317 0.5545019 0.16139255 0.60595816 -0.05467502 0.8963276 -0.36195472 -0.14966069
http://www.co-ode.org/ontologies/pizza/pizza.owl#AmericanHot -0.5271669 0.31584835 -0.11710811 -0.42807022 0.28300157 0.19781654 0.31948382 -0.53660756 -0.45241022 -0.23353128 0.097939864 -0.1899986 0.20178615 -0.17981862 0.14613312 0.530974 0.49511072 0.09976693 -0.13876371 -0.5326498 0.091351934 -0.6346811 0.26551124 -0.046069376 0.090830944 0.24956006 -0.9263767 -0.004419864 -0.005855754 -0.22242053 0.46507972 -0.3076688 -0.29865628 -0.027265247 0.09005439 0.111463085 -0.41781706 0.07226235 -0.0077692005 -0.020921558 -0.28110644 -0.585312 0.44050968 0.030101549 0.061918262 0.53474534 0.008262991 -0.3888908 0.3666533 -0.10969942 0.45748976 -0.011143713 -0.12835182 0.14059554 -0.15694034 -0.14443745 -0.69723374 5.6436766e-06 0.28023505 -0.19939701 -0.005454086 -0.8320927 -0.1561314 -0.29147565 0.2916046 -0.030119803 0.4808005 0.5328842 -0.039302234 0.60159284 -0.21739897 -0.06312641 -0.48977554 -0.20466815 -0.057568964 -0.850466 0.16068852 0.39501134 0.004172759 -0.1611939 -1.0514655 0.4314828 0.2686806 0.55639476 -0.02366429 0.48121172 0.12297528 -0.47947592 -0.10614187 0.7033244 0.4599544 -0.10072243 -0.43821982 1.0658143 -0.2416675 0.30087304 0.6682112 0.35709757 0.17800619 -0.04660806
http://www.w3.org/2004/02/skos/core#altLabel -0.49182928 -0.3959426 -0.9532774 -0.47095823 -0.07969958 0.32730943 0.0759475 -0.6487026 -0.3876 0.89827496 -0.15195967 0.46994552 1.1239138 0.22068094 0.41403437 1.591952 0.71699697 -0.7245102 -0.088523954 -0.5017286 0.40072736 -0.13207567 0.401177 0.93056655 0.12623313 0.09618287 -0.6768907 0.99904376 -0.19445617 0.09990924 0.7165107 -0.9283008 0.50673175 -0.27606025 0.13047351 0.5427672 0.40742192 0.743222 -0.47008738 -0.06587041 0.019603001 -0.3318157 1.1788113 -0.19313747 -0.3465929 0.28958598 -0.06507714 -0.5523879 0.21396321 0.07349839 0.56137997 0.061632194 -0.029430214 -0.18855238 -0.41559443 0.38304883 -0.4940887 -0.15699427 0.51899874 -0.027267348 0.082719125 -0.79649585 0.93825847 -0.36389226 -0.38144082 -0.23953424 0.4394298 0.14662199 0.67760396 -0.20775606 0.20874868 0.18412682 0.40147576 -0.05034012 -0.39467293 0.06509393 -0.3817814 -0.55880433 -0.20879398 -0.20128286 -0.5385776 -0.37682548 0.01925224 -0.91998845 0.387846 -0.20102409 1.0156052 0.47691724 0.31278405 -0.303084 0.6633753 0.24325702 -0.27901042 0.057034552 -0.18883666 0.046075314 0.30806556 0.58543515 0.061497185 -0.26109317
